{
  "hiddenLayer1Weights": [
    [
      0.8135382688817545, 0.7569370017620467, 0.4901339323186469,
      -0.1972350546899717, -0.33417974667008643, -0.3884269020617457,
      -0.6626045253421444, -0.2023601499426757, 0.37413379813888703,
      0.3017598235564063, 0.6743235281453814, -0.8796056512763952,
      -0.4096103732858727, 0.2961392115074437, 0.5903587694286858,
      0.7437717181341821, 0.8302049626623313, -0.6696035571013379,
      -0.4074696192178515, -0.5910510217867206, 0.34454579986899336,
      0.37910059910952487, 0.7878429817657544, -0.1854960358474531,
      0.7111504893950871, 0.3684404161104946, 0.48708696147905384,
      -0.761982665373564, 0.14894204144138667, 0.9986611480842957,
      -0.728102849763328, -0.4192911169470248, -0.07343146390909094,
      -0.04355090238974135, -0.7658903440372891, -0.9934200278510494,
      0.698084537383834, 0.2575176893567921, -0.9955693546305406,
      -0.6851154489812199, -0.9495574993343348, -0.7348806710588707,
      -0.6969580638049209, 0.25835911017408053, 0.21359231746920226,
      0.7007324434474027, -0.19663902725803073, -0.8049760688308338,
      -0.977351787717923, -0.2261861626868682, 0.539958392237589,
      0.7942040597305038, -0.6964361607747431, -0.7791624374537705,
      0.8705343808505761, -0.6284404130166479, -0.19058378835150158,
      -0.8899843040802238, -0.18560147128279425, -0.10326478920337001,
      0.5803255594731938, -0.7515991560216166, -0.4665165973900822,
      -0.9701403749025554, 0.7454730095277271, -0.4973874501066118,
      0.8451522468369332, 0.1635482838286353, 0.11585806877166105,
      0.6586989894694173, 0.7098244432126251, 0.9166552982034388,
      -0.4593342740702462, -0.6389671281559939, 0.9902085268323799,
      0.3839679674010861, -0.33998343732059455, 0.16623841235398595,
      0.7599044148548182, 0.12664220129302795, -0.5236436598633314,
      0.9164121984516886, 0.4098840931062595, 0.2779159272666507,
      0.009461781780086387, -0.04394189196783094, -0.2032946062532366,
      -0.6561784263750181, -0.7400344826801093, 0.7581939513645146,
      -0.0697415551689109, -0.30214814906611, -0.2322060353816746,
      -0.17555086074676485, -0.0849789391506417, -0.6943816584301534,
      -0.46683023288219294, 0.3619138723712503, -0.6659200781194108,
      -0.7399514561071916, -0.6152092862950633, -0.4114936931375226,
      -0.3211841164458704, -0.7418836981572903, 0.01889466262076933,
      0.7474623888788154, 0.035186493096836635, -0.5009881509919554,
      -0.04200678900549315, 0.5787993812341612, 0.78827365155988,
      0.007265491521077028, -0.3230466370644125, -0.47530994808364646,
      -0.5264403437506107, -0.415943334377733, -0.7182857223641346,
      -0.2864713169630053, 0.7550696432517481, -0.08926324603932256,
      0.8132487499891616, -0.7923084440467383, -0.6189742663113806,
      0.5730898110624083, 0.8581280897239276, 0.34659112320944274,
      0.6618212659252971, 0.8451415493844268, -0.49825965309847575,
      -0.1558429801706982, 0.5067400754509861, 0.3214771803175416,
      -0.41211172680355546, 0.6195838873652666, -0.4787171419873517,
      0.08490682315322129, 0.32212957866683656, 0.455642128100779,
      -0.2975456020649436, -0.3540969629939492, 0.9608001576182179,
      0.5835994210964701, -0.010000155364342955, -0.7135280215863222,
      -0.5779174751744964, -0.395776659268789, -0.6318639923744422,
      -0.838202842519169, -0.4179204840498665, -0.7127603339604898,
      -0.0977704252813254, -0.23004240802462483, 0.8956777782446386,
      0.5686956279792694, -0.6651780449684237, 0.9489767806665785,
      0.9611695191290957, 0.5106932550040266, 0.6762814342855714,
      0.4677371197058564, -0.0119397461299946, -0.7523572798066027,
      0.5046617103032842, -0.9138489177691871, -0.7156314999139544,
      0.8598811043787333, 0.7008204644176241, -0.2463039533543152,
      -0.3286342805860776, 0.06926244245503899, -0.6307087070659638,
      -0.4567518513065836, 0.8049575218652234, -0.25431180191261626,
      0.7443669803809883, 0.2191300655028261, 0.4545857844819139,
      0.8533999427438541, 0.7235218394184635, 0.5421357050245708,
      0.8600509091585287, -0.9050938716704624, 0.7815554199976971,
      0.5212357440916295, 0.4874199860425392, 0.2517263562647627,
      -0.5868122179815622, -0.769539704880279, -0.5021109374713486,
      0.2312671536322619, 0.9432919869337697, -0.4128415155580112,
      0.5063460498663952, -0.9495372206329185, 0.9573507869517051,
      0.3513394147417852, -0.24530501019314066, -0.5889871185750186,
      0.281666025549419, -0.9408019566828139, -0.04567102182297322,
      0.33966108300415865, -0.3540130816884983, -0.3613730292589281,
      0.3120793447706447, -0.7825009994129064, -0.8509786881394086,
      0.18660679380491052, 0.10650897894740519, -0.1255806780669566,
      -0.3540983936892328, -0.7287079990139347, 0.33357330659025175,
      -0.24408509508565945, 0.16470560375503807, 0.5140288361546337,
      -0.8134474128073914, -0.4434746344665421, -0.5375062414164655,
      -0.8827716232638196, -0.5015442259652301, 0.11084288264171782,
      0.8906379379233611, 0.7925657269170316, 0.9855637339219339,
      0.3635608459484856, 0.8860441760847309, 0.42205593911441763,
      0.4797761384594277, 0.42395919296880535, 0.14837827703394169,
      0.2724753677400602, -0.7330241033845053, -0.6476782133518655,
      0.29875794894567376, 0.7513505025175302, 0.760115064079002,
      0.240735679600649, 0.9169224601012975, 0.08734580934029257,
      -0.12263415917488185, -0.28213271451822397, 0.4395183510374028,
      -0.33134300427700314, -0.3660646109489707, -0.7546972969273553,
      0.9209484417346387, 0.4089339662466571, 0.27543399014068326,
      0.00948753033460914, -0.6635873229532212, 0.06940153507097202,
      0.38475133741459366, -0.2502588274284334, 0.6052997444714641,
      -0.9530428456526634, 0.7412745005206514, -0.18796384410043077,
      -0.7776528248528782, 0.30421706797545456, 0.2758181335342109,
      -0.0870088474968953, 0.2896562689055866, 0.8346305443950075,
      0.6706739907344068, -0.47775447570384655, -0.1821389201224175,
      0.9776193716895638, 0.6030622355042978, 0.08442633866034033,
      0.7604436042358218, 0.837413907662619, 0.5685231114150433,
      0.605301363916376, 0.6848833133321515, 0.5416409666820896,
      -0.9083175423931298, -0.689722559067588, 0.6034745883293078,
      -0.42052850066866476, 0.7628406050725092, -0.4392600242904954,
      -0.8445997931743627, 0.5158859697797245, -0.7604287124467093,
      -0.547812963588894, -0.9698981898201611, 0.7846533938599567,
      -0.5750754309465878, -0.29641043393633026, -0.9416920141293268,
      0.09201141329940032, -0.8250597465464269, -0.4713661986989175,
      -0.8066817992922655, 0.45873901400493944, -0.12399630047045473,
      -0.7260596961458123, -0.25103210198497594, 0.09811662161331958,
      -0.5247862492592552, -0.44472146843375615, -0.16488025975704268,
      -0.2957125978412911, -0.3986464773984686, -0.23248470864638904,
      -0.7644135496686455, -0.9232536649481289, -0.22609127594438982,
      0.33564203993510855, -0.3901218102210935, 0.0348077719783384,
      -0.8591428171963655, -0.6044700994826115, -0.8044845521159685,
      -0.6916031717572801, 0.6807787207542977, -0.48403031908130334,
      -0.049852389177659884, 0.9568328279284359, -0.6675040272928534,
      -0.18386820317442654, 0.29570839473262023, -0.14039668099630687,
      -0.7392752370734761, -0.05303973850892385, 0.6842991262588289,
      -0.15200811423603167, 0.014214808865140593, -0.970860020368141,
      -0.503242315729695, -0.7811095414958946, 0.876355606819307,
      0.09278950819863496, 0.8090452218970592, -0.3727561867272371,
      -0.16376713215602434, 0.9649156935135745, -0.8133560350095581,
      0.1439799052175239, -0.4324231621284791, -0.5259661912896854,
      -0.38252848851680943, -0.5718664476544157, -0.5007080378248561,
      0.5675212754916443, 0.09917342289384701, 0.1615564382845629,
      -0.46024933732826767, 0.19096500593353838, 0.8636529929182024,
      0.2664641932601639, 0.29584763318829443, 0.3007828307059546,
      0.5658373340957397, -0.639143883374671, 0.8729274364949067,
      0.8909445288828413, 0.3221964133403499, 0.49517581270637034,
      -0.581983532880999, 0.8965605424100431, -0.7593989730246649,
      -0.44763692213066886, -0.6868702318339479, 0.3173496185105673,
      -0.39667801773003086, 0.9003820629751114, -0.013786613728413055,
      -0.37201860790647556, -0.051387467240691986, 0.6400046282439642,
      -0.14773660379736064, -0.48460030833075685, 0.17428200936642746,
      0.7709525126000911, -0.5478924985550324, -0.30495559840573705,
      0.34337444124000926, -0.3287514085549441, 0.7325573301524102,
      0.4348002071811452, 0.01972863906750799, 0.5479225991428929,
      0.3037565656669785, 0.9081492395533108, 0.42045733989982104,
      -0.08674449749334912, -0.4412873920828111, 0.7629510935442365,
      -0.06453971416706672, -0.7804089690960723, -0.3329839121784759,
      0.09791917163235953, -0.8636084118716285, 0.7575460644832233,
      -0.18932042431648144, 0.4071410178964383, 0.23318584077074522,
      -0.4077712576471275, -0.4653755254336378, -0.3216640116187852,
      0.5827331172034094, -0.4694428744976924, 0.02724243142936711,
      0.7962553850310248, 0.571174069813714, -0.4437126109698464,
      -0.3507659759414823, 0.294650720059082, 0.48657590979339016,
      -0.7264396613644477, 0.4203009982601613, 0.9047018038305286,
      0.8182627397977593, -0.2916421276935841, -0.7642954175957244,
      0.2320136662540926, -0.8091910817124388, 0.9161091899645801,
      0.002585036198974322, 0.8123306212289334, -0.23638390929829578,
      0.8131381108576758, 0.08168006303819508, -0.6948680231063342,
      -0.5364326032119342, 0.30410640938599354, 0.6745053044747666,
      0.14086076872360254, 0.14896126766875195, -0.682784757067302,
      0.9728921121433802, 0.1105194932054352, 0.4060134304244909,
      0.8413226217301761, -0.45344397635957945, 0.18174081391371733,
      -0.2616571074298668, 0.0017929766178359507, 0.5337922823815227,
      -0.1500129321146213, 0.37173677146495576, -0.12858923075167894,
      -0.12006886234115477, 0.7639489163517834, 0.034409304205044844,
      0.24114203029277537, 0.6312261455108916, -0.3895363918382517,
      -0.9120029009186927, 0.9455224838096261, 0.3223460568380001,
      -0.5889324202663739, 0.5351673004894928, -0.8497627050128145,
      -0.243985243607856, -0.1302644939399693, -0.7674388714840656,
      -0.763564246865577, -0.4549018682343773, -0.9764494071501817,
      -0.6262520765279542, 0.4030367427183026, -0.12858821098632234,
      -0.9014118160040225, -0.3746680737305659, 0.6831272951274134,
      -0.5198746378931172, 0.9769566273629273, 0.01764708964935613,
      -0.5562147428158308, -0.5432184925585624, -0.7206134484410343,
      0.18539346574045412, -0.16824749293097385, 0.29074248017910387,
      0.5233819612752852, 0.6862723083425535, 0.29864161001755063,
      -0.17849705295115958, 0.8827143310420342, 0.11379744791856705,
      0.8106292725376312, -0.2651259384502982, -0.216260942153069,
      0.533609388441719, 0.8694108271312597, -0.24984352756063855,
      0.5505789008052933, -0.9805136583648526, 0.5797753466238156,
      0.4499322044415468, 0.8496505314254281, -0.93946353819871,
      -0.6284990860592123, -0.5480758976980682, 0.4739097757152684,
      -0.7786854271326034, -0.055424250565669464, 0.41608496191346056,
      -0.915802054678247, -0.8813968443627327, 0.5782191305608464,
      -0.20936045039444062, -0.49398042265305975, 0.46412888040531586,
      0.9841849862863095, 0.7554735300443132, 0.9399401890310353,
      -0.18699945423298736, 0.360792456608257, 0.9966419912677673,
      0.0882093164701625, -0.623399908713234, -0.7015212501471613,
      0.62762588852961, 0.6719355884816016, 0.09121288171141062,
      0.3521528101931648, 0.2193872282931717, -0.03439729416481008,
      -0.6814706779191848, -0.05321284157541628, 0.14981121089989324,
      0.7643325438566948, 0.18773553799535136, 0.7077008814371237,
      0.1908137453681653, 0.9785255787177052, -0.3719174365616307,
      -0.47951079930356455, -0.13105380743297523, -0.17810171415789888,
      0.5178789536132467, -0.8318389067564178, 0.9821255602645245,
      -0.30642755239920794, -0.7241166772991141, -0.4909436155644209,
      -0.17142533467844245, -0.3154128822246909, -0.655457480141791,
      -0.423285914204635, 0.8935548287411108, -0.0018785554424152195,
      0.6785055058842722, -0.7517257417927836, -0.5089557247525431,
      0.9668717038570334, -0.7645664557559351, 0.14079772671183965,
      0.5386846743817837, -0.2692267787646312, 0.783535597092123,
      0.150237123459112, -0.30279512861253854, -0.4093543275999978,
      -0.5484850002123625, 0.776567594351282, -0.8085034469287451,
      -0.6342480581190988, 0.5635945782479288, -0.8260634088043308,
      0.1546579130660417, 0.9998696990792468, 0.04488275345260595,
      0.8632470557779617, 0.45449944020007393, 0.6821817187682417,
      0.06145236886072736, -0.7902309202270583, -0.3307354965430944,
      -0.3343229049094618, 0.7727381908026731, -0.16445806884917724,
      -0.5964797957098358, 0.9516113211996511, 0.9700954465828584,
      0.5265588225018614, 0.49172103566151915, -0.15827009997519426,
      -0.8867578849180386, 0.1416902466505201, 0.9234884776260586,
      0.41230006591724555, 0.19977518485750867, -0.6887059113489822,
      -0.3740575478114847, -0.4452855132757869, 0.7084314354721317,
      0.2991440854060472, 0.4142643901326455, 0.47454182798184075,
      0.7267219617439418, -0.8629514126148625, -0.46436535566959813,
      -0.5456668295560161, -0.8482531478932134, -0.8586427612606711,
      -0.6493744425433436, 0.3071323872088727, -0.748305876249677,
      -0.047470332546707183, -0.14419598475367668, 0.434729251791381,
      -0.480115033088806, -0.6119428234923778, 0.9206456010861381,
      0.35521993883535163, 0.32409738177475234, -0.7532872896423561,
      -0.5303527014714051, -0.4835034892105319, 0.8178471538081156,
      0.5868521646410199, 0.5850398329213791, 0.7504148203405818,
      0.5316624482023329, 0.2838920357992998, 0.682518652669013,
      -0.38489717459788686, 0.549424260580754, -0.9977337041555137,
      0.17511065346363353, 0.8796843054931327, -0.5526751580665126,
      -0.22277124724925912, -0.6213168108176004, -0.32061194819627303,
      -0.8750969381567111, -0.9583453271834674, 0.2600757292313802,
      0.24448543352547913, 0.636134609047557, -0.05237788760816109,
      0.41391041582445354, -0.6678848497596817, -0.4491494065307302,
      0.5353962560441405, -0.8888911381834945, -0.7132430775773413,
      0.66585278484171, -0.2812558017269966, -0.4105723447010474,
      -0.4049793811128639, 0.5302638453588742, 0.776372295420062,
      -0.2198888627854716, 0.766000362777175, 0.47206836727171586,
      -0.009148805675382121, 0.28447017708617306, -0.7024126083905458,
      -0.245143917499977, 0.9438502177090142, -0.13653183841470762,
      -0.7139724019987632, -0.8620738128769401, -0.9616989625063304,
      -0.32491224709586763, 0.7882000714812256, 0.8065412842774466,
      0.35676042591991974, -0.016733833307128965, 0.24801857751486311,
      -0.8601927873606598, -0.19735934501461116, 0.6886264528040562,
      0.7285076115800733, 0.5422596339615868, 0.8703250803000158,
      -0.5027241505135085, -0.05654152481604102, 0.8643478544229808,
      0.032437818384709605, -0.08250305060709939, -0.7391682116251412,
      -0.6424058733103464, 0.15749754808956906, 0.36765362963477655,
      -0.8726872993413091, 0.24332264101354317, -0.8872858276451083,
      0.9193325982364677, 0.8024142062791406, 0.6369132423984176,
      0.9614574426188871, 0.25265730428623767, 0.5923856651260753,
      0.21533511586477694, -0.18889612744813666, 0.20607910131700846,
      -0.19889292566086558, -0.5044217672947857, 0.934446497348902,
      0.199103431342198, -0.12770676496187638, -0.42824274305765675,
      -0.7467651303084875, 0.6433417155509269, -0.8710053240007261,
      0.45414220632968005, 0.7630329830897842, 0.44308139488961196,
      0.6503322265218232, 0.5966319216773925, 0.9814123837226854,
      0.5157205944551277, -0.7559539967871332, 0.8302598516251765,
      0.40323860095023356, 0.3213748791978013, -0.6489810437719763,
      0.8670509860066273, 0.9383733813057513, 0.7261516545753817,
      0.37097729330040874, 0.2555524885953955, -0.6998524278064173,
      0.03369975328235686, 0.8763147164727312, 0.6411997437598687,
      -0.8430795165034985, -0.5725882195906173, -0.5351993796718535,
      -0.25613967795951575, -0.5836724480530506, -0.6270686930477649,
      -0.6250853044504199, -0.5568301147112504, -0.2980233890751385,
      -0.9315835445796297, -0.5779129498501727, 0.09847466868043941,
      -0.6234687467282951, 0.35117675397484094, 0.5394485833152456,
      -0.004267433149316879, 0.4977653080644542, -0.09783203553273223,
      -0.9778373706116592, 0.014721617387661201, -0.4511836124165671,
      0.3473535586801866, -0.2719681938402627, 0.3099470948002594,
      0.9187519690228032, -0.5153140013574773, 0.47141944595398266,
      -0.9165030634719908, 0.07788258709176343, -0.40026573878868366,
      -0.40304290379054253, 0.16041221110714154, 0.9645233485665607,
      -0.6035169686579129, -0.8131079989033814, -0.40593733512725594,
      -0.45291373331229057, -0.973668805025143, -0.5182935065219789,
      -0.5661811740678289, -0.642752610533937, -0.7061845663461783,
      0.03694809657197862, 0.5598798753180332, 0.23736068368236563,
      -0.2635330140062706, -0.3177164230134091, -0.10027468741583645,
      0.45635619581595055, -0.5663716804607657, 0.21841933402782931,
      -0.8521288050354103, -0.8157874061276846, -0.9155361506036162,
      -0.778902052817791, -0.11633195763253124, 0.9277910250860555,
      -0.7428911559204412, 0.7491591067999286, -0.6302381005638256,
      0.4789646398236225
    ],
    [
      0.5415407040111502, 0.35383387406846545, 0.9024709720370945,
      -0.7747945169762538, -0.5604470157247521, -0.5297665366660547,
      -0.33767883413686617, 0.8905812735057705, -0.6383496416283929,
      0.0882616834436667, 0.5929359038260564, -0.188650809741143,
      -0.7226308437544229, 0.5002652446930322, 0.029904932118272498,
      0.0755984284561686, -0.9592637873428727, 0.6378417883512308,
      0.6352827602624531, -0.009110810114037804, -0.38562920582485694,
      -0.6600947119701015, 0.04343125287645444, -0.36739754774167244,
      0.9230304093345696, 0.9670627984019733, 0.3014868902771948,
      0.6443530462190443, -0.5011111989493515, 0.48254711963028196,
      0.6304553325064672, -0.05256555583254929, 0.0914111456523039,
      -0.4846211196808907, -0.8092441985555512, -0.9125518028852659,
      -0.9309797030344016, -0.19962611274036623, 0.05481741729989231,
      0.05501661308652617, 0.2726661291969843, -0.07023445988696242,
      0.026888212732268713, 0.53974561523325, 0.6219834182209758,
      0.5148951517306495, 0.6016756924454971, -0.21423139376670264,
      -0.2709118984581491, 0.8265649654201366, 0.9330368674844998,
      -0.6771423295639214, -0.0013452452362412437, 0.06346675625189535,
      -0.3212071348150052, 0.42406521060424396, -0.46892127080547175,
      0.261729080453903, -0.6847301031210775, -0.04274131044209328,
      -0.8280159785716203, -0.8239966686685158, -0.8201932687980493,
      0.9542305428789164, 0.16569792485895363, -0.5109435752638372,
      0.2089658240575134, 0.9916685473023996, -0.7448987318548421,
      0.5916278566721647, -0.11305460836493131, -0.14612130125664624,
      -0.7455245886298969, -0.01892872127479972, 0.783061438452676,
      -0.07999278938811294, 0.05558349834070064, -0.6806547993341634,
      -0.34903097461316346, 0.7443746672548852, -0.1437351987149884,
      -0.5103005054857181, -0.006056267717993613, -0.6441546863806695,
      0.5967644740274651, 0.8485953932982855, -0.31436885218563004,
      0.012768561945438517, -0.26195370396995665, -0.0018282829611870888,
      0.031974469937151806, 0.475988931251369, -0.7852170136590102,
      0.10178569944476568, 0.8276008363747556, 0.9823107196337482,
      0.9896793597446663, 0.455389478074701, 0.04204033423174859,
      0.8680438567151039, 0.742750574667931, -0.20276538466833482,
      0.7560513856576261, -0.054821731324967704, 0.8362744927529442,
      0.6104889789870978, 0.05791393134179712, 0.0018405406201922325,
      -0.18304146846666214, -0.2912941704526535, 0.06245367774189692,
      0.4170454518514979, -0.25351502511804336, 0.6079008444398264,
      0.3100729491100265, 0.630839521766204, -0.2800848082071501,
      -0.32873586430362733, 0.541750621595448, 0.2790368078453316,
      0.5717319694881549, -0.07934610754465286, -0.33487055558073564,
      -0.5546762275803361, 0.03159306284937147, -0.2539482386244427,
      0.22616397315510464, 0.5749257132182404, 0.40487887352694374,
      0.8368491095097563, -0.49548742848925853, -0.6168616763135057,
      -0.3472795169033773, -0.8012946882157506, -0.38787865198287674,
      -0.41376921884004103, 0.48227637346775465, 0.8857586456664164,
      -0.22689052095359674, 0.5622800182801648, -0.11234859696071586,
      0.8191331315293349, 0.974457120510511, 0.9867386614755795,
      -0.9455583058242736, 0.9087524534297358, -0.17672214306139322,
      0.30238991559536776, -0.2926657760681892, 0.9773369264848313,
      -0.23567014255488328, -0.31692939048240554, 0.5911400290832298,
      0.5413878797876142, -0.2962989015916744, -0.5808225469917412,
      0.2512376588312324, -0.895392023582263, 0.8824041804264628,
      0.04064928799501688, -0.5323774087216235, 0.6646665148269584,
      -0.48966248370541265, -0.26353650351913194, 0.010844378228347384,
      0.0022548133810520454, 0.4470660016661192, -0.6454384139986269,
      -0.8854239928147609, -0.26328075163141307, 0.8218492808111768,
      0.7064281525778826, 0.7890348058478138, -0.2911964914195724,
      -0.12248186944688966, -0.9296297692585473, -0.26948599921303806,
      -0.23611503058026972, -0.9353243806476392, 0.43536612226885296,
      -0.29231431576602374, 0.7385833744445245, -0.8979633962031173,
      0.42255268018997283, 0.4512813117852157, 0.3609542403798218,
      -0.7341372459967603, -0.174715543122272, 0.5179809424160946,
      -0.7094062428309371, -0.44007667821647134, 0.3735088830241948,
      0.6508789613900303, -0.34171100625170325, 0.1860175289839332,
      0.04481965880215588, -0.43533340635899265, 0.2721427522471349,
      0.30745608898589527, -0.21246042730785453, -0.5148789905481346,
      0.5016438019360039, -0.35231073499504806, -0.1198437488852333,
      -0.3733738400388247, -0.8355011548019773, -0.8413316468312746,
      0.2222584757965551, 0.8783022093765767, 0.9299451365023512,
      0.6085023382006773, 0.026740485362787503, 0.3792054634785482,
      -0.9038559439227134, 0.22555283421477235, -0.6406009857631023,
      -0.02382187715150863, -0.15521329751027313, -0.6165334863763716,
      0.9520179377250582, 0.022145340317759832, 0.16671345974079976,
      -0.7421450107281835, 0.5684968201217573, 0.0811129544325766,
      -0.31258438029741775, -0.524051933114948, -0.4313766622273909,
      0.7862435733000073, -0.9144461987589789, -0.9719891717927482,
      -0.2837719146193862, 0.3999254932066245, 0.528599778828998,
      0.5244294871882049, 0.9647743664247725, 0.8227197686929504,
      0.46907870306160016, 0.6781724724363221, -0.22050832862883718,
      -0.3599562868810433, -0.7911869597330741, -0.5427967446294044,
      -0.7719499492078419, 0.815763667109406, -0.8124940569031671,
      -0.7074630659940078, -0.3022889157312245, 0.7145454057364038,
      0.7419095903679258, 0.606117434878322, -0.016106979384511,
      -0.7306989262675607, 0.4452798138027556, 0.3296645141259642,
      -0.7200235863171756, -0.6034792110830902, -0.6979467349635233,
      0.5304252724615215, 0.36349685098033646, -0.43732305858401466,
      -0.6191022352224627, 0.4141678337275665, -0.2311780682361575,
      0.1402602853480266, -0.44917566597772307, 0.4386359297794593,
      0.36879165616389864, -0.2713071607707138, -0.880768497693178,
      -0.7357958684102011, -0.44956650482995375, 0.14012502719657638,
      0.46792135806646273, -0.4664844439778797, 0.8846192495755054,
      0.8872421429276298, -0.6257683790290596, 0.6427474135492726,
      0.47081548150365116, -0.4560675214979444, -0.5004518570586978,
      -0.4077777400256011, -0.23296711773273016, -0.5095412515634545,
      -0.3789017019682839, -0.5037838679153577, 0.8172234526095323,
      -0.493524886862315, -0.8792391227605405, 0.7419590337655788,
      0.12800914141664865, -0.0935630257307456, 0.8641352755920022,
      -0.2724886466657126, -0.5444353727679734, -0.44987313386565253,
      -0.05215262717049152, -0.0781702312782131, 0.4162487330984508,
      0.4147964619380029, -0.6448380526476605, -0.5932472529901274,
      0.9169599825816928, -0.5576365256334945, -0.08079557201661602,
      0.7987312479375182, 0.6837878861214746, 0.3447493590434765,
      -0.7774723993021766, -0.31251909617117146, -0.026678749296582982,
      0.48435821252478384, 0.9050457949718367, -0.02936668498148265,
      -0.2811034136622328, -0.608150703768986, -0.621230752820706,
      0.4444656148680681, 0.08233837791767053, -0.33787336330177187,
      -0.20727736158024213, -0.367727665837553, -0.3638418732125208,
      0.5306174618567643, 0.661297149182448, -0.9434125265207034,
      -0.27540074368558765, 0.6378275250520171, -0.596308053734592,
      0.29088026955869717, 0.8878150947424834, -0.3595995852922127,
      -0.9412122593593653, -0.20842928888708778, 0.6017281262364662,
      -0.44752504036127094, -0.09862757397609245, 0.3120640685337146,
      0.5268221124974644, -0.07845185565328006, 0.8251951625717293,
      -0.778221011126397, 0.14328012584800165, 0.605999532757358,
      -0.630343570757113, -0.7126880231978632, -0.00699791034741269,
      -0.5304974171179282, -0.36197946530429403, -0.25494423243753817,
      -0.26142036967963067, 0.7554619018289861, -0.7730494404876076,
      -0.4819841981501565, 0.8989040072102457, 0.7722283188237227,
      -0.03943552529051475, -0.020262027843618746, -0.3183905327270735,
      0.8387448201433445, -0.43169380272194147, 0.2233200664056474,
      -0.6690959944939388, -0.8499823454864721, -0.44450819636928474,
      0.6017929550079444, -0.03814937081015923, 0.80268870275584,
      0.6507849372137264, 0.512455691038955, -0.514491039379446,
      0.5159516909326114, 0.2751346520108018, 0.25657075821925357,
      0.21573390857511487, -0.7779848211192832, -0.5370400145130758,
      -0.9152382961668981, -0.10012334233605014, 0.7366325028220784,
      -0.42367913887428443, 0.05653692846603686, -0.11199027363065595,
      -0.19842539722112695, 0.2779373420664042, 0.6863136466847486,
      -0.1881525333702787, 0.6547103859426606, -0.5482839215888213,
      0.6830928897970043, -0.4313464998573515, 0.5066564972381156,
      -0.04053546221891002, 0.8902734032654229, -0.43408208775333446,
      0.4058280088136974, -0.3790062173462858, 0.31489046360638184,
      0.4613839054809259, 0.20529354459703386, -0.24724286694288855,
      -0.06446586769471319, 0.33847635678454013, -0.3833740349088042,
      -0.04828005057461347, 0.5752091819555409, 0.8006676468929879,
      -0.6612589287412183, -0.06533200194981914, 0.40879509660463187,
      0.6146071081576197, -0.4836265511087712, -0.10105085406596226,
      0.7193028750853157, -0.3288993883030802, -0.2556167033500656,
      0.5256714317087376, -0.08504416693250727, -0.6292789940202361,
      -0.09159846775535385, 0.996430788881975, 0.5963080596342856,
      0.5065936921193948, -0.5132505420839739, 0.7555823606792695,
      0.7099018135536008, 0.12255494834608305, -0.9738611372545263,
      -0.8750911922756939, -0.30176917651940993, 0.02038455258033435,
      -0.075405239676241, -0.36863024060153027, -0.6104867264192331,
      -0.4144801261238622, -0.6941333906181701, -0.4865896278240762,
      0.2654168074332821, 0.5838597220930741, -0.6695403446849073,
      0.5364847521871483, 0.4667678674175466, -0.6875559455563414,
      -0.9885707821525354, 0.9541821150709415, 0.061553832800710584,
      -0.9945479655261029, -0.7271114236351526, -0.0020965655277200845,
      0.8718406435112929, -0.03335763923834456, 0.1513028214657295,
      0.9029476898311617, -0.9372421719365791, 0.683367770992354,
      0.025593605089450744, 0.9441997230955721, 0.6964273014791864,
      0.32231681694869296, -0.788192887559934, 0.3342833755653505,
      0.3833901889411795, -0.373989272883799, 0.6592939802359141,
      0.4062615320870546, 0.37883086581163417, 0.8814382439750763,
      0.38302849387497107, -0.07050056087583334, 0.7128398686215904,
      0.3569524292516988, 0.9480301289295068, 0.8976282235699116,
      -0.1817993195481984, -0.4508455134153593, 0.9282242880450386,
      -0.8568545255968272, 0.028534270029616504, 0.12377741759038097,
      0.5197133561196585, 0.3090209764190903, 0.14910530123545174,
      0.6916935258247681, 0.9837195188380381, 0.3993650884280422,
      0.20782232549187765, 0.8673309740206556, -0.3992916997950875,
      0.4582116839239654, -0.9762599567939301, -0.882336923268463,
      0.2454863967519092, -0.05299613737975094, -0.24211751775834456,
      0.815965877620044, 0.6074932475330206, -0.30304564677888735,
      0.527991376245732, -0.026905083858212553, -0.9668119594981377,
      0.618986777535945, -0.3782030301441264, 0.6738923405633348,
      0.7634199786803539, -0.24353305329590302, 0.4566920353716526,
      -0.2604769430478391, 0.13205968237693222, -0.7310958093550934,
      -0.9292665165786924, 0.5153608122563296, 0.5580260898845912,
      0.9449699343408002, -0.9448358048700158, 0.05671154861843819,
      -0.6566871011389273, 0.11640599587482381, -0.060699972159000026,
      -0.9790279972810172, -0.9392658496951487, -0.27605735578658397,
      0.4242990278862475, 0.7629160958224421, 0.6931601882254319,
      0.564873443289291, -0.5376228877736242, -0.5459228069607378,
      -0.3187457714110171, -0.4243549960558548, -0.6218039552136378,
      0.6629680815171017, -0.3434463285481111, 0.6256941116996426,
      0.07853890775959194, -0.4405245505917086, -0.7583072599996492,
      -0.3491043950069015, -0.5280310047452077, 0.3109707319677417,
      -0.17013718037871106, -0.9200754294008173, 0.9921802556593002,
      0.086325284351088, -0.5808388587743196, -0.5932377476885877,
      0.012794137077069223, 0.41161775692414304, 0.7192222857983448,
      0.07746455193754453, 0.02866864644661639, 0.17165866420163045,
      0.838083026554445, -0.09938405642615011, -0.7554591826174297,
      -0.24843882375942838, -0.2141308524538985, 0.3025192340010836,
      0.43511401640032865, 0.12548959357491185, 0.4861656032456887,
      -0.8383212992092552, -0.8819335348968083, -0.29498141857335547,
      0.2061540626515752, -0.7574608630142072, 0.7469273460586425,
      0.3262020138219217, 0.6649167097795976, 0.8730074767027047,
      -0.6327414320075828, 0.4394365474755646, -0.07803800585789622,
      0.5701494280051835, -0.888670518324405, 0.5498898037186875,
      -0.7422404504726705, -0.9315114185710445, -0.6152202426743179,
      -0.7041296683001423, 0.6145181318745614, -0.09599719126078998,
      0.5915337714028079, -0.07170371820745292, -0.0939558012320525,
      -0.01282513566337018, 0.06888258964995453, 0.841527250820187,
      0.4284481608242041, 0.3431816013079594, -0.3613662007084826,
      0.26705583230433616, -0.26220615405923464, -0.683221380391267,
      -0.6010860745315791, 0.9178869565910643, 0.3748587583962282,
      0.37011527021473656, -0.6576578207604866, 0.5509441513973661,
      0.4100306864679193, 0.36444303053072025, 0.5223979577424696,
      0.43978806230441103, 0.588601516328255, -0.2969783913509394,
      0.6801518077312942, 0.18719913814500622, 0.0892679189025456,
      0.5404345632705154, 0.4269928866060688, 0.13277790272562706,
      0.5356383052083937, 0.9455284303628462, -0.46968400626197715,
      0.5729287748238239, 0.4140627977489122, -0.10185526438024084,
      0.8835700069861887, 0.4498284407782447, 0.2304904060864863,
      0.07090942282529022, -0.14938200223610343, 0.957501917603131,
      0.8450267740967874, -0.8237911487871226, 0.5781911325920266,
      -0.5365991851833667, 0.16792235460264449, 0.8054314341533573,
      -0.026801095373524486, 0.5963011606163202, -0.7819667220161914,
      -0.3027530335765234, 0.9320418132279662, 0.9502096980258883,
      0.07381213421455612, -0.9039751322983554, 0.8916548407645948,
      -0.8669500505327967, 0.2111834214811994, 0.6985631765748033,
      0.8494912822444864, 0.060858177125002744, 0.5127047699294414,
      0.8743361621177481, -0.8484136488503768, -0.4159553737387398,
      -0.06334133608257941, -0.7083005677418224, 0.5749236598101963,
      0.23579107498292284, 0.8038794261986095, 0.6917087140107951,
      0.18714328760064627, -0.42735905470578617, 0.7920728711619254,
      0.8664630506541644, -0.38922561234446773, 0.9209920210305675,
      -0.7515290177376017, -0.5728717178826157, -0.8424262424819,
      -0.024429710261099746, 0.17952370462639555, 0.043320521414651925,
      0.10954561592634349, 0.5866071587511996, -0.042559802891866116,
      -0.7020588892260093, 0.6653512804973061, -0.6895077631685336,
      -0.014753926047022858, -0.22342771779162218, -0.7451917548616551,
      0.9380494914115407, -0.31747876123983465, 0.7211016295605535,
      -0.7316785666269672, 0.6760793110476992, -0.5601063253141838,
      0.835826400883898, -0.9593611140663065, -0.10802969533106266,
      -0.4531270983847069, -0.2502428515147921, 0.7363068500731651,
      -0.5811229456639229, -0.6040082167836678, 0.490178699116921,
      0.49119477235503517, 0.7353243515765255, 0.8465296147452159,
      0.9210991334494478, 0.8786859305302759, -0.7895836537328114,
      0.9787707551077252, -0.05404481412624662, 0.030661351693753947,
      0.18770250957241297, -0.4208285046904092, 0.18330055971054415,
      -0.5893759933712284, 0.17433362236611671, -0.3636748905535816,
      0.023207491131365998, -0.8882448991972298, -0.855978102559642,
      -0.1643055762589758, -0.969690684729934, 0.09400794382013578,
      0.46560959931230883, 0.8716089353022474, 0.9588746267462045,
      -0.33515304307649174, 0.04669098030894192, 0.7912977241543744,
      -0.7384909970793552, 0.48200737825422424, -0.9170599967810196,
      -0.6203449892655151, 0.4720369637321671, 0.7983170550877858,
      -0.5741695344722175, 0.2702156176996011, 0.6385551147817319,
      0.013588177590352135, -0.24330706815059733, -0.9912741477763105,
      0.41017075374459333, -0.2535214628393683, 0.21554933544952393,
      -0.40134822509037305, 0.0728481695004568, 0.40181171020042816,
      -0.3279086535529001, -0.34269650159896603, 0.06458486093384375,
      -0.607914464281269, 0.6261657274368009, 0.044123269313060653,
      0.7833368049748173, 0.6444684747710312, 0.8039674319513286,
      0.8685137887913612, -0.2430688355815378, 0.01690961223432197,
      -0.2730432154872213, -0.6813714579391639, 0.29242201211340335,
      -0.08689237267311611, 0.41767487392857916, -0.136429867975846,
      -0.4910506435040558, -0.5615622776582243, -0.5674795374249797,
      -0.1547702816821208, -0.6366442535692571, -0.24418303179593837,
      -0.023843002685711934, -0.8055047945486526, -0.7513309756618787,
      0.8330402202567302, -0.3118718439890964, 0.05477028127446637,
      -0.582403679940295, -0.0969679933926808, -0.9136251677584593,
      -0.7900120294942843, 0.332519467342562, -0.3455858494396238,
      -0.5896075239437324, 0.556607395856882, 0.3606534875608749,
      -0.18680834676497193, -0.46819150245072594, -0.7267668107606506,
      0.981151487203296, -0.6577055559057032, -0.5775888260981192,
      -0.42089716356041995, 0.8457809839861774, 0.08169035249012557,
      -0.2256841611428757
    ],
    [
      0.1009269706092395, 0.2879360422249069, -0.7061130873108761,
      0.6846226070955272, 0.4577797135839181, -0.3413052024221348,
      -0.441236576715216, 0.952023247309612, -0.6082247379398988,
      -0.16606292012053148, 0.4274108243936867, 0.6679287044891087,
      -0.842560894856164, -0.6706705284329715, 0.1180876950852694,
      -0.04348662557689398, 0.2559433781453153, -0.6080179433270456,
      -0.1810550743327619, -0.5239929202262839, -0.6228767889720661,
      0.29357520605673004, 0.3079059596618836, -0.5303220163159481,
      0.6907201438401551, 0.0710149829996305, 0.5224977914462823,
      -0.6390999799771611, 0.5506389538492988, -0.7616400804534837,
      -0.629930503987365, 0.9250602197889095, -0.6873467423211448,
      0.8618262566501746, 0.08157832561159761, -0.577832860723523,
      -0.7389274564840322, -0.91830584677612, -0.9169304056696777,
      -0.8293232721687471, -0.2006934944471208, 0.9642726266552031,
      0.4093828585610466, -0.3931338762411527, 0.6650772513034862,
      -0.06507970471395286, 0.7189351306750229, -0.08479979770906043,
      -0.9822126222794538, 0.613335544135682, -0.042048522877435435,
      0.2202988045081944, 0.6513128783068982, -0.9247931774707583,
      0.9302993248355982, 0.32670506033689284, 0.7335826187748284,
      -0.014890422872304576, -0.5523377408291346, -0.026562158202708908,
      -0.6514977428051711, 0.29679059050691947, 0.19605328188665538,
      -0.9049231551540236, -0.7956553557141639, 0.3312758770033639,
      0.16417173041196698, -0.8706032783205875, 0.4304755204724233,
      -0.5785544938680838, -0.02057194736841339, 0.22704525817239896,
      0.7600953589154975, 0.030163287742685174, 0.5868450790117343,
      0.7944432920255, -0.09328046940717893, 0.4105356086041265,
      -0.49143874495386, 0.4752760615711651, 0.1460155094884712,
      0.2598389528249392, 0.20900956652643643, -0.7382931457933979,
      -0.4438409837343147, -0.3469409441134905, 0.3241609910959178,
      0.3693762623540646, -0.6924869703172103, -0.9670911913956113,
      0.153775618194111, 0.9748464630656493, 0.5739792939902975,
      -0.9483298779128821, 0.46719609588200495, -0.11675703468804073,
      0.7848623018257691, 0.20801876479478615, 0.39950521925779986,
      0.9164742406440727, 0.49383224033933715, 0.770167269678729,
      -0.7157577334326057, -0.09126884987941697, 0.9342271458869056,
      -0.04769254277573509, 0.5318797327529556, 0.8232076956740997,
      0.600147219010827, 0.9429061089120712, -0.8743102210929377,
      -0.52230099820386, 0.9601220710572824, -0.04822451055271948,
      0.3910222512050323, 0.20566304172661587, -0.25378740591307114,
      0.2227304813668809, 0.24472865119854603, 0.274669558717342,
      -0.25830283520583697, -0.22584096881417676, -0.690592343552786,
      -0.9058687654929903, 0.6151456555351591, 0.6060519478011539,
      0.21405325398461755, 0.27104462149988645, 0.7309927173350265,
      0.34947727001823115, -0.6395887351271261, -0.6135817282621314,
      -0.9032614052186689, 0.20179978456605596, -0.3465738835866419,
      -0.3104075023909334, -0.22782292105941915, -0.8028945590740637,
      0.7022821028083133, -0.35609303162603867, 0.07033801317256927,
      0.8857484255386918, -0.7652298450259911, -0.40057214737049085,
      0.9913243468231712, -0.6035372010422857, 0.9541516811486597,
      0.14097389074557976, -0.7434570737743021, -0.6302315560041337,
      -0.3906947704987833, 0.9232934787120577, 0.08102397765262026,
      0.5106579635085784, 0.6444019316409935, 0.9160947561190387,
      0.537276676428203, -0.7281405868442277, -0.11166727280454802,
      0.17664832425693255, -0.5076399936341431, 0.9754224581277224,
      0.7400424754262693, 0.18780034260573908, -0.08596177183985798,
      0.07383117594090605, 0.1974128231261787, -0.276373076571522,
      -0.7475393064819489, 0.26939555882149335, -0.19968249988004771,
      -0.8149455006750972, 0.9997536075853417, -0.2607219899330495,
      0.6209062171940056, 0.47605041899810185, 0.09708754229853549,
      -0.8688961961661179, -0.548156574080422, -0.7611128766518807,
      -0.07916323598985242, 0.04687617468193617, -0.04884230123565736,
      0.18308482395033598, 0.30875522767709773, -0.027676469017727426,
      -0.7446989878597394, -0.11162594681456772, 0.7624394153689926,
      -0.7191961521146824, -0.9151673831608114, -0.7537383523913657,
      -0.08334961529707297, 0.14527582403792616, -0.32775933874970686,
      -0.7031767653036094, -0.8344418045433373, -0.33535566380203896,
      -0.776821765396893, 0.33866307405471385, 0.43383812927659005,
      -0.8462583874477674, 0.7210966277979618, 0.16341933146625243,
      -0.6860930345221182, 0.41117407879847523, 0.39620451910707644,
      0.790196153519569, -0.3934046977985819, 0.08113745123838889,
      0.48445426837371386, 0.05399410662886028, 0.3782137711625184,
      0.43515674962319023, -0.2312264231982999, -0.5739372815259354,
      -0.7714354305657327, 0.06867805403736416, -0.5708311466564675,
      -0.18161205305022055, 0.8668829657609152, 0.3666866206085575,
      0.749061495038577, -0.05345319942393045, 0.9469329250471663,
      -0.6748009319357058, 0.8623483767296509, -0.8375528277464994,
      -0.4056394782455204, 0.6891118296623189, 0.659980357023056,
      0.6466755555326267, -0.08754318296001269, -0.12374564702578006,
      -0.06835853422656735, 0.3852371481713921, 0.2250305067386189,
      0.4071322918107403, 0.5560159534023525, -0.11983489653324497,
      0.36054470543161, -0.08447501381242313, -0.8644215488489979,
      0.9353872285713529, -0.5097964179043362, 0.010574408220653808,
      -0.8576284219849177, 0.3843553385867753, -0.9901278891753416,
      -0.916002338105439, 0.026725181293569378, -0.8511072149067953,
      0.6494548947241379, 0.7886016712263291, 0.2601706000166102,
      -0.1739396639100934, 0.5567398217471156, -0.18070154811160677,
      0.8551226285398279, -0.697206106575825, 0.5242197594365621,
      -0.64381679928557, -0.9193482518298746, -0.718090753783196,
      -0.7413081979772334, -0.3516971245885818, -0.8775919710299198,
      -0.17765755572263853, 0.04374072276158669, 0.3402896119613725,
      -0.2607735661257857, -0.6206994444336171, 0.8143214044741196,
      0.07192023239449519, 0.7415289281829365, -0.17564410124554586,
      0.5507012466666521, -0.19300656700660923, 0.7380250685424277,
      0.694447608547776, -0.8999156855438555, 0.734720239557686,
      -0.7730801554312623, -0.9297657497302851, -0.7928249692107712,
      0.9575166487710387, -0.6969545420686178, 0.14462335293769835,
      -0.9831944364609324, 0.8620074788343789, 0.5579576318171181,
      -0.22801463525311627, -0.05118517584278903, -0.5197736855091861,
      -0.9725965787252546, 0.18621126671543076, 0.18991087505538612,
      -0.5505070579886753, -0.2665420162000256, 0.21055030692676668,
      -0.6459810936262045, 0.7372144255728461, -0.29661520475363723,
      0.49898081602921396, 0.24045145052319672, 0.7203018638949716,
      0.3690061399773241, -0.5389601513373194, 0.8953367235476941,
      -0.5168166269953467, 0.29664693281833854, -0.18612767751325698,
      0.2641221099578259, 0.8046315155096653, 0.7108053246461465,
      0.6033599239289442, 0.7155003066464838, 0.5230454992135192,
      -0.4295616033189554, -0.27937823701435033, -0.24859276702296107,
      -0.8318669530195297, -0.2684888466849884, 0.28533118337626723,
      0.48451445075876215, -0.5055376842649544, 0.055765258618506675,
      0.28536632371612214, -0.6794838806270151, -0.27300839074440475,
      0.1078560294358839, 0.9310295953606036, 0.6191398406882569,
      -0.0666345810291844, -0.018917137919768123, 0.3060883709748783,
      -0.16703708455652944, -0.6592784168323478, -0.1378743207596007,
      -0.6189156873092898, -0.10216160449980327, -0.8401998669161648,
      -0.9568819076635369, -0.3358640028643536, -0.26795552931062616,
      0.589282456655686, 0.7863048189167348, -0.7323718658616399,
      0.48158162926342024, 0.8020708589138632, -0.29588030732660103,
      -0.9750737382997193, -0.5411310353582683, -0.41351541045261175,
      -0.9295433828034061, 0.8906442374785368, 0.4602037089773696,
      0.3765380315783813, 0.33832755834654105, 0.5810370008814871,
      -0.22474217213067016, 0.3811664820479055, 0.8433914706315528,
      -0.6580625912360034, -0.8785570117332342, 0.6157586375441686,
      -0.7209334644637826, 0.6902416247794285, -0.17239270912680693,
      0.5707448653144733, -0.630312070539325, 0.5793695863958215,
      0.47465094338999547, 0.241008736371219, -0.21891563955249493,
      -0.5189619653935389, -0.413579444023326, 0.046860848060622226,
      0.09258127333155779, -0.8868780097524183, -0.4605915958087752,
      0.6950794640357163, -0.5245612550919101, -0.20763504383209197,
      -0.8490659493000967, 0.5181681406050966, -0.4416459589453101,
      -0.054961206521664696, 0.4334789597887734, -0.43695270306963563,
      0.21628722991910987, -0.3106766831862564, -0.44333064106326914,
      0.23034346290166763, -0.6993770634227476, -0.0765722271040814,
      -0.8035454066214984, -0.3541781327296438, -0.5328561214105627,
      0.41976734703279694, 0.796712260268984, -0.561082027451965,
      -0.6533961430788935, 0.7331740350177052, 0.02979138602232949,
      0.19025269923675342, 0.48214572578676623, 0.32103552887911574,
      0.19774434546278163, -0.08980838190045848, -0.5001206824564104,
      -0.44860170976155134, -0.05336642240847178, 0.9209987617655924,
      0.9213560755842312, -0.34586707901655744, -0.6695720223390174,
      -0.021117778326172676, 0.32763147252463787, -0.4616843310496166,
      0.4182949890476233, 0.060431114228718386, 0.0033315889148468614,
      -0.34442464614049717, 0.346964240008516, 0.14574442538664378,
      0.1139928552797187, -0.3091353733366442, -0.39411721056632576,
      -0.1464296647970733, -0.9584762699780933, -1.0074901245773513,
      0.5007981082661587, 0.1829832349729137, 0.44583341713929814,
      -0.14013765330074174, -0.8208678661091208, 0.22103590279252883,
      0.07378940928378741, 0.24519933234003988, -0.8857600460314874,
      0.6494069722333413, -0.6950757554477365, 0.02698671018952714,
      0.25189638538715586, 0.880125004731195, -0.33314465940054827,
      -0.6864803900341436, -0.8687781266009513, -0.4230529207708953,
      -0.5855733341549514, 0.7737173138725293, -0.4603074611293896,
      0.9810827630927248, -0.4587831517912937, -0.7817238242035325,
      -0.969217928801593, -0.35296027844405264, -0.2553846863635854,
      -0.9917423845736414, -0.26170009443892894, -0.5017651499210927,
      -0.08264444379375213, 0.750225702920956, -0.7074376575614308,
      -0.6196509155104485, -0.6348187611595617, 0.6422454724961639,
      0.6964881771041855, 0.4168536051035834, -0.26416988454577606,
      0.6225340709629132, 0.6746047212278414, -0.08260788339488823,
      0.23725491521474362, 0.01994476629894537, 0.12310208666195521,
      -0.3578702514167307, -0.8989863832287481, 0.69726861233169,
      -0.6035401504862024, 0.35911086683056315, -0.4589314814307075,
      0.13882934437332395, -0.133996313096584, -0.34607847343498177,
      -0.5290522088755344, -0.024938726501657626, 0.6388482788134269,
      -0.5296276647187801, -0.8309307169816988, 0.0076471952912595675,
      -0.7194297996196433, -0.6962625227706712, 0.41646352912344886,
      -0.08582473961830495, 0.34634934002065565, -0.06538780129746335,
      -0.8869605459765668, 0.753214740835221, -0.6882141139588751,
      -0.3335980001829131, -0.9676038115229759, -0.9080311407572341,
      0.5941886342423595, -0.5767071378434849, 0.4635267867290618,
      0.6424532823767106, -0.9185682805132491, 0.9409137072216547,
      0.8510501672746145, -0.23039091563832548, 0.9401920942683981,
      0.4092777032324046, 0.004424441969954104, -0.40471267700189806,
      -0.8521097119334162, -0.31376718632911826, 0.4439616183952175,
      0.7181327835949127, -0.07093904369975146, 0.22079939034855872,
      0.8751308649011483, -0.8220350118034778, -0.12387523609699436,
      -0.5738608088254797, -0.7501930358451081, -0.703592527182356,
      0.3060571226742268, -0.6902054199187098, -0.45062380391008094,
      0.6508239980055248, 0.09590103603091471, -0.148542832623483,
      -0.619139477164798, -0.8611304033736178, 0.25125444045796597,
      0.22789410945772337, 0.12066833902157148, -0.10379472287787994,
      0.38695342490649054, -0.9483080947154382, 0.0003969986391960667,
      0.571575249217072, 0.5046341596255615, 0.8090586023098649,
      -0.6465525532650114, -0.34650025415074026, -0.037339682107153216,
      -0.41384878419009885, 0.03430256381819545, -0.019984804798272915,
      -0.8195185706598811, 0.05695150525290149, -0.8279620350032935,
      0.9409044767989858, -0.7924757106428442, -0.6257558343026539,
      0.8167719524244244, -0.3971813821497858, -0.3906314593139979,
      0.5507265987428864, 0.6746226231177994, -0.6461767578216295,
      -0.22810707067761715, 0.9309839538079228, -0.5192767005100074,
      0.8099806728395595, 0.16801505557125868, -0.481308510083387,
      -0.8614053758206865, 0.5748228052620408, -0.2698870847433459,
      0.9987050101127375, -0.525610776525816, 0.07331616623316606,
      0.08137899608253596, 0.9820635306989045, 0.5750132516058123,
      0.5672182769662109, -0.654313278515593, 0.260296171491027,
      0.6379671960848268, -0.49842949137831605, -0.7231665375127054,
      0.35248823301784027, -0.2656667646371562, 0.8224771261680304,
      0.9901622031091986, 0.26193230458636707, 0.2317487621422143,
      0.12260096112168695, -0.3849424453121708, -0.48175060435175565,
      0.224003210910936, 0.37854181095368666, -1.099510925846872,
      -0.893354000561831, 0.7594690143290026, -0.27801401821972593,
      0.7447260339367681, -0.9775518161224706, 0.5665104585341276,
      0.678763177934059, 0.15128935617258366, 0.24675456597101858,
      0.2208696212875258, 0.4561488024888405, 0.09617938435242213,
      0.8407058640531928, 0.08124922002674495, -0.18961858167033263,
      -0.7038674873944233, 0.8528165067110915, -0.9250333892765488,
      -0.7571480314795531, -0.09571805112207743, -0.7295932041351718,
      0.6251510392463868, -0.21394477223907726, 0.3258755478876516,
      -0.3971668481718402, 0.5659211100410348, 0.8706801926438326,
      -0.16484253304935725, -0.1273232167683816, -0.7666223080142448,
      -0.5427786290433056, -0.4694630320380191, -0.54906696003115,
      -0.8461398092294443, -0.976062736379717, -0.7266542918715154,
      0.008366198282462031, 0.8570011403839506, 0.30259150918354694,
      0.20376558705810188, 0.38141287536406665, -0.013027589230328207,
      0.5252158769767297, 0.38597203421722037, -0.688496986860121,
      -0.5491357603551035, 0.007488398462810686, -0.8703862038965768,
      -0.7523921580737571, -0.25645224746347894, -0.29480836273217204,
      -0.2798802021287301, 0.3095685559698165, 0.9451429874501969,
      -0.3017764033473789, -0.7095855432233442, -0.9714411498688409,
      -1.064734486822942, 0.4810482387100565, -0.34686698155569445,
      -0.7241260165355926, 0.14532460194395375, -0.16193399637226108,
      0.12283831440502306, -0.20364940040465562, -0.28644379773203266,
      0.7674696115116246, 0.8698297350182265, 0.5330602613455828,
      -0.7216625131650196, -0.34029347829731016, 0.40770191326184646,
      0.8870659040612843, -0.376439561645308, 0.22086218196951224,
      0.34512798286151103, -0.662056928895963, 0.09193898426194425,
      -0.6771529821334838, 0.9229734732800079, 0.9370847125645754,
      0.49988359043239416, -0.8729583394723237, -0.3846211717676935,
      0.24426287576516792, -0.048609100020258644, -0.4623769202024337,
      -0.15027110108331732, 0.4934059597609184, -0.3303359688001799,
      0.3984869360630765, -0.6314380675488374, -0.20014691883516234,
      0.4847443022322464, 0.6702516206102884, -0.082878561097941,
      0.6745546972139849, -0.732049106156119, -0.4608069200775655,
      -0.5896398240622966, 0.7446192938859655, 0.40901479085705095,
      -0.9513451036207159, 0.3031063272379053, -0.5758152988360403,
      0.9102571942079507, 0.9166110079786849, 0.9307856475469349,
      0.48245471687340524, -0.5407637505175393, -0.4340520357002968,
      0.24840448559265704, 0.0883522899385838, 0.20674265822921845,
      -0.16247881013885168, 0.7045953678506436, 0.24450449485627646,
      -0.21379872984154513, 0.8777527918122683, 0.6921013113406862,
      -0.18817655821768753, -0.30238583106201977, -0.5436444237876104,
      0.8935300274669014, -0.04954059271337874, -0.6498881213787384,
      -0.1792878541532037, -0.1310090619141766, -0.8576931767124876,
      -0.2278618515944295, 0.333624327869924, 0.21385820512135734,
      0.7244698827305753, -0.23843332508114745, 0.5195237395818078,
      0.09471563911644898, 0.9394718912694606, 0.12413692077354899,
      0.12676522843967497, 0.13646559083914322, 0.3001626430745987,
      -0.14201918728113672, 0.19370039128494065, -0.8315224940536514,
      -0.6133297121644903, -0.05996981567215487, -0.6352087486379858,
      -0.9626480768045602, 0.23538630115124048, -0.650965282418043,
      -0.2407932694695929, -0.4166686468153089, 0.5871405309309767,
      -0.8528784333273038, -0.4829131105361575, -0.9445003644734298,
      0.14860459248348912, 0.39393905405892404, 0.75740569979591,
      -0.20922703328655512, 0.6709113867638292, -0.3940105463508501,
      0.18495704221100207, 0.38479910370674064, 0.3237215424963229,
      -0.12906850191917707, 0.07840831215504052, -0.8729407887988572,
      0.9695390223774694, 0.029240712425205206, 0.4123816000615994,
      0.5502521852920554, -0.9115985688157497, -0.6374986438604213,
      0.07331816510354328, -0.03366092154237066, -0.5834880401281439,
      0.8921920627608726, 0.08303721040851819, -0.837741512487109,
      0.6847806663818101, 0.5680320373180883, -0.9655585033061551,
      -0.8494818512350273, 0.6608602439360367, 0.02160627121567993,
      -0.5878533398863972
    ],
    [
      -0.7245875399015289, 0.6634156139745304, 0.7550325608423432,
      0.9016780323729594, -0.9514565263220573, 0.6184344836079485,
      0.15604981305438503, -0.6999112416786422, -0.6280663962975028,
      -0.30419556714034623, -0.711749715327608, -0.9637297454109728,
      0.6417159907370769, 0.9645219277085775, -0.007619062145614919,
      -0.00782108814440896, 0.6339059552761799, 0.31063574231541136,
      0.9468678383416553, 0.11596508338607947, 0.17165872651760106,
      0.32117192652089965, 0.6573350213268889, 0.05936479070388012,
      0.8427032757584336, -0.8254133517762567, 0.8635354219487024,
      -0.47560030612126614, -0.9507864305227707, 0.051922265405309975,
      0.4154220128150272, 0.4820116890895334, -0.03600634264097469,
      -0.02603275097411073, -0.925780283000301, -0.7413140943159346,
      -0.07889762755740604, -0.34250950736628116, -0.3574429862734596,
      -0.26788059283721166, -0.5523883786443959, -0.4769737366006428,
      0.6860117134304842, -0.6756785542286998, -0.6763594531182004,
      0.90813897999654, -0.3779622141213119, -0.29398849421064055,
      0.5456559211906677, -0.9296248941505678, 0.25328741659857057,
      0.5258341824207053, -0.8286651458645728, -0.37801060709912315,
      0.1203410225732191, 0.3598075946365511, 0.2841104317515555,
      -0.4503247029776918, 0.5033209644420076, 0.894607414219267,
      -0.9142012073798247, -0.4967387392401319, 0.0894979852206439,
      -0.7719309719420986, -0.7656863818692714, 0.08649147662265166,
      -0.7723303923418392, -0.7478345125532764, -0.3287035445113409,
      0.9625400440973859, -0.6736591988143408, -0.6084332755427706,
      -0.11474980918592381, 0.429581870956373, -0.6451485354016442,
      0.6682008039810423, 0.4273384347294149, -0.4392511500547589,
      0.6708748682098387, -0.1815359640368004, 0.4469878790753796,
      -0.49076958929509384, 0.39146144130616056, -0.38789826871564426,
      -0.14853177895328473, -0.9668769476965999, 0.06477233818362693,
      -0.24240281008084308, 0.37770303424035356, 0.44411049082043164,
      0.42592423969707394, -0.7674112137418017, -0.5332571109766797,
      0.16738693704154617, 0.7767213114751934, -0.652111785292709,
      0.2635505080286438, 0.9591936908598322, -0.6006713007977875,
      0.9106712454602683, 0.22044884359177574, -0.7267488740668275,
      -0.923956700171964, 0.026613868926418593, -0.6871810826927147,
      -0.9186228206067013, -0.15870993415740564, -0.6737415119748147,
      -0.26297733538625323, -0.8841503921429492, 0.7496932889014483,
      -0.7116801833977515, 0.8519025054738925, 0.2791241205659367,
      0.49501060129052243, -0.8435220635669585, 0.6739617559353039,
      -0.708468460406519, -0.04233204433643856, 0.7952036206158697,
      -0.5075837072405607, 0.13054183748439502, -0.5059504727088118,
      0.8785050014860654, 0.1744950717397602, -0.8079339676649666,
      0.4270271478371351, 1.0818197242119136, 0.20553620306539094,
      -0.7989763241014725, 0.3600457173952618, 0.34215619824413235,
      -0.5334586515905517, 0.9627717540141223, -0.9070349229237245,
      -0.7929210864397906, 0.3467707010176402, 0.5470844366571308,
      0.35249800186541425, -0.017976978172997704, -0.2089744304086807,
      -0.2524985602483176, -0.3445233320498131, 0.5814389643641373,
      -0.42555844992574654, 0.07868683954487743, -0.42996226680504845,
      -0.3924351789743188, -0.15680840919623423, -0.45827206374953516,
      -0.5782128876143271, -0.4121140718728271, 0.0814969434159809,
      -0.7031901137230507, 0.6630526737321683, -0.4103105716867943,
      -0.7327449170170028, -0.540827632557006, 0.3790456099926698,
      0.7868739208013853, -0.6626611956704518, -0.0381263005132193,
      0.0430659853745996, -0.5688367395863705, -0.5991178733412652,
      -0.438103374514069, -0.013774862044615421, -0.41830338198067096,
      0.9348325169454093, 0.09948973486401957, 0.7225989470412202,
      -0.5953661473134599, 0.776324761027329, -0.9377115150675905,
      -0.8824169825128054, 0.7106508780397522, 0.9428319182830245,
      -0.9298381290187159, -0.5663247460951566, -0.277452138231316,
      0.34650701996263056, 0.5266921998008209, -0.9565960366798469,
      0.6463394354788066, 0.44905362866119747, 1.0979068446830753,
      0.6123355758725633, -0.03871147677228892, -0.7432156599076336,
      -0.5184718608240275, -0.46459308829523316, 0.4731084756947075,
      0.4501391068068239, 0.7932371800714066, 0.2880949908522794,
      -0.17711015768570393, -0.531543979181087, 0.29444550636394284,
      0.9566222170430159, 0.9862350542031169, 0.259967480818728,
      -0.18991393522208133, -0.5327069785913405, -0.8494011618664223,
      0.4240956394502254, -0.1837716458623393, -0.15828618291520913,
      0.7353038469773692, -0.9595256030808015, 0.9771622681406393,
      0.020935411170657225, -0.04007219766412762, -0.8631870951958116,
      0.921843060260086, 0.9355034870777299, -0.048437017143279526,
      0.10434174831996668, -0.7425101209561675, 0.11902955413991645,
      -0.5555716537260054, 0.5108059558445799, 0.5553384410021818,
      -0.2584263453149567, -0.9321645337033857, -0.6497832587084211,
      -0.2559603496863323, -0.25827284425205166, -0.04689729940175402,
      -0.9635312225264068, -0.5239030703495673, 0.08924000264811838,
      -0.05966858589059765, 0.7274088207672456, 0.44296337025146215,
      0.35978695698687035, 0.3054641947637964, 0.41283291370105246,
      0.25807778795749936, 0.12318196343909316, -0.25603116865900777,
      -0.9114520888112732, 0.542953823943267, 0.8265908516177132,
      -0.9494618497763541, 0.08715877366832148, -0.6605156304851265,
      0.07110408812010771, 0.5666745704559566, 0.9502205179952772,
      0.13260689547044935, 0.5439883889368655, 0.4015354870262411,
      0.15779421009313088, -0.6117038513594699, -0.11167268062924718,
      -0.8815266348646134, 0.9649804878093198, -0.5984793232814178,
      -0.0981233757278015, -0.9213573243273392, -0.11844729472518267,
      0.32705412368476977, 0.7433372079335454, -0.26689885137984426,
      -0.4498892383647797, -0.09093369555192954, 0.06496089175546338,
      -0.6538057770939907, 0.672070132592157, 0.8160099223966812,
      -0.11479891611284687, -0.4606015967210153, 0.6720733343075538,
      -0.21706354624263602, 0.5512145652877316, 0.2651772529660188,
      -0.07206700581503833, -0.45001517113140466, -0.6144757252345521,
      -0.0008530534358239805, 0.3643207253152321, 0.4644404446758519,
      0.2772363933498627, -0.6642302992249833, 0.7738598385309539,
      0.2062686267897904, 0.9449511781522499, -0.07839653697736582,
      -0.2586446219072789, -0.8215914595841445, 0.6271708911304474,
      -0.3482444471519863, -0.021059853176369714, 0.16201585029796917,
      0.5654354408079993, 0.048829043855091125, 0.5132528238722573,
      -0.3489164156337279, 0.27899369458576473, -0.48902423537408257,
      -0.6613102466366003, 0.514055650627351, -0.5039840136460887,
      -0.69698909626254, 0.1607600573032899, -0.40133190249718576,
      0.3574939872518996, -0.30206233988771247, 0.5376437159925676,
      0.26003819406889184, -0.25365514115622245, -0.6498048733206638,
      0.34959313263342695, 0.3377521441705129, 0.2151595615372801,
      0.05322497187132269, 0.8476199965390836, 0.21086595982816903,
      0.34997306672446254, -0.4150551081877835, 0.17333417466020773,
      0.6267446145407125, 0.729934837175628, 0.8491600334921314,
      1.1346930199345147, -0.4303323212999861, -0.9500101326212467,
      -0.9108092133885402, -0.09335935767646797, -0.3744365727029684,
      0.7842966918742205, 0.2692363467347141, 0.6785310663389574,
      0.2223963521939356, 0.10904664485303828, -0.2178055144732367,
      0.529554206854495, -0.981512876626836, -0.005878747751550062,
      -0.2925459966665951, 0.17053930498762204, 0.7809665619249837,
      -0.6546331997149561, -0.6910388690370892, 0.6465518115829099,
      -0.9702341644984487, -0.28086029271881685, 0.8545265242841473,
      0.8817977556881986, -0.011178857589318802, 0.010527443243685763,
      0.05706545935881718, 0.2801486832781386, -0.8803100889044484,
      0.7588883169555642, -0.06329593659343313, -0.840223905901726,
      -0.4689151938772551, -0.09270712391624425, -0.20960943126139409,
      -0.4741763302315456, -0.8360256677525051, -0.1109532951402441,
      -0.7705401252620967, 0.7089678553674559, -0.948724328126135,
      0.331306329255626, -0.7265070528027007, 0.5910680915756896,
      0.005980588882311455, -0.4548346859656669, 0.8336546865223511,
      0.495098367500729, -0.1295604160953472, 0.8466656770690428,
      -0.989678023006936, 0.43535789354077226, 0.9729523349897111,
      -0.7255619016083681, -0.3506162856195374, -0.652315988849788,
      0.10029338606454496, -0.9141391118330895, 0.7663501242517072,
      0.3599165147005201, -0.6381274737957958, -0.030992034559466308,
      -0.9005252431303079, 0.8907367016088883, -0.3280356743100934,
      0.46578243339838066, -0.7287717320295704, -0.7423477826390257,
      -0.37237803442691053, -0.9796427616802612, -0.5772310748448901,
      0.0901896348699025, 0.8986187713005869, 0.5317046013678475,
      0.6083922338030678, 0.21239382471334123, -0.9971219749400082,
      0.17246414477616678, -0.8191403137347706, 0.46183148584375006,
      -0.3897874270150578, -0.5850686469950948, 1.0129014144937905,
      0.2265179933936814, 0.6250037277704545, -0.6844917790872191,
      0.777696873910422, -0.32792362762853555, 0.8277028468418646,
      0.8107221947914658, 0.8652047817907502, -0.10539544003820822,
      -0.951381539911182, 0.6361288184701666, 0.6931405215771913,
      -0.8318977092272393, -0.5486869914737253, 0.41777267421086295,
      -0.6806748766578057, -0.04944780091396117, 0.12095328984778453,
      0.4595371000567017, 0.6205899666751713, 0.40232772264474237,
      -0.49581927378033974, 0.7699890299445289, -0.7650494204968978,
      -0.0022196740014541194, 0.19902658449872357, -0.1378315433181938,
      0.07998609619837921, -0.6287132468823702, -0.9318942107041064,
      0.7427763450626386, -0.7066595683254873, -0.6855321350762926,
      0.45703618908182975, 0.7355468989353127, 0.680788207342359,
      -0.9282701013871519, -0.8483133787504475, 0.8541664994021874,
      -0.5010674578284293, -0.8069663548470105, -0.420945542434517,
      0.6220206294285786, 0.40158920632961026, -0.4788531676828218,
      0.024103509982922322, -0.3883694262161237, 0.49218069355850425,
      0.4027095467233015, -0.8476392934509991, 0.4235061425260403,
      0.8549735343898697, 0.6792430115911237, -0.5539738631119104,
      0.5954122876865218, -0.2810111854680053, 0.33928062179259505,
      -0.7815580234111119, -0.7638169391991103, -0.575484006856541,
      0.9757840228698567, -0.41291367860242856, 0.5998090459217118,
      0.674623327072859, -0.6302594637413499, -0.39051086544931257,
      0.23291730554817391, -0.4604865099639648, 0.3825098054094904,
      0.1958938659359708, 0.7899546147972281, 0.8616069725509639,
      0.469671181673025, 0.7369512431443797, 0.843783987960371,
      0.7104167721536321, 0.5471191265681683, -0.5504481444224294,
      -0.3823170034939178, -0.06272519594142523, 0.2814523952495831,
      -0.4497426547440604, -0.5220794982579609, 0.46484178327035464,
      0.43716840599861007, -0.019326711297640464, -0.952941451438905,
      0.5750176065307095, -0.14336070210967122, -0.18517642054928896,
      0.4518632257708828, 0.4389308483371055, -0.04009759877838048,
      0.9426377363008269, -0.4939430330979633, 0.08090953734520223,
      -0.8446252704654396, 0.10098173220778683, 0.23309684065305047,
      0.17190302091338472, 0.3709451301758908, -0.1433693572261565,
      0.9739037141760449, -0.40543988619103555, 0.5747302706693271,
      0.6542486594164061, -0.01738860965426231, 0.060428900310583344,
      -0.43963797907367974, 0.6143536704133652, 0.7262645567995683,
      -0.4375373519293504, 0.3753414554649872, 0.06045151000332788,
      0.14939313631600087, -0.9163074483334737, -0.6342105011722841,
      0.16668050102310739, -0.9101694366246802, 0.6606844167521544,
      -0.11054013829175613, 0.9993013598032787, 0.878057597513342,
      0.6109096424166562, 0.7009331955861691, 0.6074347144822814,
      0.5548119130412461, -0.38461440428895655, 0.010554798505833407,
      -0.3752557035374986, -0.1822684649185775, 0.31612147313096095,
      -0.3159879228912357, 0.6104707160991272, -0.8358535837787029,
      -0.49332429557240287, -0.26070760612116217, 0.6912967618845216,
      0.8008049431875577, 0.07001869943245786, 0.5626880288492653,
      0.9190255900137885, -0.5993824886684813, -0.43804009469986704,
      0.44785019875608256, 0.23086032568882553, 0.4194621010067068,
      -0.17353719290384628, 0.8951168497232209, 0.01759698344692806,
      -0.9668542249800001, 0.9008592266531115, 0.03841840066836788,
      -0.7145876109793599, 0.8614569438174282, 0.7304284793302611,
      0.3556255388527365, 0.524161744790236, -0.6539933058834659,
      0.8336947019296912, 0.3855971917258925, 0.9040303415361481,
      0.7878974924894013, -0.07013071725781694, -0.1307752163895679,
      0.9268026192669221, -0.8320752264791347, 0.6091509295188393,
      -0.7194662136651466, -0.3436794932273437, 1.0196428521217034,
      0.5640317080682706, -0.8084387187671198, 0.8230069223173855,
      -0.1391275823835958, -0.6439300375253127, 0.057755176698353505,
      -0.5865479427280218, -0.26674343801103895, -0.5456690014431334,
      -0.8537958960141854, -0.21748511798724346, -0.8332840466994771,
      -0.7507544918007878, -0.24886021132205194, -0.5334470272424192,
      -0.015395129466962754, -0.7429007540084211, -0.7045124066555262,
      -0.5396130005553141, -0.957225519150215, -0.7717876111769932,
      -0.16098941567524827, -0.8846057722416081, 0.1754460221445573,
      -0.32787852108457205, -0.9384925890406941, -0.49637866396259483,
      -0.23298933807830763, 0.1283843401673468, 0.10536988434593209,
      0.9613396880413934, -0.46303195991444523, -0.8967417008180263,
      0.12110514012130524, -0.6034343983441355, -0.08586125797285415,
      -0.980482990156851, -0.5778352604658874, 0.9937138066341,
      -0.6866100121762821, -0.1466129477320135, -0.24605413744736726,
      -0.8682076657275708, 0.8457485699276983, -0.9927928480766393,
      -0.9979970632829906, -0.38671762250886105, -0.5022076162469815,
      -0.17787492421918216, -0.025761311934188846, 0.2392791613530001,
      -0.6838610671542562, 0.4795580019344632, -0.15822665719528234,
      0.8686749319948162, -0.3141656329110032, -0.7102495047778277,
      -0.7597226089612654, 0.29638138247601864, 0.7693966267013495,
      -0.45992016540116554, -0.10743002091054699, -0.08559912248937396,
      -0.9241278036406486, -0.4858605289397713, -0.684266477762598,
      -0.026197890739719565, 0.7056185143225027, -0.2911381755854805,
      0.4629180987063952, -0.9650535830207536, -0.3460817518273136,
      -0.7993418440254136, -0.5485659951080115, -0.25767028388866153,
      -0.33799084401979024, -0.35700687803598424, 0.2728354343561124,
      0.8008174229735954, 0.12995353435758733, -0.1171642664449381,
      0.583724758154921, -0.8606648491583759, -0.7809889961693708,
      0.9242863613842984, -0.666819869648434, -0.2046561900966215,
      0.4863960604794886, -0.8493750609626018, 0.2092981858278704,
      -0.0922832510052718, 0.5824327808480905, 0.06431918454070296,
      0.44968580755029075, 0.45620812086347184, 0.5878738843210933,
      -0.8654381331175665, -0.7109959135110322, 0.5966470181945187,
      -0.08882484211813857, -0.30310681294904773, -0.8978662188163984,
      0.3863131751565496, 0.612145768691696, -0.6453077026569907,
      0.9527518998946203, 0.23543913170573827, -0.9020799590741757,
      -0.8968180123515288, 0.5219792755579347, -0.5604713040839817,
      -0.5969145809849761, 0.22048487503674163, 0.5634952555424135,
      -0.5962451922593592, 0.794643907080995, 0.506765863643635,
      0.3599680768972675, -0.23497127077060886, 0.5169673094806475,
      -0.821577857185464, 0.414546580937039, 0.7638841291188911,
      0.804318594029318, -0.826167090369518, -0.6643858307256969,
      -0.8950380814705223, 0.5437109191052776, 0.3876062570280552,
      0.6823233694999593, 0.5257395855154479, -0.025675199301661067,
      0.24569204501782194, 0.8985319293827194, 0.8666261458870874,
      -0.29528944951935365, -0.21792058574976192, -0.9566027562585147,
      0.8652883910865796, -0.2927206291074702, 0.2845192105837442,
      -0.6671508747379429, -0.2541386266794019, 0.9267174037967378,
      0.8855992189994, -0.5359730155878131, -0.5127465833198785,
      0.9913864097282064, 0.5289361505406371, -0.7539100328633714,
      -0.16983468221776432, 0.1156966648491724, 0.4971018686647466,
      -0.0712429810674946, 0.4773040901368746, 0.5460312497960111,
      -0.7964366944999246, -0.7459812169771736, -0.8214580599757233,
      0.10792368234871175, -0.7531799035003885, 0.16693664258439345,
      0.8947733569012923, -0.6227771420339323, -0.6733050540843397,
      0.43752828389217724, -0.7894934312192952, 0.1772642622300573,
      0.5790348708285356, -0.3752262412237908, -0.9450346204244044,
      0.8530868643441929, 0.8656077431101235, 0.749071564628554,
      0.40084040387242315, 0.4884998371424185, -0.2011615228483845,
      0.9207284870698986, 0.15351414702370603, -0.218649623452432,
      -0.4167223600170944, 0.09501448507543087, 0.8073187189580024,
      0.05536697470644958, 0.7548111685243355, 0.8824357012942987,
      0.4255801794038434, 0.25416800939454376, -0.9111318312862706,
      0.10472968831536322, 0.3640995403887217, -0.44341411743066317,
      0.8457391316978589, 0.24887757435668556, 0.021908269583212903,
      -0.8257110013153239, -0.3017044534097386, 0.40600466434796,
      -0.1684423676696838, 0.2792233174930745, -0.7368538599574079,
      -0.05699968835992575, 0.946239143626598, 0.3413196002165084,
      -0.2048401316500872
    ],
    [
      0.8965632945899351, 0.7928464265150268, -0.37601963392821336,
      -0.6519654931858683, -0.623286646401898, 0.8713390708299769,
      -0.6500001070215653, -0.5462303223840146, -0.7845816488441613,
      0.5843045518764565, -0.5843591946924307, 0.4939318306300806,
      0.43226772301690763, -0.9742505446542546, 0.29798890858211635,
      -0.6351436266102479, -0.18821908580425406, 0.3402328219650843,
      0.5487210846941943, 0.704310349734901, 0.7694175228494191,
      0.17256609936947376, 0.7286504890605823, -0.5772751595024572,
      -0.11948427937938932, -0.7153557811380118, -0.0032834603342770663,
      0.11758681103823454, 0.8130545844730026, 0.2584921773861826,
      -0.07290953427338698, 0.7230601414992766, 0.6370359618956019,
      -0.05053413979739618, 0.022110740503852533, -0.528012328581259,
      0.0032487500747455655, -0.3818194986062595, 0.09349996292923812,
      -0.5217907485682529, -0.4759636020098701, 0.8214892363206756,
      0.7980509512846861, 0.6315695939966544, -0.3366188089404054,
      -0.4920657228309584, -0.3259846533893387, 0.522203644338405,
      0.46968487702308437, -0.5129420155466535, -0.6612940644127057,
      -0.12783635157993478, 0.5139671612422316, 0.9164219751533591,
      0.9743480162707145, 0.11302984464408761, -0.2095134035398596,
      -0.6303048692235635, 0.04248209209130538, -0.7108186342462912,
      -0.6635409487546493, -0.352487954357092, -0.2272696242714085,
      -0.7299170320786077, -0.8294799804653836, -0.5836927570062604,
      0.9513578055050425, -0.8517320468470446, 0.31525117475469333,
      -0.21214607500428473, -0.8577676129405227, 0.06340384384896725,
      -0.8695922991308809, 0.6529782518924798, 0.8923082808712515,
      0.46064105195448457, 0.37992119078997044, -0.6255519038717305,
      -0.44519809604623184, 0.8127456911840425, 0.38384440370357975,
      0.8313202143226999, -0.04252263737793527, 0.8863285496675464,
      0.01015759510194858, 0.6713124865865385, 0.5508476664665252,
      0.6905827029066596, -0.8183054834120487, -0.8600292514959214,
      -0.44562762941171075, -0.4534265818907883, 0.4880465841706081,
      0.5527155969223085, 0.7579072953814485, 0.04954571687811457,
      1.106027831174251, -0.33493750519795173, 1.1882924269869906,
      0.5327000703205096, 0.46173918957545634, -0.9031058667934491,
      0.5113087799965217, 0.7805097540342403, -0.000007780812645297175,
      -0.2912049827809047, -0.768990225304635, -0.19652101216996476,
      0.6728562539566214, -0.9439779000108186, -0.2287278885960431,
      -0.1379308590738506, 0.9113845753362697, -0.24945378780149507,
      -0.9464233942488622, 0.04522797744824114, 0.45746760966567335,
      -0.06580250631809781, 0.03321940578977767, 0.5742927140721252,
      0.22832460792960152, 0.6232045739540302, 0.03289385583538637,
      -0.33407034327624063, 0.9563538240043461, 0.5820560504868593,
      -0.5813937914055292, 1.0553502496216727, 0.6140075744112836,
      0.7979875213573342, 0.4604596977848132, 0.5168463280280107,
      0.479093497191585, -0.9454945386355886, 0.3869872187513965,
      -0.5807512971971613, 0.8839219706320289, 0.5817084451869836,
      0.5424382670306409, 0.6809351073574121, -0.44201294596706564,
      0.6762469474195658, 0.24856115710211624, -0.10226124924283786,
      -0.7960271917893209, 0.09188840090095773, -0.4862230270154946,
      -0.9828243775295267, 0.34521278211379314, -0.025020749448975615,
      0.8674288382001212, -0.3552105717525791, -0.2159266827393247,
      -0.42235648711781026, 0.623302193725753, -0.7038634681378637,
      0.7531506324020347, -0.1323989536301342, -0.6829310585933737,
      0.5895928264940089, -0.32877738211893304, -0.9506970412818405,
      0.7751976704333416, -0.3938029623766752, 0.8039046007052075,
      -0.6142128463228369, -0.3680370977257983, -0.9816946053662696,
      0.8937107630437398, -0.11046516715227561, 0.7130981320509475,
      0.9953943099382396, 0.2180778382105939, 0.7667757334617522,
      -0.9307264228645482, 0.4693985794927502, -0.5954489302592363,
      0.6262828041678175, 0.07326538584719566, 0.39626906434601805,
      0.511302466193079, 0.7726982991928937, 0.4677387702224687,
      0.3628389754184025, 0.8877804019052733, -0.7316656336106442,
      -0.3739014534898284, 0.7999438537061105, -0.37017419296519494,
      -0.08721977268921988, 0.718137740740183, -0.9768787195939619,
      0.07861796996900017, 0.22626445920672333, -0.37893167734277133,
      0.8065186037764649, -0.3302598018437206, -0.9688740507781741,
      -0.8667120269443105, -0.809226741435161, -0.7682463928985044,
      0.8036527364722175, 0.44622570500946646, 0.03075739384825038,
      1.1332770199065407, -0.5732845617607487, -0.026343647664789582,
      0.12625500009521717, -0.18863235849389515, -0.6268644703617534,
      0.7855221448257335, 0.45991908162204087, 0.9394775983737409,
      -0.6445427291318835, -0.9088239687841488, -0.8780712990120159,
      0.8706140324966061, -0.9110329341777068, 0.7286923465680171,
      -0.8742168487540734, 0.7483999902309426, -0.7976329715840245,
      -0.13067706542958346, 0.3921715659681442, -0.46375713326913415,
      -0.0788458553391127, -0.8702544851098142, 0.21452569777557073,
      -0.6469233866090018, -0.6877275540141636, 0.025011906380371762,
      -0.9521871480757627, 1.0900294670392572, 0.5159323588801064,
      -0.42712774188616054, 0.6281045332873072, 0.6645818465879398,
      0.6650290046057847, 0.5741230933433967, -0.661558815098227,
      -0.06561670665005037, -0.059215412329847866, -0.8101033650445277,
      0.33627460490481376, 0.4077096054463456, -0.27485340465030283,
      -0.018685678581963128, 0.04849354130860695, -0.5932772610040611,
      0.15631011708986664, -0.5659714718315905, 0.060677085347647264,
      -0.5905367097460554, -0.18820528288158034, -0.44162390662905704,
      -0.9257456873855356, -0.6830827700036033, -0.18540705431284366,
      -0.8773931717528516, -0.26548261014394914, -0.6637557793906863,
      -0.1429069580301057, -0.4118451639586409, -0.26092425372101236,
      -0.7545134921140288, -0.8015393385972671, 0.7100934655732956,
      -0.45199310253505676, -0.9118667621842476, 0.7953884807771254,
      0.30958900850106863, -0.6055490192106885, 0.5275798648152121,
      -0.27507885062121895, 0.9510587220486078, -0.3372190132497659,
      0.2088888211538329, -0.9019497009928572, -0.7134533649152166,
      0.5713462540904461, -0.9711504147946708, 0.204606846558419,
      0.858884919836405, -0.2707793316499223, 0.8391750714022841,
      -0.732929330253556, -0.4586974270194708, 0.8985139321468227,
      -0.48226452986053303, 0.7221054068417525, 0.7546331386335765,
      -0.9263683663789628, 0.13755854395307798, -0.2685409138522128,
      0.7376017741123215, 0.2007506140352615, -0.04156764603310517,
      0.41457354235037824, -0.6220956161608009, -0.5690456159415391,
      -0.577362729766477, 0.5274133111351782, 0.5854232902270464,
      0.19213117843407224, -0.842181855537365, -0.8732758493984711,
      0.3519682074196009, -0.6366201455591356, -0.28265408391672464,
      -0.41223663239667996, 0.7067133883236383, -0.3771827528600973,
      0.2554123899789813, -0.5056555715274009, -0.7367659227234178,
      -0.8937153635280093, 0.46159162301913703, 0.4186522989545889,
      0.9624782504170748, 1.2131738969841381, -0.17001728676001537,
      -0.10503749093842529, -0.2026885759669499, 0.2780149239550982,
      0.4463293612892991, -0.9321996968921398, -0.7161508301343082,
      0.2721699608333119, -0.881163230438403, 0.8585401177572076,
      0.7253075223570522, -0.5279497975772034, -0.25616508763301793,
      0.8226720188567893, 0.8952999756502589, -0.3862029712016284,
      0.5895026842967304, -0.19988658693030104, 0.03407339123847786,
      -0.30814677968627047, -0.7307703507674059, -0.061068770627060065,
      0.2631313763217693, 0.7555599745499451, 0.5341872027798646,
      0.48345270121299766, 0.15830872744369673, -0.23921180938046918,
      -0.6569062723245163, -0.391177177120714, -0.5642631307540473,
      1.2024889539671915, -0.19284355131273712, -0.9213295959343957,
      -0.8626660138064826, -0.12170781574203104, 0.7852338603605027,
      -0.013695021312340572, 0.10372402517236434, 0.511203812517806,
      -0.42987226991635374, -0.2508595376666123, -0.7974021295500773,
      -0.7980763019661761, 0.041880970276049645, 0.6613813118768128,
      -0.044285972018755615, 0.5150381168946505, 0.741872643403918,
      0.4517206314799136, -0.9909161570910934, -0.05843096925908542,
      -0.6029931795860781, -0.7772516395510451, 0.06196943832242496,
      -0.6257658707501861, 0.679935096763796, 0.32876753572023243,
      -0.038808687506704215, 0.38398823161393647, -0.6333952506188294,
      -0.5615442620273838, -0.6288256110234194, -0.5974747798461992,
      -0.8603448424188787, -0.6915555876480286, 0.9130622765660781,
      0.7397239329695422, -0.34167730975786403, 0.8328391019843089,
      -0.41611362584438183, -0.07239822427336406, -0.8393916706204432,
      -0.7125775152853122, 0.2681688238801856, -0.6104174337649848,
      -0.6585612965481156, -0.8759362497047074, -0.990189517773683,
      -0.7132112587957611, -0.5294370410866116, 0.3078941701934541,
      0.24798799019533746, -0.992142146604674, 0.696124958005701,
      0.4973625277008191, 0.15918921715725062, 0.25957509900395315,
      -0.7785814020549369, -0.8512266735447929, 0.6573192733321607,
      0.46275102726588013, 0.5129086214535574, 0.2466637837315071,
      -0.3705541951137308, -0.9624078759926844, -0.5670353442357143,
      0.5982255928322138, -0.9263787394526863, 0.8794408342188622,
      -0.07829176259437087, 0.6565886301699417, 0.7751677658287113,
      -0.3601109023863489, -0.7213409976536687, -0.8397728439356338,
      0.9181982899857242, -0.31835372161901043, 0.6616750866751238,
      0.3457096067199368, 0.6467765962892953, 0.8134179721087083,
      1.0920749912603702, 0.86689324133933, 0.3397826345748496,
      -0.29899524643631037, -0.54386279865419, 0.23010033144968922,
      -0.32902793370953676, -0.5335121274538412, -0.10756537651176723,
      0.48100828018179564, 0.04295904453159549, -0.8291680391855971,
      -0.1587278889020154, -0.9360753387534491, -0.07772753615670158,
      0.5963935129876838, 0.8647270237408016, -0.48022559210518967,
      0.09482291345161542, 0.3865784405493007, -0.12332098424911031,
      -0.2513695670091085, -0.7746059417341637, 0.09381671159882288,
      0.6528669030338561, 0.7561087006290506, 0.15296359576165816,
      -0.5524813905378576, 0.29174370375385017, -0.4459030679698075,
      0.34343130170056524, 0.37525376404320054, 0.7957621595348188,
      0.5865493796768886, 0.7453223939484648, -0.8604821216346705,
      -0.054620333251170994, 0.28014535737182555, 0.1886943010565747,
      0.4677170516327718, 0.9455835474144276, 0.373264771950804,
      -0.13765091385497907, 0.9760923956880432, -0.8979612294415595,
      -0.7626505050646362, 0.5703942425763113, 0.42755446010294174,
      0.3055889239949634, -0.2600437858437621, 0.24769697163582016,
      0.39727031053840367, 0.6325492836549711, 0.6538469061485919,
      0.033133494645775946, -0.12057428844483242, 0.590428322303338,
      0.6753784245254812, 0.5657374463478395, -0.5408091201749983,
      0.28319509939711995, 0.5412377772975192, 0.7309658196077136,
      -0.697048099165849, -0.5720985405408041, -0.19850457591667592,
      -0.5749415399244593, -0.5443629224999071, 0.6670426962505434,
      -0.9992778458248344, 0.10147627586878194, -0.9792240725290338,
      0.515460088555217, -0.8830235473173289, 0.6278903776450977,
      -0.9732489904440702, 0.22262890571924032, 0.8823259918855273,
      0.3218216353500578, 0.18312092003839098, 0.31723333771500295,
      -0.4832317086846618, 1.0076670556156155, 0.06372363492207134,
      -0.6964906905492638, -0.4541413977873012, -0.8166111814837764,
      0.4116465804073304, 0.7611241961323061, 0.9040563226842189,
      -0.09801579856331458, -0.7906540361309307, -0.022941540736965305,
      -0.6794685582989612, 0.9594573218791091, 0.4200187679783598,
      -0.025773953882828327, -0.9402533035390723, 0.6560007714483493,
      0.03630335719183275, 0.37249635998019714, -0.8813700339262214,
      0.8119383523570809, -0.9225321103263107, -0.9424472066076022,
      0.3154937390555972, -0.5557530895940772, 0.296740581531997,
      -0.7466226245436403, 1.0156710025786417, 0.20068153342345152,
      -0.566735911510404, -0.03784994223245697, -0.5871223280718718,
      -0.4027008977318949, -0.5398399212432112, -0.5565273032360758,
      0.6086687592830144, 0.7995344986723383, 0.16638651347036282,
      -0.9046019616925203, -0.8764320400824763, -0.4992420040079413,
      0.45307396931346045, -0.20485172035997534, 0.31178056804211174,
      -0.8377304459778352, 0.3152079837953887, 0.3231079781190802,
      0.4458019063574703, -0.7319061289472701, -0.49531510858967875,
      0.911081454101883, -0.9090633991717163, -0.5591762593793383,
      0.8057531909356141, 1.1339072527339729, -0.6666811326752862,
      0.255700910465372, -0.06349566927996175, 0.27339326367459593,
      0.6917023785938161, 0.2651738780776083, -0.3992337681216993,
      -0.8628758699411585, 0.9887062896302825, 0.867530028805972,
      -0.5507080475470105, -0.03818188878230089, -0.2036356558606931,
      0.78977107619232, -0.21415450756231014, 0.10912419526054817,
      0.6819167716026473, -0.5468896895129407, 0.6635585374661388,
      0.8564848906308105, -0.10166947944409133, -0.27686553837397376,
      -0.689346781288831, 0.0671658402572155, -0.5855563633678389,
      0.3273685168968288, 0.12848473768538815, -0.6597207183089389,
      -0.3159342296835086, 0.5721365387915829, -0.7516740546640102,
      0.806315230001434, -0.6625163966722525, 0.6205220254300596,
      -0.09077034868010125, 0.5083008949758647, 1.0080191790430717,
      1.171645494050045, 0.4945069930909023, 0.7514478350659757,
      0.1847426377025001, -0.2838630265303057, 0.08604962289995388,
      -0.31381308334906555, -0.7647007081779624, -0.5377606275715645,
      0.4267298166374589, 0.651941149288938, 0.1367251765254407,
      0.120993567217476, 0.32855622931191775, 0.6096298503502693,
      0.3788933348618162, 0.032428020907624866, -0.21175734630306042,
      0.5815346638426244, 0.16710577003242186, 0.10758384775275484,
      -0.812115427502281, -0.6527613753050874, -0.2332679421139381,
      0.6846128943992098, -0.41577744552812756, 0.5500947893486476,
      -0.6914225902129199, -0.29311442803980237, -0.9519111256594179,
      -0.9953328699184594, 0.25543466773976453, 0.8179887017229439,
      -0.3866150318552015, -0.5426511059474479, -0.805153821722786,
      0.9200670344216659, 0.263434481385838, 0.0668921144214294,
      0.8077644839179925, 0.6207202976540409, 0.008708634451433106,
      -0.8635856219598321, 0.3568575957563329, 0.4025921964348327,
      -0.9043555091057347, 0.31946828153095597, -0.8967955913981727,
      -0.6838285400393198, 0.4826112152181381, 0.4341401101341076,
      0.44682506737853944, -0.09147003257174438, -0.19153068438497226,
      0.26730993063657027, -0.7578335146136652, 0.17808152225541996,
      -0.6728320998780526, 0.8979733715362714, 0.1769362219706201,
      -0.46746608568647785, 0.5438437676750656, -0.13233281790858564,
      0.7243450788231525, -0.0986416927515088, 0.24608497376543248,
      -0.25965960054945914, -0.5317156367961755, -0.5635072412659294,
      -0.028577461395462134, 0.9817890432970406, -0.878182516974813,
      0.5197310901494494, 0.8980134128479409, 0.5750672760742064,
      0.2077700215813718, -0.5972844655043472, -0.8788209794201367,
      0.17795507124448084, 0.6543570258809841, 0.9946526832287361,
      -0.43282428008343254, -0.8032942573625368, 0.23276681872068838,
      0.6608691964718814, -0.44719813799742214, -0.17982626456682116,
      -0.7565893669915549, -0.3631260038008266, -0.38800620942144226,
      0.47750488184887185, 0.2404626436043893, -0.172999074673033,
      0.4224522719696515, 0.4801145519515315, 0.7889323081951716,
      -0.9230949130434674, -0.3607342867735701, -0.8828506867969179,
      0.49877742317947504, -0.8179186224901107, 0.7283192776386276,
      -0.6820450101323074, 0.4129644048782861, 0.6360712768664278,
      -0.5784770694934833, -0.18629728562647507, 0.49129149615172496,
      0.20650942313396614, 0.7655965736604271, 0.31917782434577546,
      -0.06293410171879676, -0.6807882860863725, 0.016389575972563186,
      -0.07845142556481255, 0.43754108243370293, 0.7665784805260167,
      0.7230833830097505, 0.810686552279742, -0.03886955947695547,
      0.4583273291681138, 0.17652472034419864, 0.03827468382993304,
      -0.7062897161587425, -0.7486511456590885, -0.9698293149381287,
      -0.5265896027841737, 0.5835366155564605, 0.034451352670545,
      -0.19387837316236212, -0.6126592580038639, 0.35434603307478074,
      0.8063873015077108, -0.40678429462837995, -0.724677667122342,
      0.15442418595061058, 0.7644389431245893, -0.08370255741447741,
      -0.7089744342373536, -0.607776788772389, 0.548998789110807,
      0.6883643087271762, -0.9768361778159993, 0.3782254257331452,
      -0.8573397091956738, 0.5297146755287976, 0.03995354899364889,
      -0.3806242853494668, 0.32838377386578443, 0.05190763242473784,
      -0.21064656074649868, 0.8796651542281739, 0.5739389331130407,
      0.2804142479237073, 0.056391698910988275, 0.5145392167003622,
      0.7555884480116233, -0.893960195616013, 0.9349587210795915,
      0.5754015926238929, -0.4250429947193264, -0.5574281880671501,
      0.4778838373863099, -0.6574909267230167, 0.7183097126463109,
      0.4789276844066488, -0.8363891967562216, 0.0015418916532459193,
      0.9212304066499852, -0.5341588720004489, -0.4793151496564234,
      0.23547241757721116, 0.7905133307571752, 0.242218706805144,
      0.22092959882083463, -0.7134174928912134, -0.7894085327966036,
      -0.9160415633626218
    ],
    [
      0.7008342239984215, -0.3144556240138847, -0.4043198207346559,
      -0.6894876395889593, 0.2573921191066919, -0.10931945843382307,
      -0.09614881755663385, -0.7651955785744589, -0.7194470629677707,
      -0.5459108278419604, 0.6082615444220179, 0.806878820540736,
      0.36974514071914566, 0.05984206473207454, 0.18429654782897398,
      0.8532419177097257, -0.41863413081569645, -0.6187046546722423,
      0.4306158551268813, 0.9042724263247748, -0.8471178196455229,
      -0.616003557078586, 0.8040165345791737, 0.3739718124958955,
      -0.9824826018505726, -0.5881889822553088, -0.7624868965396456,
      -0.06911578963697185, 0.6168402803206319, 0.6685536915933872,
      0.7746295856803709, 0.48318923583831497, -0.37834547327512436,
      0.7044542211831741, 0.6841474195662172, 0.5695597579432627,
      -0.7743058171219772, -0.33579504396731563, -0.12280220381570128,
      -0.18327896504005547, -0.47549096133564994, 0.3431597950618781,
      0.32734280932935844, 0.6235878000563728, 0.9940566057736504,
      0.35509934800023535, -0.38450262274117764, 0.16441308584930603,
      -0.6837880195056592, -0.4811016160210486, -0.46143336688299685,
      0.045185688228758014, 0.7298996711992887, -0.2737631757608012,
      0.12875439402445155, -0.41334425695189836, 0.5022664322992614,
      0.14348437730306163, 0.1857757026468878, -0.17342581195450846,
      -0.652882380045527, 0.8033639522908071, -0.481127373113984,
      -0.6144770179879346, 0.08947920079865446, 0.7428279865725518,
      -0.8601006813955268, 0.9631715321069025, 0.7081003636210697,
      0.05246273368978649, 0.7489501273144867, -0.7526399430214177,
      -0.6984880204419359, -0.9597858822846823, 0.08178440646482299,
      -0.9448741596559147, 0.28966478297045706, -0.7044335531220525,
      0.2647300075197938, -0.5336576108569204, 0.6340325581404689,
      0.14609204991461944, 0.4037258478118475, -0.7809907821137503,
      -0.47869755595670593, 0.34243129696757535, 0.5134885691488047,
      0.24965785965394094, -0.5809575506201781, 0.2228217635524521,
      0.3691959440758126, 0.5067727445613213, -0.9661182353367117,
      -0.30572232945399547, -0.8162466780731967, 0.09838003274031593,
      0.15187383478898164, -0.9229423792780209, -0.6704304958602161,
      0.5259370511763204, 0.5580692720253415, -0.5426120174069271,
      0.8034758821498102, 0.6072037386885607, 0.7165269710517981,
      -0.035010951064746276, 0.09938649511251718, -0.8890111511248793,
      0.8616057455257389, -0.2639082090253124, -0.8597515509367102,
      0.4682519325447485, -0.695633714336958, -0.004150412860407737,
      0.8962651893761397, 0.3675732936382601, -0.6101759855460611,
      -0.4241106888527173, -0.9485310327516787, -0.8814110159364894,
      -0.8414532859455535, -0.2159017331579216, -0.8502763777649696,
      0.7941535886551581, -0.3935199424825, -0.10382369654593138,
      -0.25705352421201777, 0.3747214100874414, -0.3437899024546476,
      0.45357257689003694, -0.27767760537471364, 0.22652804341135235,
      -0.16457398758011754, -0.46490199637060226, -0.23964993678197377,
      -0.33260168111727406, -0.016984870726405532, 0.8021363747040717,
      -0.5192647809458073, -0.2325180237224882, -0.2061652595578276,
      -0.313308641062656, 0.10997408294623057, -0.7110257176269816,
      -0.45559717784609965, -0.780771853997118, -0.27141236803743185,
      -0.5750705086038486, -0.5908502643233682, -0.2850693820735737,
      0.42883273329821137, 0.26400263297371396, -0.1468719298921375,
      0.8723447651755447, -0.9700790631486491, -0.10498318173969423,
      -0.7160665196850555, 0.3359589556662148, -0.3540749866708466,
      -0.048931240970041756, 0.21938174126833943, 0.7280815174803039,
      0.9299251345314135, 0.5871250341331797, 0.9364680759574795,
      -0.577934970151972, -0.6603362759254212, 0.8717725155077085,
      0.23045762775252543, 0.7143067508286736, -0.37333772503326745,
      -0.34193471131173014, 0.20685401415972704, -0.0491376594110462,
      0.9967971112076777, 0.963693020373718, -0.7219467327139699,
      0.9722881859277237, 0.9050732070966236, 0.5309898372433728,
      0.1001865239703732, -0.9636849653895787, 0.5690279608924884,
      0.08187848892169658, 0.9870991082514706, 0.14893791750321927,
      0.6918954158648964, -0.419757126113363, 0.9629581957965279,
      0.23000077574264122, 0.7113775585194841, 0.9811176619682747,
      0.10284153716500777, 0.5567640587418223, -0.7912289343484304,
      0.8930232969139724, 0.2496310388816072, -0.25877780899068403,
      0.599381221150225, -0.9807702152227442, 0.3138872151159058,
      0.466581122847185, -0.7800037714286381, 0.26319408987256976,
      0.6590596230407773, -0.9384683500531001, -0.9295814384267325,
      0.011449709142044906, 0.13710906540234902, -0.0014375604986063273,
      -0.3272433949142246, 0.1925329430122278, 0.09985858429089811,
      0.506463964233324, 0.8480834072333368, -0.6285288298296199,
      0.26226768136342615, -0.4086638040134516, -0.9738197536473536,
      0.7935599512211899, -0.8859520178960452, 0.40894254978797573,
      0.3651910019104325, 0.4298669527170569, 0.829202163586876,
      -0.5720414110624468, -0.4143625292259916, -0.3021776327970582,
      -0.7697803836061508, 0.7320968150764235, -0.786925826669449,
      0.4040442605201102, -0.007851639706691671, -0.7427184752598333,
      0.663693318972582, -0.03758011834872965, -0.5585406802033668,
      -0.5800618022275468, -0.6419868165891791, 0.3876103549803811,
      -0.9241148946972246, 0.47922493090386986, -0.6722653833465548,
      0.8892150870144309, -0.8625147848086914, -0.43297275075394515,
      -0.7536460696503746, 0.5761155175380765, -0.810216234545365,
      -0.6532025359656242, 0.8637447009322696, 0.9758313279767132,
      -0.5999917673604429, 0.28585896948088463, -0.1588656939039117,
      0.169575298705412, -0.6887150166776648, 0.12786582316486017,
      0.5739101161616262, 0.565104620056434, -0.1324674057106332,
      -0.18676118620189452, -0.7459547150939643, -0.5355323665455183,
      -0.538062065054318, 0.6539394444814253, 0.4780903660244631,
      -0.484703496610305, -0.6003299207106765, 0.7611810152412701,
      -0.704193838309688, 0.9464214421702319, 0.5129699980089115,
      -0.3807207422441814, -0.22826554239878183, 0.46317829822420364,
      -0.7371549679452314, 0.5834852012426808, -0.3045330773521542,
      0.6501188879991915, 0.9735261115086207, -0.2232181310897503,
      -0.580336888994271, -0.8379546977526195, 0.24402922225331958,
      0.7769244694635629, 0.3903908261216622, -0.09116502956549644,
      0.22461494191036957, 0.8617143694728866, 0.7480916206760724,
      -0.3438474215180154, 0.6880496332305088, 0.8075054704199749,
      -0.05884259266322012, -0.1379163400742951, 0.05357374339864762,
      -0.11883554580419453, -0.18852577936050174, -0.7995731693808694,
      -0.3842126869864675, -0.8972167127153146, -0.6863018461827157,
      0.7954899676762666, -0.42266507627386796, -0.3063290121013327,
      -0.2264803776685973, -0.6702048610963693, 0.2992133940304247,
      -0.8280380717743179, 0.9762111424729811, -0.6581881631039237,
      0.34591781669363497, -0.394271900821749, 0.32911760726530304,
      -0.3347647911326761, 0.6245315530912023, 0.1690845633350797,
      0.608076236681574, 0.187441065499522, 0.9257766421236062,
      0.10196755505145738, -0.477915948602353, -0.10850912541043334,
      -0.6579081760490446, 0.3381070965653845, -0.06363035055971533,
      0.42004428184575504, -0.42903624936387486, -0.27280792428958067,
      0.24407042119240874, -0.4651230514294524, 0.5677435583232513,
      -0.7900670561854164, 0.17704922413808388, 0.03556753041501759,
      0.1135937242607179, -0.33939734237397534, 0.8208122729140674,
      -0.4171547973375347, -0.3646166446900492, -0.8643054863753732,
      0.3585457633552971, 0.2638125694297955, 0.7004608712485725,
      -0.4692007940132914, 0.01498511032987171, 0.6137633440871388,
      -0.03846330524809005, 0.447912943349404, -0.6844082082253258,
      -0.6151972706974491, -0.1700843692566294, 0.7303997334312702,
      -0.11599903704433334, 0.39566329027733405, -0.2868188388745607,
      -0.7042487149891992, 0.8091126913335365, 0.06862098957525298,
      0.14538454800756728, -0.01084866671623308, -0.6548572181104269,
      -0.6476153138356597, -0.740511387580232, -0.7552213487471917,
      0.04188912664000277, 0.49645260490058574, -0.7124658656916747,
      -0.0510082963966183, -0.8391594205635604, -0.17900752558266175,
      -0.1528482270100202, 0.5242769181593729, 0.293556938791542,
      -0.18910288693020139, 0.5215258603893904, -0.8477023332814917,
      -0.0882831466863796, 0.02889606775602349, 0.18209227948423568,
      0.9782237799752878, -0.625835115453063, 0.3289717368647129,
      0.7894187876552565, -0.5849674995406895, 0.22936136770196436,
      -0.22714977463721242, 0.42167503601550527, 0.4211977450034734,
      -0.471909936951179, -0.7583375194843325, -0.16542238774898266,
      -0.11864733236990777, -0.016730450237194994, 0.6329116486334367,
      -0.762839389485062, -0.9645433911872363, 0.266529255369234,
      0.7806554487638242, -0.9647743055128943, 0.5532977895228433,
      -0.1524983214522062, 0.5111003925683306, 0.22911648476550273,
      -0.008012500819620794, -0.9908595359840979, -0.5984644175358236,
      0.7050945535833026, 0.022119384207019532, 0.7656337568337519,
      0.22568034773439694, 0.2300786707213276, -0.7518763259771943,
      -0.04212260975948379, -0.47575279486944755, 0.31441249116150916,
      -0.06493482312223042, 0.03702958971395898, 0.2416146824838128,
      0.022489213096268834, 0.8115723095115785, -0.8914238429694499,
      -0.11835179210937863, -0.4297136759739568, -0.6172900117443691,
      0.6955987522773794, 0.8182947647595085, 0.07172410991499323,
      -0.8103574571808934, 0.07057311421054635, 0.8662461039487073,
      -0.8801070191180167, -0.9527143494415422, 0.9697818657881601,
      -0.4793134401220773, -0.737799734766484, -0.11225317181518424,
      -0.3542637801396742, 0.3896676477979293, 0.08662567317197256,
      -0.4911471644149068, 0.04760558543443505, -0.4453765137281662,
      -0.8432434005847211, -0.2733690590269795, 0.88968008100179,
      -0.7828469954809765, -0.335346043831259, 0.627781777190795,
      0.7502032269791825, -0.49426688170099453, -0.1462820042087576,
      -0.007275742547829811, -0.3629009091699724, -0.5037057240428262,
      0.13407993236370874, 0.8763400004415027, 0.9479640948874928,
      -0.026244292177439732, -0.3923914952148002, 0.15786043306716468,
      -0.4731501092996213, 0.3382824622955414, 0.4359847008496911,
      0.6538090251361224, 0.9536146208934335, 0.841939868771814,
