{
  "hiddenLayer1Weights": [
    [
      -0.8664344953710765, 0.6977286576315813, 0.5389456866970561,
      -0.052766944696940765, 0.7957499847752643, 0.42973188673554397,
      -0.30018042466759187, -0.4508596278300234, -0.4487177494086434,
      0.39442794271890547, -0.5171471153059586, 0.4374867009949712,
      0.44610719678076816, 0.4144014678259711, 0.8687286108157783,
      0.6609894173526034, -0.7690691592650376, -0.8680017348911462,
      0.815944408163638, -0.09863721226368094, 0.17416764552915653,
      -0.3911050177237465, 0.3502434412359663, 0.08985624708514894,
      0.5821392367041143, -0.1617374026102154, 0.24675637330209144,
      0.4318767223676456, 0.2542830783578389, -0.46386854040572745,
      -0.9136324086074348, -0.03582854106120914, -0.616326032686898,
      -0.2867271739764594, -0.07207653244137724, -0.5911924598279237,
      -0.99821847427032, 0.2974864416673544, 0.336253655275506,
      0.9672973070345057, -0.7440599351222481, 0.6515989382358582,
      0.5149672499945757, -0.7707769723099731, -0.4420655706513932,
      0.8801490465043491, -0.5980769352147393, -0.5944850591585245,
      -0.27222457742618555, -0.5363012947123806, -0.7904650003766016,
      -0.08831373860354264, 0.586631213746446, -0.9079981554443548,
      -0.735344200219266, -0.1444982815026603, -0.587381488928691,
      0.917713087190485, -0.1985441081295387, 0.875891063351435,
      -0.2509825738791367, -0.09002951185082875, -0.9602250617993819,
      0.0705602098262923, 0.6047943029139375, 0.3228415403726843,
      -0.2744109101074459, 0.6364729746903466, -0.39079314430336964,
      -0.2813349296885965, -0.7086405276349201, 0.1532509151582726,
      -0.598530167983029, -0.5399940962677539, 0.5819708742061129,
      -0.21844873895003225, -0.36921167486379947, -0.30276479055671857,
      0.6851420087626292, 0.4205651835978923, 0.6705385965312263,
      0.5736655382672562, -0.49944511365977595, -0.9951280263483069,
      -0.579155097411487, -0.4751178115299166, -0.5992545432129095,
      -0.3018636319601735, -0.23599146692109496, 0.12790433390442857,
      0.6928546812675616, -0.15701695989027042, 0.3873531845064755,
      -0.2928417912105443, 0.23154055206226243, -0.777275834562063,
      0.05624271005060777, 0.13487053937550275, 0.9069978915251333,
      0.31988496860956905, 0.3298225317805348, -0.8588585696759439,
      0.11709671360645313, 0.09506656301710192, 0.013547781322984065,
      0.8477420518829892, 0.6089812822540228, -0.7238414267451954,
      0.6530919644965305, 0.6426887833602906, 0.47218698046247587,
      -0.019040566275689397, 0.776188167491596, -0.6036940399194695,
      0.48352132366715095, -0.29794839908314463, 0.6097407734027223,
      -0.6627581743601731, -0.6766343598529807, -0.18416919360033868,
      -0.5868085716702578, 0.08323355592841386, -0.32703926376465287,
      0.43785557575482237, -0.31423599092750987, 0.8714404108743605,
      0.15916852287681404, 0.6393887195872416, -0.10091576473253872,
      0.5438828243674165, 0.8018959315236196, 0.7866575192031924,
      0.42496078129868575, -0.4862003148875047, -0.9322988995873596,
      0.9939767628269465, -0.3879821954535876, -0.7460352015421621,
      0.939813754159617, 0.19006043728473987, -0.14324973738266644,
      -0.875219827508182, -0.5704883740573847, 0.7105114198671183,
      -0.19791995488486291, 0.9797094475935406, 0.149761923496873,
      0.8841775947983685, 0.43686505213869564, -0.27086446101029216,
      -0.654058509532272, -0.393449488383947, -0.06865213175880713,
      -0.09026400847054683, 0.17038144780730313, -0.9230241995280353,
      -0.21963691714346067, 0.4643613857069302, -0.48952493651613294,
      -0.2610090629306847, 0.08065857512503705, 0.8856201522000675,
      -0.8888219695502899, -0.552946144371552, 0.7374672679264225,
      -0.8334880005116343, 0.08324915317139636, -0.994063467524434,
      -0.826251122779273, -0.3390819407973429, -0.9946593623219475,
      0.8893612976000229, -0.2542317676826249, 0.5922730913591692,
      -0.6363070661028511, 0.4446345247974599, 0.08539083278050308,
      -0.4859513158021507, 0.5102920629557741, -0.1098814146162197,
      0.365773467753876, -0.24050432626420015, 0.7260804354113835,
      -0.7347961401483376, 0.940802817634045, -0.011583411040042346,
      -0.9550217360599738, 0.42839999270024176, -0.6945663503857409,
      -0.5247853574178265, -0.8688304321785618, 0.9089085686099017,
      0.8701911835751441, -0.475909075671618, 0.13242202672847325,
      -0.9889009422130735, -0.07677104351545205, -0.9932636100732677,
      -0.19877241505863497, 0.6700083497598057, -0.18520310984082222,
      0.05710488071415609, -0.5136893231122066, -0.9864383406952006,
      -0.6774041440448397, 0.3358558435428187, -0.37737541271085817,
      0.6447706742067147, -0.9364801448943405, 0.7779753740848658,
      0.6628394717199733, -0.16131750111993703, 0.08743457938293542,
      0.40699442144580766, -0.4734190736836936, -0.8297007356768202,
      0.5572682786729399, 0.6620011386869686, 0.1676768126145003,
      -0.395665633896217, -0.6801407478125876, 0.6613830784479013,
      0.2015851490028, 0.5576385352948727, -0.9882239409018041,
      0.7733650543834836, -0.8973846599754061, -0.6069441162396778,
      0.2507406766144822, -0.3617230021458795, -0.2646127496478652,
      -0.22758545233100103, -0.39029778264388426, -0.5046315009352558,
      0.47331185449649915, -0.17331339960998493, 0.43813977885739286,
      0.6002440723261766, -0.10336303150323944, 0.5478883908968983,
      0.8145905403686982, -0.3491083409543063, 0.1277058527780004,
      -0.13476141003590225, -0.3745275301933333, -0.5451209498924432,
      0.9799570062643768, -0.4442564244792253, 0.541545747883502,
      0.9073725848840595, 0.25760235036642154, 0.45913336993951237,
      0.9811196100513655, -0.9168121088715808, 0.4436593800532238,
      -0.36400654631028084, -0.2116220065267682, -0.3184705562636112,
      0.7388033692433358, 0.958725082784504, 0.10148445596849243,
      -0.23361347213269434, 0.28520757927748974, 0.9246092296694104,
      -0.9737710193607114, -0.22700843964421713, 0.8710338015376116,
      -0.7221291827794181, 0.4807137114955373, 0.4643152109043003,
      0.3173615173214821, -0.9781353313097032, -0.5791607801315677,
      -0.15992823561427194, -0.702426798351663, -0.6606708997911106,
      -0.894191025804012, -0.3620106062818804, 0.27709817824269667,
      -0.5446262875647143, 0.42016653433558737, 0.5061176561634215,
      0.5344645245099438, 0.8919958980324401, 0.5068983944645207,
      0.527642474768764, -0.21228709098060605, -0.4700937526880109,
      0.5834226437644543, -0.4100056262876266, -0.7146476156218915,
      0.0477056290019755, -0.16463380266105254, 0.125027772937512,
      -0.4215884945417465, 0.2645939549831904, 0.12238535703162645,
      -0.6000878538320493, -0.0899148500467799, 0.9969100289432244,
      -0.3853877137415136, 0.42431593639239606, 0.5542715174024639,
      0.5090736612502478, -0.2097207578015059, -0.5764976570078972,
      0.4071821934055557, -0.8047524440688836, -0.5097518990389509,
      -0.7253715944435579, -0.20071709559992534, -0.8359471991773697,
      0.5925359068543012, 0.5788047511075596, -0.8387322226404077,
      0.7146284634171609, -0.31547699099413107, -0.15203431209049834,
      0.4276350863836238, -0.9574952430330894, 0.46622341134758427,
      -0.9844602386419945, -0.9516699942762186, -0.30053797519436154,
      0.1275739222625929, -0.6076748409377886, -0.5352550511035989,
      0.7518234042829266, -0.7698586525427098, 0.3447354598276653,
      -0.04617505216549178, -0.6062495966301644, -0.28034470563204295,
      -0.7116207381972068, -0.9983621903170357, 0.827868891107749,
      -0.3861077657556824, -0.6818333716568872, 0.5463596915452062,
      -0.6519029719321843, 0.1883765323932578, 0.15099552995981824,
      0.168868928049279, -0.4463085531535471, 0.8646698574877183,
      0.1432111804832421, -0.5201417789103457, -0.6312035321764373,
      -0.22315586992433722, -0.2578279798462697, -0.8218071056770913,
      -0.9284552921590588, -0.04410281242690095, 0.46023339927481954,
      0.4745351039447856, -0.5244829109551561, 0.20132424835379226,
      0.8209884875075835, -0.8454209835186046, -0.9658997072765376,
      -0.41559234508329324, -0.47084258760170883, 0.26312724579684277,
      -0.6301565642852447, 0.9348837075054246, -0.5688645990362753,
      0.9783743002846434, 0.29634295402084776, -0.14523024322632905,
      0.7280373775564719, 0.004235551531994286, -0.6825748783455432,
      -0.06580427315104265, -0.6541251060868349, 0.4204253982981552,
      0.0650696919825573, -0.4077843518100801, 0.7620721180664036,
      -0.7979980226471808, -0.6800139391358662, 0.1656195261653446,
      0.5594645686019084, -0.9722825725198949, 0.2486344238407825,
      0.39025285757693906, 0.8521116566246323, 0.3469371651679185,
      -0.8454996768883309, 0.060134939951622, 0.8217319225473458,
      -0.904895452140988, 0.27108819009149254, -0.3541150128460968,
      -0.8906769772241239, -0.6420256025152571, 0.13257734554659883,
      0.4121060460671959, 0.9325789987088178, -0.0806090325936557,
      0.8287123226449817, 0.6120720672390116, -0.29929244706175107,
      -0.5943113229969734, 0.1742265187801224, -0.636942971641882,
      -0.08289079616174355, -0.6708256143856777, -0.9486619589601109,
      -0.9500174123473024, 0.2027911180735722, 0.7699943754113354,
      0.6111361284408066, -0.7320837834936942, 0.49227388523291715,
      0.61174018961922, -0.8449796712053468, 0.9643345241967562,
      0.08768686978786144, -0.7515953931815269, 0.5127733548294882,
      0.871871041076262, -0.295075070108922, 0.30895783208038674,
      -0.8280193994792184, 0.8627406059769602, -0.4949563212866783,
      -0.8471198702653489, 0.8999449312890819, 0.6557212353733659,
      0.21059840374519512, 0.1727001359736562, 0.6938843319617147,
      0.7954510851824645, -0.795018636400783, 0.544928604903427,
      -0.41517410692516643, 0.6732247706671393, -0.48525002870626954,
      -0.6722844259430829, -0.6203743587016044, -0.9187028230991059,
      0.589985118672701, -0.9701839068941283, -0.9740417496964278,
      -0.10538638941522027, 0.9882911586328276, 0.5185228123894396,
      0.514778611464779, 0.7547103167658111, -0.5022221186331381,
      0.3009413421683562, 0.34535317591083947, -0.9248149365372185,
      -0.9294768155756419, 0.5544847905406214, -0.5295953864336274,
      -0.3808615897397032, -0.9087818929513687, 0.5478445315275566,
      -0.777038856193617, 0.35063230103629905, 0.4763338682847018,
      0.4045592880050828, 0.6020585914388534, -0.39421052921389377,
      0.3307347696355678, 0.146090855285125, 0.10719912254059949,
      0.36382000297455264, -0.5592598661199659, 0.853893872087224,
      -0.5985038520225938, 0.09465058353703881, 0.2249834870077434,
      0.7790906312037191, -0.5993961578215488, 0.63378858741028,
      -0.35825259937804965, -0.5689931623046292, -0.02353689637879075,
      0.029355712316106786, -0.29386385774877066, 0.7815764524624509,
      0.05386357805864295, -0.3104884077969081, -0.17801577637780275,
      -0.15150729015162767, 0.41189114850369135, 0.3076885931715636,
      0.7981231118988559, 0.4653556298957038, -0.9590958724571927,
      -0.25869587034754016, -0.576572077415757, 0.987596175372663,
      -0.008977958456788837, 0.755665868555905, 0.5184205437388143,
      -0.46311106686008063, -0.80865988263835, 0.08331461850025645,
      0.47013430202351714, 0.6520838494768855, -0.4567641813089218,
      -0.0763180546754656, 0.9414381489146955, -0.4373636778980381,
      -0.7259501036561828, -0.36749643469483795, 0.37817758651304967,
      0.29992062504702366, -0.9331669523157289, -0.8259227344176066,
      0.37045469949289656, 0.7046326129424867, 0.8402492095159761,
      0.4148672862444309, -0.2836279821160965, -0.8177132662491475,
      0.4701278068031969, 0.8976884722912812, 0.5895854288173581,
      -0.40339458938453765, -0.5857010612457287, 0.46900886792867347,
      -0.9469886871281212, -0.879926512368391, -0.5712112789440944,
      0.9882449579992891, 0.32595381247297794, 0.34177302985712954,
      -0.754425736693205, 0.6050411403427254, 0.9001560519945953,
      0.4487007922969699, 0.3304609955374862, -0.6907953725039833,
      0.4746516208166889, 0.47181872203381303, 0.09591377981648863,
      -0.9491240469454421, 0.9431151025429321, 0.02925526866683459,
      -0.636905113757094, 0.2831266019290788, -0.7399988965938622,
      -0.5969000543616887, 0.8124184507256969, -0.660978079770083,
      -0.40779601844605873, 0.1271722176438077, -0.4165161688377146,
      0.10920985701635333, 0.06377394449672513, -0.6109315863583822,
      -0.31213286341113955, 0.30046339305898684, 0.4808290637525343,
      -0.9265930479334528, 0.6476202961486321, -0.8540905032528694,
      -0.06374795024961966, -0.9961694730172246, -0.37805480492076526,
      0.21336861389109085, -0.4744688053006212, -0.199585498803033,
      -0.139621426265645, -0.9816357995919165, -0.848928571506459,
      -0.6910685985182567, 0.8199720048926804, -0.6383159447430904,
      -0.20169910735551744, -0.01648278019705529, -0.7703804907742318,
      -0.7198673204046115, 0.24933740640244428, -0.9662712287379565,
      -0.20058584408231805, -0.08522103067204911, -0.4718634329120337,
      0.5981190148802704, 0.3673479855782298, -0.10066984538897161,
      0.3974786838260891, -0.6936855550994228, -0.2843847737646228,
      0.9167317244982911, -0.7292047623521287, 0.8350725743143741,
      0.9302633398637141, 0.7973239384584359, -0.8405973860238136,
      0.8711996357123288, -0.050901768175109385, 0.07023098879441214,
      -0.22231088388637987, 0.15486704618112812, -0.9512620061703361,
      0.22110439244275382, -0.043610364101921206, 0.4894815315527752,
      0.4639371630601907, -0.013739470418550503, 0.6647842082030393,
      0.7757874209464131, 0.8127987071182488, 0.40915959990382733,
      -0.5336679444646388, -0.8105410116844869, -0.3280652855134898,
      0.06923932453070547, -0.7590950131099183, -0.6877942811725517,
      -0.6833381488254653, 0.7466334858311727, 0.2610705703972167,
      0.012442826689659015, -0.5220715721892306, 0.8130067183364988,
      0.4776605145299424, 0.02580853411557449, 0.41054667056095395,
      0.30773176312005024, -0.5453874674867945, 0.6954439322853339,
      -0.748997745030139, -0.9799208681030454, 0.8721773150126166,
      -0.8780167375839336, -0.5036251845599229, 0.6701185459477541,
      0.2955015447143974, 0.8947528624701766, -0.6704245829239293,
      -0.9681370586741296, 0.5331113133851422, 0.9334869900050098,
      -0.7998947698018748, 0.011631309733243, 0.7091076157530569,
      0.1013464548229579, 0.7601062575990931, -0.6221136172048234,
      -0.8663993477383825, -0.07541886798578634, -0.07635496418770504,
      0.13703002213377857, 0.23845421635601882, -0.21718563582958517,
      0.9544394021996734, -0.8400460384973352, 0.9340467693869248,
      -0.4868479647229602, 0.5412317397108461, -0.2741818800050977,
      0.4379136875988623, -0.8069138560770694, -0.5428870672168271,
      -0.4293745949400001, -0.898349882532631, 0.6305715038840418,
      0.9900772898071675, -0.48743380644156487, 0.4569659283028651,
      -0.08255468445446379, 0.9064398362146866, 0.5803366407084445,
      -0.5645468142367651, -0.6629865552834837, 0.10542096372885856,
      -0.1907435042929535, 0.16079485276442806, 0.1448596432305762,
      0.49240320278199157, 0.3253914156654263, -0.4099523153568936,
      0.37899716443746545, -0.049521086106740775, 0.6221880973609064,
      -0.06019358499407268, 0.00633793245552372, -0.8275387449268083,
      0.21061874568611572, 0.9088138273909774, 0.5994562228270404,
      0.04115980646151529, 0.340288849958414, -0.34286559108748804,
      0.23484119923282032, 0.25481043249046964, 0.17196647130194442,
      0.0202674158185161, 0.06203092952744438, -0.12763800215472498,
      0.7133219717924479, 0.8684469124371255, 0.7078678449473301,
      -0.10082667445324445, -0.760574408667269, 0.38024922932283545,
      0.7517505420272155, -0.26771043503368785, 0.24130256801626704,
      -0.998864492247348, 0.17253495084825232, 0.9516965000727655,
      0.3781339820783196, -0.08514613222252043, 0.32077847089558587,
      0.8393857995041984, 0.40311955092670804, 0.9100622353919694,
      0.028679076867362152, 0.0030860823537599558, -0.5569772166412603,
      0.48419023040437903, -0.24092414566193243, -0.1835597266257758,
      0.6677643925111427, 0.8104844934058897, -0.5186462259384785,
      0.6356370556026096, -0.4202488298007969, 0.025595925920026463,
      0.7777166767034442, -0.462161507350765, 0.9141047767877382,
      -0.18670562487077502, -0.0642700392096982, -0.47378149952841175,
      -0.04228417758469538, -0.27255764154861506, 0.009002602354808875,
      0.3210722106837425, -0.682563781156893, -0.4758380030440077,
      -0.11176369150072007, 0.5727002582575982, 0.6697367255336149,
      -0.8306906136123837, 0.7195027135705199, -0.42311894857224175,
      0.18715262620849815, -0.590582152581165, 0.8645625833705499,
      0.7537794659929826, 0.7516877491923193, 0.6903147325526504,
      -0.3753367740442215, 0.7720123431419443, 0.46906186750795387,
      -0.7006644079957103, -0.2254767478688393, -0.4956295434525422,
      -0.2127613356259319, -0.8861658174099758, -0.7371398695270077,
      -0.7829093439547816, -0.7108876412476954, 0.3219777569121911,
      0.7997544802826715, 0.8775894038706871, 0.5714089564622378,
      0.8293866695548773, -0.8926255267984691, 0.40214379590958904,
      -0.23920114886178956, 0.8778454708791066, -0.6925097197255203,
      -0.003010115950527581, -0.8575906055161964, -0.24401544277848997,
      0.6090685716323856, -0.5239387584218362, -0.23138056372405957,
      0.836856534310729, 0.9492961028547335, 0.39869728831444773,
      0.40372061091766254, -0.8738362635349843, -0.5188330131438881,
      -0.021201058314127774
    ],
    [
      0.4158184434272698, 0.340152595173032, 0.8798513246490458,
      0.5049406548100932, 0.23684803995279813, 0.6879745786984333,
      0.844659010193682, 0.846385680386502, -0.7530655564620368,
      -0.4125335877772458, 0.27588175979930263, 0.6712647057665175,
      0.9000397972147018, 0.399768492159851, 0.1951577299253371,
      0.1419510189228692, 0.9950811765712952, 0.7716776278821413,
      0.8623976595536345, 0.4725453116444376, 0.003703313319959989,
      0.6332068266708748, -0.9908928122605642, -0.669616704402634,
      -0.7227129860634283, -0.5598616140135411, -0.46861639695911617,
      0.4208461731191653, -0.6476595729939687, 0.4957971942537829,
      0.2338431025925578, 0.12032429686954593, 0.49892227103187947,
      -0.9692067622255811, -0.2581298622812809, 0.9992016878728753,
      -0.12288264806011906, 0.14949038299688855, -0.6181013998371205,
      -0.31735445128217643, -0.5986322566065043, -0.2921468628548327,
      -0.06530210527512281, -0.3179885200700001, -0.6114590006630105,
      0.4215130387001409, 0.9495810249501551, -0.5865403482897924,
      -0.2193206020530285, 0.6474207809598562, -0.22400121169506315,
      0.9781013249865786, 0.5144022402460071, -0.33513846062233643,
      0.07403114224257656, -0.6613237939522056, -0.05007866423984142,
      0.32554411459564125, -0.2853547229697231, 0.7803306739789906,
      -0.03690772888386462, -0.03393390489790482, 0.4714202254323441,
      0.5504901423461122, -0.45508164202752077, 0.8903955092598523,
      -0.2139332733564867, 0.7226520265475282, -0.3664515223562059,
      0.053803931472599764, 0.36304079882172724, -0.424551634862663,
      0.19174826085172736, -0.884771615627483, -0.13947034620867305,
      -0.3938397941656113, -0.011290701814078208, 0.7385713882439213,
      0.09395388886868306, 0.7676970221105464, -0.7917000158452256,
      0.8778011879831227, 0.3908487194766086, 0.7649313544024334,
      0.650035501320946, -0.8716942940906827, -0.5086848756944979,
      -0.6691160157014768, -0.6585716614102943, -0.7316140796029234,
      0.5041186301364933, -0.38790591384932593, -0.11839604561171369,
      -0.2398611607010075, 0.5773357976666507, 0.12550335445193772,
      -0.061676232214959104, -0.9924967503205555, 0.4311060456144058,
      0.5088840638959677, 0.038663375190362004, -0.4915182546092782,
      -0.20219167696651708, 0.15071957209761022, -0.7768318860146701,
      -0.5030198839692988, 0.8139442905177909, 0.13982755536536606,
      0.24269459289706763, 0.15725913162289595, 0.24476661197346639,
      -0.3424233502048648, 0.7424303513229678, 0.5962285707344539,
      -0.17768562390364906, -0.5288840296071475, 0.9508818804544328,
      -0.6745433990614993, -0.4812708920974327, 0.4781193351302395,
      -0.21385082978573822, -0.0603893680133889, -0.8934478598887634,
      -0.9461089493580994, 0.38226669622415077, 0.20079116497127636,
      0.9282474215624474, -0.35384053193359843, 0.3242397437769564,
      0.9705932205904708, 0.5776990915727507, -0.9377049932109074,
      -0.3577095007141313, -0.6380080025621546, -0.5591146312162398,
      0.6149084200677186, 0.8054733441750308, -0.045774143623591446,
      0.750039694120701, 0.000415826364406513, 0.510671765839755,
      -0.9918400641933629, -0.2556577631615822, 0.026668277700241383,
      0.5913119536097127, 0.6754125642257653, 0.4476412875218121,
      0.9990943827351781, 0.5728992372568782, -0.5403754595811097,
      0.3300820232848376, -0.8196805645706071, 0.7455252131679488,
      0.5006148893650364, 0.6511184686630536, 0.4488236104988812,
      0.013486127940383952, 0.44395530233122926, -0.7546951416431398,
      -0.42527081245027487, -0.5261455976216474, 0.2668060875201119,
      0.9383364679336927, 0.9745463491421025, -0.20420685272970962,
      -0.8362609021559106, -0.6535438621012881, -0.15612665874554477,
      -0.09283680817528817, -0.5047278036472762, -0.8383695187200835,
      -0.42606582991760655, 0.6345609547553233, -0.8831456687958212,
      0.9401052366936198, -0.7261493600172795, -0.21478985973682274,
      -0.759334022615572, -0.5846070503893497, 0.3225008273806922,
      -0.8191856040773677, -0.624641285828059, 0.12988799024272124,
      -0.602899891791493, 0.10501269904979615, -0.0008180735156169128,
      0.6348064279484444, -0.33158302757284286, -0.5017679379901283,
      -0.6902744044287319, 0.852826585332426, -0.0890565532396943,
      0.7337477843816322, 0.46153451724054184, 0.01876065565167817,
      -0.5858104113100153, -0.5979491434239694, 0.5562662493974475,
      -0.319162931875129, -0.7376590506092424, -0.23145053821589068,
      0.6920734898823682, 0.3493976802101937, 0.9083503488514584,
      -0.9473935679775165, 0.5802355340940251, 0.491795646076417,
      0.6903537930183137, -0.48803540398298306, 0.4827142098086714,
      -0.8009844075688228, 0.11342362519729265, -0.29149680090793817,
      0.7518303879151298, 0.08590082866909521, 0.3999511841270045,
      -0.6724254934715757, 0.20666551651139198, 0.2091217426247396,
      -0.9410760335364596, -0.2989800526225759, 0.5935350859401414,
      -0.28401570590031433, 0.7636188137244115, -0.6334954305098193,
      0.559041508331894, -0.5282986564272667, 0.5588996972815354,
      -0.4164472358712965, 0.9189742734721644, -0.49024605920232256,
      0.5849400742459587, 0.21052886645368396, 0.243377401533869,
      0.17117084584808584, -0.5811576253519561, 0.5975695662535498,
      0.9143152357200459, 0.45904314863061657, 0.8933534003477583,
      -0.8346331453968263, 0.5173970483134251, 0.8561890670366301,
      -0.9843005708537937, -0.49347360501896675, -0.6007608307488881,
      0.5366730014723831, -0.8233495045279873, -0.9613757516635522,
      -0.3121024869584548, -0.33178209377863865, 0.9392030143168273,
      0.06778815861243448, 0.2651435895041403, -0.2741388178387538,
      0.8333647471843331, 0.4800715550666408, -0.6502794072921314,
      0.689253875550671, -0.09456884197588344, -0.8262141366627267,
      -0.3716003394624332, -0.4000847240827423, 0.9901845176762545,
      -0.1190012072308475, -0.06768394152216839, -0.264094507668843,
      0.77324886211776, 0.08267526921808699, -0.23808025390312126,
      0.6824582184533989, 0.3601083986143152, 0.34735723324702983,
      0.40118019396285653, -0.10424269965802102, -0.7153649575794736,
      -0.9702195329256709, 0.9958719842601766, 0.8609764748376754,
      -0.6153726275381177, -0.19055373167608147, -0.05381245935836709,
      0.5679044334332821, -0.45478631146970416, 0.2532160701875439,
      -0.8370378152633484, 0.5449939830599106, 0.2994950928700648,
      0.6731869482802395, -0.0710003314655765, 0.11621288781968886,
      -0.12952718940963814, 0.7279871074912565, -0.0012662880332947601,
      0.571982245713234, 0.5269356868913757, -0.9411306252691931,
      -0.03116232811194708, 0.2752251258988423, 0.32555400447704974,
      0.06108797830866486, 0.6901302246124459, -0.3477611420851887,
      -0.5017131074086039, 0.14727369036643, -0.27452559437411006,
      -0.32879433414218795, -0.6864881207315308, -0.5649315617217066,
      0.06132640716166016, -0.19346717806925406, -0.3082590769645961,
      -0.1310643399489253, 0.6570327018053179, 0.6810573153645989,
      0.17176499104658083, 0.21740599816011796, -0.7761170691532366,
      -0.3796616121081269, 0.49188397566163067, 0.5276549329117981,
      -0.011242624417332259, -0.4060485502580051, 0.3582173877622883,
      0.027644248988975217, -0.8488938240164354, -0.3199322746855935,
      0.34556243603683034, -0.17350993772187762, 0.06345040903500676,
      0.8088624536684317, -0.16003012277361384, 0.36124804820352585,
      -0.12705715557342634, 0.7611553975588881, 0.2353153385321658,
      0.4611844462176924, -0.41576613497827264, 0.05621778121859622,
      -0.14412507371478034, -0.7055802801020628, -0.7113622605649526,
      -0.9467234541212419, 0.2818039713380185, -0.8594177484149674,
      0.23944429614847396, 0.022559655582861993, -0.587871990611545,
      -0.36711289814578274, 0.5304016230181237, -0.6878782016371949,
      0.06709633442106577, -0.6488536562863327, 0.003758702542564496,
      0.3424675533200787, -0.11129108589393821, 0.9596944160435599,
      -0.9943512569327835, 0.454118788528616, -0.6951402149991028,
      0.6417396804390267, -0.9396813040589667, -0.2375806085379275,
      0.26296205029572706, -0.8367412492097874, -0.09759836755740947,
      0.22113179710306197, -0.3324001480489076, 0.3862721238928195,
      0.13989297612976737, 0.8839747474971196, 0.13278625923347365,
      -0.6160394391168871, -0.5208841296506734, 0.2857650899304782,
      0.8808218031147197, 0.43806455679945255, -0.3420717449830408,
      0.2981665824141464, -0.2818535175722894, -0.20426664491057522,
      0.36405433778378793, -0.812628063633694, 0.6540061038276259,
      -0.4983652788495414, -0.35721069409448303, -0.3770739158518226,
      0.5465595350225154, -0.23330166152007648, -0.2341199462587995,
      0.3967715975671977, 0.6165709776490558, 0.4398254793437806,
      -0.598142797273649, -0.4870300790479547, -0.43035859409869115,
      -0.37900155201313845, -0.14434351579700522, -0.8821179439106945,
      -0.19272064625608065, 0.9432660499548047, 0.3810697041288438,
      0.1269583331672215, -0.4564944756301479, 0.6014125581523571,
      -0.18074205357803352, -0.4954126135548309, -0.7880973337866473,
      0.7745289138187998, 0.642002144891185, -0.8456160698110322,
      -0.7574796984936634, 0.1035496010777961, -0.065463328889245,
      -0.27217777821802347, 0.7789451563869298, 0.650757891887813,
      0.006608888626578491, -0.5812944415500483, -0.6277969825144938,
      -0.6577488910895322, 0.9633719913162588, -0.9226873280561234,
      -0.08154618074615794, 0.64959590072726, 0.2783896969923094,
      -0.9764701244255627, -0.40979482683622726, -0.6932720096877785,
      0.8371220901023606, 0.622810605783028, 0.9807836646971388,
      -0.34130189154584345, 0.02078632756212162, -0.3449834536917509,
      -0.9572711400433276, -0.5158008529483435, 0.6104841145218649,
      0.8571725174907505, -0.8306900949960396, 0.5450769046776447,
      0.172943895964758, 0.5231577316914979, -0.6522377800774706,
      0.9615595539861599, -0.201925350643275, 0.9870451422325037,
      -0.4617889257337411, -0.31145313142963094, -0.8333966642782102,
      -0.33979937998678134, -0.361418470336091, -0.8399588901073867,
      -0.3829281225438743, -0.4390682901257983, 0.8041093199195113,
      -0.45099856761071777, -0.5511361119690807, 0.3936347489482577,
      0.7989169185327372, 0.5770308058580484, -0.5599655883349017,
      -0.32239040061278157, 0.34777087198408907, -0.7368705611791557,
      -0.8905662268650238, -0.7562913441866641, -0.6707705901206178,
      0.6256036507191616, 0.70433595782431, 0.31525054800405705,
      0.8810995842592471, 0.2881853547826805, 0.20953650676033453,
      0.5167062245969394, 0.6313237028603171, -0.6112792164284158,
      -0.21840846070726894, -0.9785939832511432, 0.9425579589581297,
      -0.9874858898015004, 0.8907444581714721, 0.9271507311695486,
      0.6591817893171568, 0.38624491145529083, 0.38129015813421363,
      -0.5702926602725418, 0.4162791245848081, -0.6772678689774763,
      0.5890451291432095, 0.5814242738085871, -0.16376962326352507,
      0.30658102627728745, -0.06584150004545686, 0.0970710187692636,
      0.09191761933418174, -0.20991774009564157, -0.6594731303930677,
      0.008060171964458629, 0.49988581741639404, -0.4649454406138309,
      -0.356460413083989, -0.9697258269765352, -0.1800932350557245,
      -0.6582910412122192, 0.17605563046332318, 0.561040039078156,
      0.09783693949098149, 0.8385516703140112, 0.39432044854547854,
      0.44677135349547203, -0.19032611235986696, -0.6256294386417718,
      0.8727516308364947, -0.29417071303053133, 0.042926356720399905,
      -0.5525667905928464, 0.20759252334340683, -0.5023766491600634,
      0.3438448991044818, -0.27294187375276735, 0.5280561917607178,
      -0.732343021060843, 0.6535013191763084, 0.1137434238631716,
      0.5619811068904013, -0.4197370976619186, -0.7792242598558401,
      0.0942506436991204, 0.49231915114112823, -0.3679262660884244,
      -0.4322679869051713, -0.6286603885065203, -0.43961259666851094,
      -0.3897440077921259, -0.005001434146832295, -0.8130650160104791,
      -0.33606309044002813, 0.3728325187049455, -0.044623970015363223,
      0.9425588076285916, -0.008207801615556232, -0.05524993061002581,
      -0.32841507726368935, -0.8838429117830984, 0.5376614630021135,
      0.1650279453749155, 0.6014458212946532, 0.44469210601540254,
      -0.16985246694101086, 0.5542319010440706, -0.9341560258815038,
      0.17858418103149054, -0.10375382373528419, -0.9681005771604347,
      0.3285483984530364, -0.6667503074308696, 0.01578569662238616,
      0.40246179246291947, 0.9666780924693694, 0.5981453768806375,
      0.38951202945291863, -0.0695516966977694, 0.7747331018672212,
      -0.23552132592613528, 0.12938381964336365, 0.3874920018021122,
      0.1586553355162068, -0.40760602241780974, 0.9129393503757828,
      0.19425372018923026, 0.37781569021912986, 0.6420304725728045,
      0.7804702535069659, -0.32891907898879147, 0.7019361107189752,
      0.429812963326786, -0.666979487529554, -0.09266307062480994,
      -0.6742242656733182, 0.07628842101039357, 0.6670631068512831,
      0.8808020764252329, 0.06238189537723038, -0.8693567738121244,
      -0.6435156512096776, -0.2440570910873774, 0.3626818387402668,
      0.6246416581371079, 0.7915014073651347, -0.44120468456403206,
      0.5877607855459024, 0.11867380473208833, -0.7330233099368937,
      0.4404075343770497, -0.9740952019216031, 0.589646444154972,
      -0.0026879985275827245, -0.12995341837963847, -0.996471628045319,
      0.5559980049910012, 0.5771346227502496, 0.28271452603268177,
      0.1793472720478122, 0.4100118937220838, 0.594082816057981,
      -0.3926116919047802, 0.7325840857268098, -0.10346081598906531,
      -0.19417839484996424, -0.5844208888398303, -0.9614621782875976,
      0.5195422054939609, -0.9703467435707047, -0.07885105475856413,
      -0.6245986761695494, 0.38603853112915854, 0.03555608346428496,
      0.46065796825272054, -0.06891982877845404, 0.23457844915438164,
      -0.4808119131494406, -0.5986957706630562, -0.0575952441079437,
      0.9719738620212786, 0.32160506806209144, 0.5406936560416504,
      0.5454594286220891, 0.8398804472739965, 0.22193591503623988,
      -0.5516976578780093, -0.17908029621260502, 0.7370680702516981,
      -0.22121767244012291, -0.5928312447746116, -0.26161383725997966,
      -0.4009594561648262, 0.06854167107616727, -0.734855914863223,
      0.34760022656602096, -0.18101122476652343, -0.36871109493670495,
      -0.5654098841106521, 0.5244373421238286, -0.6989062260467662,
      0.0707512913683801, -0.039209405429045496, -0.2523804490745962,
      0.1528474603338048, 0.014541937029585394, 0.24707783565176422,
      -0.6724094826975184, 0.778106054141559, -0.22670348682182517,
      -0.10037185040402097, 0.8856584732463304, -0.8818338985072072,
      -0.7690222524779227, -0.4184168942669375, -0.7938081496189393,
      0.8028961930551088, 0.37614066574379024, -0.54898370862474,
      0.6987365045931728, -0.057633258089977435, -0.930770001186429,
      0.23250673478835315, -0.9812994976717131, 0.9820884187479049,
      -0.8238420697234985, -0.7198341405991031, 0.6786031458041624,
      0.11148941076402341, -0.6143776385397142, -0.5775047456360385,
      0.1993948508080523, 0.6093245469368327, 0.9371375176693943,
      -0.6609947519069039, 0.6689179028032468, -0.5065250975829234,
      -0.8948567139447472, -0.5040731307602262, -0.2861370059541737,
      0.78368723431316, 0.6723440672467502, 0.8036875320817871,
      0.26325048635152415, 0.3053375198822885, -0.24888840112841004,
      -0.6684274848022889, -0.3854689551652344, -0.2636420181050334,
      0.28330605166902156, 0.6434455293918457, -0.21760080547164584,
      0.22218064408646399, -0.4472664008707312, 0.1452909189651277,
      0.7136078024667505, -0.9599215267879408, 0.09882720077068674,
      -0.022938023703130916, 0.7749676876860527, -0.27564698216998273,
      0.5340954026646401, 0.7695907302372085, 0.4247573767886257,
      0.03422422776518186, -0.4095631896764007, 0.9877491459371419,
      -0.07847601171721674, 0.1223485508951998, -0.879655609626107,
      -0.6507957759437368, 0.36629880705448103, -0.27696278797380147,
      -0.7488298841901138, 0.6099738355025739, -0.04524050280382497,
      0.10441094029778508, -0.6096010743050719, 0.010194359272927667,
      -0.46507931798071844, 0.7572536821084173, 0.5932382191335681,
      0.7948140639306405, 0.6065740324244979, -0.41309180573587945,
      -0.9258986564541756, 0.9432813477423223, -0.41458017082857523,
      0.24189953193378777, 0.06586345701279184, -0.6774525048037683,
      0.4494245281744669, -0.3496883474776453, -0.892930054048219,
      -0.5306841408756244, 0.7561015648572385, 0.5872662290876334,
      -0.7197542114175755, -0.39791878509241485, 0.5162798584011261,
      -0.613305152877802, -0.7510407150553213, 0.3088952388321342,
      0.01506572377531823, 0.21664899389533376, -0.7899572842719635,
      -0.7639778559816803, -0.5536834616515995, -0.8170663795871818,
      0.6289802725759532, 0.3582676446090933, 0.7779430437741381,
      0.34767481943949274, -0.2733321021644959, 0.8129337071936931,
      0.5642927859140388, -0.6001453221727964, -0.44988566870384084,
      -0.41838282420210415, 0.9614889538292593, -0.43958283322136626,
      0.40683198788204766, -0.5662901958745361, -0.9234682225093525,
      -0.22282377146400734, 0.5334274014099618, -0.4643993641256041,
      0.9486807525673853, -0.7423108545063606, -0.8325183867498458,
      0.7403349683470095, -0.7927239376762998, 0.16031535044787315,
      0.005184425639842782, -0.4448455989929392, 0.09803755131252823,
      -0.051473927763784566, 0.872506881405672, 0.24166465565790096,
      -0.5169741394224414
    ],
    [
      0.024575978605005044, -0.02602439898373632, -0.10668169163439245,
      -0.7099113056215507, -0.3818409215669365, -0.004268387993288769,
      0.5058472015242303, 0.46073961741922265, -0.19355818862327334,
      -0.5233011536588346, 0.8579234405671272, 0.97425584157501,
      0.4886776655073515, -0.6127759333167999, -0.5561633782214228,
      -0.4806603685480906, 0.14956615266733841, -0.9818559111458796,
      -0.7637358761426212, 0.777412891319293, -0.2906745304754952,
      -0.8689649910194914, -0.9333664751257573, -0.9852099179766505,
      0.23910226670416757, -0.28636556477313446, -0.9390521626338311,
      0.5806824181004147, 0.7688830345443027, 0.6894383281709322,
      -0.22169224005924004, 0.28912523261633716, -0.4281290676997971,
      0.8694787800600356, -0.188714562331751, -0.5531314149207267,
      0.38476227208233027, -0.821758360726482, -0.6407624389237299,
      -0.716295928244683, -0.2502624184254594, -0.8232296881929879,
      0.6462706587620617, -0.39922868367684217, 0.9921823447856446,
      -0.04764394834882868, 0.8036220984224087, -0.5972188294772187,
      -0.540591970439765, 0.026536831771398095, -0.37566424323435665,
      0.56636143191046, -0.854081491730466, 0.44094690926207436,
      0.9306107440627622, -0.057859368656784316, 0.7723923747975023,
      0.0017047174706248391, -0.6163503341912944, -0.5408393033679162,
      -0.17485251812919156, 0.673819904580276, 0.05739002765409884,
      0.9139033906315692, -0.6782604804730514, 0.6411688474680517,
      0.7425265649378798, -0.5970126999896115, 0.07290420475534232,
      -0.7869709417966719, 0.0864451164399993, -0.6094349309190332,
      -0.698140952453639, 0.9323582351601103, 0.044813473042389695,
      0.016763911402816856, -0.40049903546852494, -0.875799714134478,
      -0.792188322404257, -0.8342049119361614, 0.5133530628695406,
      -0.9209783388641837, 0.03177721772885045, 0.6739204752353585,
      -0.6914619308217049, -0.30365665991636215, -0.8709834973695885,
      0.7036675398256942, -0.4834872404493131, -0.7921706413954563,
      -0.03285619309369192, -0.2910797037886894, -0.32937253580271264,
      -0.31756464374135573, 0.24122109676409575, 0.4905654112258673,
      0.12541641469229114, 0.11215357706207518, -0.3676368457677084,
      0.1997404761904873, -0.30366836464464164, -0.5224251769788268,
      0.9076620491040606, -0.2311986280578937, 0.2875953191322531,
      -0.8783381495558182, -0.193395424270566, 0.9102021718207634,
      -0.5556805921935952, 0.9258034777527686, -0.43935500680301054,
      -0.08682423305747955, 0.3378218636949004, -0.1620543705105879,
      0.0843954781936831, 0.08268485507028034, 0.3084308273491132,
      0.41345276778088813, -0.09965029297726824, -0.9939795070402861,
      -0.13091776075542993, 0.23802112187012892, -0.12534508226362995,
      0.02843843598541973, 0.7710302014821733, -0.5605801705529392,
      0.8947258368497684, 0.9631007183272668, 0.730211932878138,
      0.8990921575026403, -0.45792855787871867, 0.020836879373635764,
      -0.14042981545813182, 0.8812375332954514, -0.5109969076077983,
      0.5627155363206997, 0.4054716280323123, -0.9075836090301022,
      0.7913616574122782, -0.7157159345369064, 0.7499888230522562,
      -0.32852395024984515, -0.07412934623460599, -0.6024949387014669,
      -0.6648274822898199, -0.17372120752383946, 0.591821798027448,
      0.34596682926219335, -0.6889857647217017, 0.3864360404588343,
      0.12317779054111622, 0.9589251913599623, 0.48675484509846934,
      0.6644851136882068, 0.12585258051684622, -0.8636321235587046,
      0.5647478784904858, -0.9160528597294162, -0.5820081313438603,
      0.9161219098510043, -0.8404266659823909, -0.29625941196675765,
      0.6778067580697469, 0.024511590560004404, 0.8949560294156056,
      -0.3535425336376652, 0.5026880208559099, 0.06974008124413356,
      -0.06069870241468456, -0.9059488802463727, 0.33246418716155146,
      0.11051134079249136, 0.5912194093910195, -0.1542131511570921,
      0.8413716073771265, 0.6701718142462263, 0.12954036792132806,
      -0.8176511954083905, 0.28784278324645163, 0.7752302444636663,
      -0.7922312342752837, 0.2602074974441062, -0.8823512300402765,
      -0.8946858316344373, -0.5063433076508175, 0.7283816183382013,
      0.24019705942567393, 0.6093012229281647, -0.9144834636779429,
      -0.39313780271033893, -0.08691687555860783, -0.5112943574796724,
      -0.07562536372351492, -0.583743932090258, 0.03279466102214501,
      -0.05622892666598789, 0.9397966905557444, 0.3833516105945236,
      -0.8867098615936815, 0.06524424979697985, 0.6968658863734598,
      -0.40195533828374996, 0.31726938219205447, -0.9782839055729986,
      -0.9525576417468393, 0.9950683075418145, -0.7956326274280068,
      -0.9737839939274231, 0.6850258846438799, 0.8515434787074754,
      -0.18691055172984017, 0.7298158048903365, 0.9584213046622949,
      -0.7227559045578293, -0.9102111284757965, -0.6918449257964925,
      -0.10427752262130197, -0.7262724723004408, -0.6257404104940685,
      -0.6730794560037037, -0.7861289704484364, -0.6150863133501168,
      -0.6415023731253888, -0.6547264600286526, -0.5992334946593529,
      -0.6062502321290122, -0.41223614470099257, -0.9462717773965235,
      -0.9346122094218852, 0.8237752689137903, -0.5052874400385816,
      -0.3845149046552714, -0.3200401900599261, -0.8449439908428134,
      -0.7494021907779005, -0.06783693600138863, -0.20560569789055316,
      0.836508030002967, -0.46799664698142784, -0.0765800837222308,
      -0.5516805543715972, -0.6906634785394941, -0.6343707589325929,
      0.03820027198203535, 0.31243158674204086, -0.5058221552778179,
      -0.8426054598777539, -0.3638655002852378, -0.054894866711761026,
      0.18493479326586915, 0.5630236037672312, 0.9093004873466772,
      0.8254665935896908, 0.663412043016133, 0.35656680248816786,
      -0.4989387454272918, 0.7268510316798693, -0.03946115835760411,
      0.0983021663810475, 0.1838999706586475, 0.612097461962926,
      0.7206486518740394, -0.7732438897898573, 0.60872102977961,
      0.12211403185865732, 0.8412257823168394, -0.6866664177822872,
      -0.48629700907808493, 0.14513802089460004, -0.46429977588061444,
      -0.4974270851013376, 0.32971994480563405, 0.8854408517594456,
      0.5939015368011522, 0.22297945790476703, -0.9235993984285824,
      -0.2832124690100559, 0.6230761089539558, -0.5807195586750438,
      0.16332565113284536, -0.763135732046516, 0.8433087778085482,
      -0.8520848981042861, 0.13102517449614925, -0.9951075291769604,
      0.5827144039324894, 0.4858616478991342, 0.44453496881913734,
      -0.06557843235573024, 0.6700718369750178, -0.9558866843795846,
      0.286723245700506, 0.6689265859674252, 0.41652554691505594,
      0.30685896383057276, 0.009285110193928858, 0.8411726484664279,
      -0.004483202505413786, 0.06604960253221659, 0.26024540358973614,
      0.6088640436819035, -0.4021205602634943, 0.18915011861194975,
      -0.3600171754520005, -0.600434784804972, 0.23342537803850982,
      0.7979865752864987, 0.46554368764326437, 0.9514311891792127,
      0.44104074888565714, 0.8372325101743896, -0.5914074414667714,
      -0.5012922578484069, 0.23442878350266305, -0.057342088325760265,
      -0.04457244566673202, 0.8625967321418133, 0.535500601552036,
      0.18385833261128326, 0.4971017657182646, -0.005475439694518691,
      -0.7994528177425102, -0.345761964704451, 0.1954505025103881,
      0.12160593752279025, 0.2823411698610574, -0.413250117877356,
      0.28772599615735883, -0.49094732208142844, 0.9662354274823755,
      -0.2504632720166766, 0.7495034893022878, -0.2006440401951184,
      0.2822256364209714, 0.09952242574929038, -0.18797366384137204,
      -0.8831236607188027, 0.6594347333806447, 0.3531492871043884,
      0.4640273472710783, 0.6547190599198967, -0.4648811399598545,
      -0.3446348269340893, 0.458471221103129, -0.810338511093367,
      -0.2816410128925466, -0.838752188639412, 0.8955177645570918,
      0.5883658354158383, 0.9580153853744715, 0.04600184042951794,
      -0.5557212162629543, -0.12654122240148524, 0.8167040063892359,
      -0.6040142272419691, 0.607552073787724, -0.05770122263246291,
      0.9150407914755627, -0.7360935989023547, -0.860309417335285,
      0.9515373203218944, 0.10805067978240812, -0.6663343024744139,
      0.29974031563557135, 0.8408008585372522, 0.21931119432334878,
      -0.26154633515166603, 0.9688840495209776, -0.32824207144684125,
      0.8191214214344025, 0.855399445023826, 0.7966177168521118,
      -0.7274477086873321, 0.5129802289751821, -0.4243150549161414,
      -0.8519743430239197, -0.20158237457446093, -0.7930191916004801,
      -0.07366894663234458, 0.33245891927221516, -0.3026503274498866,
      -0.2915116163093767, -0.133452075510073, 0.5537133092465796,
      0.7780309427681913, -0.41898764748439765, 0.19903187518384646,
      0.9076650506223594, -0.6284472319802856, -0.27776085601573053,
      -0.09037470111803136, -0.45293845412823286, -0.8834807309230324,
      0.40873241120955806, 0.8923557479998632, 0.4464454644362035,
      0.6167572791907183, -0.6282269132698048, -0.8909235181567561,
      0.09858219231755072, -0.13311006164395023, -0.977421551434412,
      0.28931254997544187, -0.04333499297984833, -0.12192232988501228,
      -0.45226376127136225, -0.13122884063661866, -0.018162648648057722,
      -0.03920140080925316, 0.1452678645129435, -0.25150782644887926,
      0.9948966969316841, 0.043766056231578254, 0.7220441463038316,
      -0.5637060569951151, -0.26421959175077125, -0.38659538014093275,
      0.3107410635750725, 0.0712507668526472, -0.2920318951136154,
      -0.6089983270059887, 0.4826953013912991, 0.8601156192476278,
      0.5903085697196322, -0.6295764343907551, -0.6984308338848728,
      -0.15687456531907706, 0.8748382651567201, 0.2864485091818372,
      0.016335674821776003, -0.7145340422024922, -0.29020119059869165,
      -0.23894831610023504, -0.40214312895106863, 0.4908267438869567,
      -0.3159845714969336, -0.5789382786185029, -0.8418914169728975,
      -0.5838291453083917, 0.3036567044031453, -0.28747730640828717,
      -0.883000147454601, 0.7349668851580802, 0.44980964947001745,
      -0.6814798570510634, -0.18709493302200864, -0.9519321257859077,
      -0.9259263506924835, -0.12644591876344924, 0.7431024850462817,
      -0.769244747918965, 0.24777158827788304, 0.8739372323141765,
      0.16400620768322405, -0.3822738638170793, 0.03155717244221945,
      -0.8772616938870081, 0.1728358544670927, 0.413409036818011,
      0.9400457988033466, -0.29304502274186994, -0.26974010528787495,
      0.9769620839859341, -0.40645792004466097, 0.2798662382658019,
      0.7286780378149396, -0.689024603598916, -0.9346103790829483,
      0.5797965281179716, 0.16259439909457996, 0.16069478765956058,
      0.2866894350608571, 0.5191929213157351, -0.17696951364644242,
      -0.9762938840817537, -0.9380113056437449, 0.9917945806698474,
      -0.42665465129816527, 0.35133459736490336, -0.20136367936293187,
      0.35500286777926604, 0.7134814363359565, 0.04271410715766688,
      -0.45922777511869217, -0.09290869130813162, 0.44383371800365623,
      0.33161435150456864, -0.13600600122824869, 0.1587131775080617,
      0.4104641213108309, -0.04998174938187416, -0.8157673231155935,
      0.6714279018331615, -0.716733479727679, -0.7332728322683155,
      0.08741582682154503, 0.7142144315852326, -0.3445501292628439,
      0.6919804365469995, 0.41242986893435774, -0.14015579005708156,
      0.6130058958204807, 0.47812416897395016, -0.6316608522308353,
      -0.2994161138981033, 0.5075308592057732, 0.33721642424589504,
      0.3207537558098079, 0.08057630850748554, 0.5471145858534614,
      -0.5260993381983479, 0.36211045548681176, -0.6682294080734379,
      0.6208136783399043, -0.15992675859046868, 0.43095685899831127,
      -0.5874903421956992, 0.8856228466350289, -0.2573119155092778,
      0.1705492097850163, 0.487174381149869, 0.5185725483450572,
      -0.12306927515480437, -0.3023834423330647, -0.5524985639364495,
      0.559375680595319, 0.7156250824036827, -0.6485025426451712,
      -0.9523480073647415, 0.05218355011785514, -0.8936215516549475,
      0.2257826550268751, 0.16665101441014407, -0.853274796662832,
      0.8741935272370132, 0.11103998411463545, 0.36710782272824893,
      0.25458776984908393, -0.2609562119912834, 0.6637192172714617,
      -0.0812444687262821, -0.8564215423045827, 0.3184697173808071,
      0.16525773659006182, -0.9691040824039825, -0.2030283247774327,
      -0.356176801376225, -0.7771629905980593, -0.3454274859830173,
      0.5772718253166547, 0.08803703022388998, -0.05719346362087441,
      0.12250554214945808, -0.6603992316092535, -0.0957537075435293,
      -0.7153397829613857, -0.7215925562664958, 0.5973691453543837,
      -0.900011804797666, -0.5609374115822736, 0.4223414686859037,
      -0.3849638099573518, 0.060577749710179596, -0.2413342815013566,
      0.9674043925821945, -0.6747475383688295, -0.5547220906718775,
      0.9765732105564067, 0.40666376235970114, 0.07346695700354733,
      0.01535385531975253, 0.8697964919455408, -0.5305434887215843,
      -0.3173009118741308, 0.043122037258311874, 0.2580689079464573,
      -0.6905989618134454, -0.6834688949519578, -0.7454430614190173,
      0.7915987793907511, -0.9887786464183703, -0.4869006522279875,
      -0.4029891373049188, 0.9402162932051437, 0.0542450423891081,
      0.14684508404546825, -0.7991812102911013, -0.4953628071524192,
      -0.04846379076387164, -0.8634738548219163, 0.822769047583439,
      -0.6694632001210032, 0.26486382164909905, -0.7965191438419521,
      0.5555945606366053, -0.48573407831633597, -0.7614816201047248,
      0.3739564274776548, -0.38966679641013036, 0.1320623021081535,
      -0.8061261715748205, -0.8721929561141017, 0.2614614162474376,
      0.13192132283800495, -0.3979824813007298, -0.43336258323743326,
      -0.7245409127380174, -0.02377674803763874, 0.5028027292585868,
      -0.7794359396801975, 0.8579056725687315, 0.06065475029520284,
      -0.2780546635446548, -0.970912970535907, 0.4812688550871931,
      0.34144951924067435, 0.16830051284520398, -0.29652157033781856,
      -0.6491031912918879, 0.18833373391978592, -0.9475692042354762,
      -0.617208318485571, -0.08666962140242784, 0.9134375313186163,
      0.3424129894409522, 0.8013762772785347, 0.04859871742908917,
      -0.410220105350664, 0.32265791672829947, 0.10971079415417417,
      0.03870025621985196, 0.19531192072054004, -0.9919037548730718,
      0.5013252141564992, 0.20956143358729085, -0.27206086383118144,
      -0.366920807430994, -0.4991866832169518, 0.23389900930652896,
      0.401748998578761, -0.494077341285895, -0.8006181920218571,
      -0.24021262672659072, 0.5917698624352954, 0.23971037968718445,
      0.3048930038615971, -0.6642062484053026, 0.7512420246676741,
      0.9167361850996061, -0.8573806218392099, 0.1447867058411001,
      -0.920083631805146, 0.07386805282344966, 0.017474175848870566,
      -0.007349144408390185, -0.3568440234479455, 0.8066062427934724,
      -0.9669323700076529, 0.6168938111050175, -0.031494929242583236,
      -0.8671065233524344, 0.6578976500335068, -0.25800094398829776,
      0.15902355181800942, -0.47731148426780967, 0.984760560740571,
      0.5586968617605232, 0.6118490620240169, 0.3684999113664351,
      -0.20889401042645916, 0.5376114982424047, -0.7984133433809917,
      0.43394918291323403, 0.690475480754833, 0.20335530296724746,
      -0.6802522143868255, 0.012256431841509041, 0.9223302299592229,
      -0.3319410960039675, 0.48841073832751736, 0.043991907176760936,
      -0.14057819066445676, -0.36962300998750974, 0.8238110167549908,
      -0.6633428159789911, -0.8955812908507119, 0.285114171174635,
      -0.43764378238088897, -0.8216905693136471, -0.521495718428604,
      -0.22380798243420452, 0.4581351026496159, 0.8866162677391265,
      0.017812201400400962, -0.8566135453246102, -0.5744918227044016,
      0.56479642949984, 0.9322598068102885, -0.26481929326455544,
      -0.11679366951784953, -0.722858417371882, 0.5192810446110872,
      0.39155800925913065, -0.7604066294021372, 0.2903969377493949,
      0.7312086579373713, -0.8322233131255472, -0.5856347103544182,
      -0.4326173281890284, -0.7487682423144508, 0.6698710294795553,
      0.7431567111405202, -0.7608630468690709, 0.6935937639937966,
      0.9158378125936704, 0.36467278312212503, 0.8761116673266232,
      -0.81225913152503, 0.617651975876548, -0.23623759412202938,
      0.17056518336375115, 0.15206084342622672, -0.7813064778545717,
      -0.16183927305972023, 0.7558890734444303, -0.8794475748212838,
      0.6656916687340915, 0.00034912891073890506, -0.7810866150707212,
      0.7872115306572143, -0.41794521894650893, 0.2844081019455684,
      0.08101353489258933, 0.8983993202253138, 0.7184123129874584,
      -0.2182862041319309, -0.9407061533778962, -0.8856086808693604,
      0.3555714233733469, 0.15462403085955811, -0.12455050807601697,
      -0.46999940269057205, 0.47910226745655704, -0.49658829074357014,
      -0.3252456976230502, -0.7213425137066838, 0.7165295316456559,
      0.32896216402564926, -0.9772349714562854, 0.16376524792778824,
      -0.5995014557976366, 0.07961754270014465, 0.10260062321768082,
      -0.8634567052042756, -0.9515973083543181, -0.05088032949236698,
      0.9187389713180956, 0.5300813459182208, -0.11622612981929503,
      -0.016041324283961877, -0.35052719731104176, 0.6080567566948161,
      -0.014132528778504572, -0.4259965469954907, -0.47384728112607766,
      0.07606923916567743, -0.12381369363399441, -0.4865115358116183,
      0.5090770579057167, -0.25505283494295394, 0.7036274116371142,
      0.9348901388007569, -0.7064840717504723, -0.9034900978383242,
      -0.26557386686099527, -0.12121793429826999, 0.18047230820188487,
      0.7605230866282775, 0.06074617945650829, 0.9596089388144509,
      0.3729271466686126, -0.827560361959307, 0.5545636409269581,
      0.32518302785502984
    ],
    [
      -0.40942498580384035, -0.20808755668445222, 0.6846148906478189,
      -0.08419709674023723, -0.5864573507903401, 0.46276902679465604,
      -0.6088958402506197, -0.5375872384624434, -0.2099787181922137,
      -0.13192815966646076, -0.5448455361144262, 0.7615534552779448,
      -0.41318307803644627, -0.8235934405150251, -0.9888631432389143,
      -0.017325063989760192, -0.05720136238327411, -0.582113237128099,
      0.3394450905115196, -0.3407450221219608, 0.5943420408421165,
      -0.29911690784563705, -0.31296044370792764, -0.2804662414135697,
      -0.1377102381420623, 0.1284514984260463, 0.40678460360277535,
      -0.5274657978568489, 0.1883707199641651, -0.3507139762110696,
      0.465196714317027, 0.6963088975191885, -0.788037663752859,
      0.06956012071911744, -0.5804940103958685, 0.7349048585311624,
      -0.5963027849240938, -0.8878636621847082, 0.8950643086838435,
      -0.5010872454470601, -0.8733730637759289, 0.9905530969971097,
      0.9862029708626703, 0.20625343414970043, 0.12233684580833115,
      -0.24904383177126332, -0.6411657907524462, 0.48892639893197254,
      0.7242275027395153, 0.3115636760167009, 0.8188229981938333,
      0.7152480079220163, 0.8906649958929633, 0.6143333680742784,
      0.32751192644629157, -0.4872483844793134, 0.16427814709217126,
      0.6830709015793666, -0.1255757384758791, 0.944273531780091,
      -0.4310410321805769, -0.8319822200007483, 0.01730725112815712,
      0.8690780331789649, 0.2017187968419889, -0.9429472818678355,
      -0.3976564821579718, -0.9327222678958127, 0.168254569217968,
      0.2186677520251621, -0.09871232773934535, -0.09674844588923959,
      0.7242147591452128, -0.5555273072877469, -0.34588772809758206,
      -0.9865850406562067, 0.13129633921242911, -0.10238602421102838,
      0.1407776923666071, 0.9889490888074488, 0.864882582742657,
      0.4251674612497509, -0.7157453328918084, 0.09322764901749148,
      -0.7992656917871237, 0.27616863048200546, -0.9838364785785085,
      -0.3629300736245922, -0.11045715000899703, 0.49057426919251634,
      0.9923518151724227, -0.8619927611276648, -0.9731984308415593,
      -0.6880411606605543, 0.007652674316640962, 0.31886459865328565,
      -0.23028104503282565, 0.8147890885513784, 0.6272605308602581,
      0.30674019386901774, 0.8404835729074462, 0.4063506059641444,
      0.7553164355691466, 0.2738902490946349, -0.5904342012494297,
      -0.055377260274818596, -0.27037332776835, 0.05812946240562278,
      -0.4111064509922726, -0.7705553012855852, 0.6575924177504162,
      0.03913552730063952, 0.3848650161342122, -0.6205599263184731,
      0.25600937110205857, -0.726447176806301, -0.40253715240843757,
      0.23956011405878552, 0.33881151075928173, 0.12968650966013984,
      -0.09975355026507904, -0.21312176519570736, 0.884401536281779,
      0.9778138181617195, 0.20647372905176553, 0.3993525098538244,
      -0.21788971366043297, -0.36681806477378665, 0.5427913520620522,
      -0.17141246937772658, -0.06335214472602457, -0.4290002985008239,
      -0.5762569822263917, 0.4734844599758876, 0.9628409013095909,
      0.47640513942874163, 0.9052964934541547, -0.4069824172686207,
      0.3375427902066024, -0.6841099777229833, 0.21711161040590987,
      0.8780940209999075, -0.5990871554309378, -0.35018335273641554,
      0.8455156326220044, -0.8256210708312479, 0.12174784205405675,
      -0.38351897225959464, -0.9437020362490447, -0.799523517063585,
      0.7472571742105725, 0.3192330438902613, 0.23972080073757374,
      -0.2135023299182892, 0.98085928664816, 0.9851654537435874,
      -0.6272918766997377, -0.6293265830051711, 0.47663777858782463,
      0.030550496278290318, -0.44135583060104056, 0.9547215088841843,
      0.891857459783906, -0.3284143526882075, 0.1705525387446829,
      0.07640225616982077, 0.7282394777498005, 0.21944493884644745,
      -0.8448585691085952, 0.02290393145692038, -0.9722479407500781,
      -0.23033883803912714, -0.7157170126067323, 0.7125233689620107,
      0.24707350222503388, -0.28656217478371593, 0.5201985895556702,
      0.31742362807987234, -0.23089193527040264, 0.8040886337382935,
      -0.2671912076669183, 0.008240038698461571, -0.9246483245811112,
      0.047724260659571804, -0.7851496746344058, 0.37330274500640703,
      -0.6586638391275916, -0.9259368060079334, 0.2796350726894765,
      -0.36049700210201374, 0.5571463604020082, -0.4659552994983005,
      0.011835100626063078, -0.23089202524715624, 0.7479932869891686,
      -0.8648069682449102, -0.0011156339490807632, 0.6180910184370441,
      0.11327844739335591, 0.20816847288756568, 0.5349239861925827,
      0.9350132136152651, -0.6314260689702125, -0.9114532881976842,
      0.646123639119399, 0.7897577853581046, -0.2909506732799141,
      0.6056686512392235, 0.04986569817985265, -0.2755454432237472,
      -0.30724084147671293, 0.8949658783113779, 0.4558761273223677,
      0.8310095393489232, 0.18946618611844857, 0.5712355924804133,
      0.5487951257985246, 0.08116329206445894, -0.09135574840470406,
      0.9552454989497003, 0.06027198745029683, -0.7916151514513383,
      -0.06737091161435416, -0.33558411078553885, 0.18446057100484703,
      -0.5560348087299829, -0.430829309314547, -0.7259871185681486,
      -0.9484459335757216, -0.7367601355280913, 0.32770098639051515,
      -0.9330364458082259, -0.6960624386287346, -0.8890387711334786,
      0.4385322490318231, 0.6306546690583521, 0.6324626732826584,
      0.2284742868047056, -0.15602132510155142, -0.8673131747554774,
      0.31698103661785115, -0.32133175552028126, 0.9858536724797098,
      0.9811063608880946, -0.6092063918437258, 0.1580119986637345,
      -0.619909861493813, -0.021894252227121935, -0.461230030857815,
      -0.10935633278683454, 0.18610897766675727, -0.4890991107396543,
      -0.6955883649578904, 0.5004197728056301, -0.9720776328697105,
      -0.1763420897085255, -0.7399546394937402, 0.29753850232071954,
      -0.8402470171636494, 0.31226231681324457, 0.2395971241702557,
      0.7884840646229243, -0.7372683622849041, 0.5460948950282276,
      0.613430539858526, 0.5883035065456612, 0.6919271623207908,
      0.7357601653274695, 0.8073887544631266, -0.1121343888211146,
      0.3963842729641054, 0.5552606620313645, 0.8413140002303225,
      -0.15547250431090154, -0.3123841586825735, 0.18152037556372091,
      -0.7621753650649499, 0.0035853471790447955, -0.8676332096024519,
      0.4382112404095877, 0.37511660987247986, 0.5011064486492645,
      0.23155115313733665, -0.4863862728488959, -0.08957274948669669,
      -0.6620974257001562, 0.08182927006343954, -0.20326238427454335,
      -0.03125463007858098, 0.6393708734042054, 0.15619426392106384,
      0.1908056384590311, -0.47772925226404483, 0.5503115921943094,
      0.17228342838815403, 0.7186707365351745, 0.3418800590538096,
      0.5551492489786298, -0.04099533888431717, -0.9201987460502208,
      -0.07412528390183315, 0.15898130175169367, -0.8624105571994756,
      -0.14423420252568064, -0.833773991719128, -0.2157668800259196,
      0.45277328121082316, -0.5333311798236409, 0.5104425578387568,
      -0.6004684476128035, -0.55964260347469, -0.9870285886883945,
      -0.573316559744379, -0.9317013625604051, 0.298903130351281,
      -0.6589940736513844, -0.45599823419616836, -0.9498013477602378,
      -0.11290640918979378, 0.24244878525525637, -0.4388244959403451,
      -0.7397637427090866, 0.842877996593145, 0.022859879076137624,
      0.24175261706097828, -0.12140597737232595, -0.8167040404434602,
      -0.9669131308329155, 0.22598804501162606, 0.29604369142026465,
      0.744183039556674, 0.30781647354563413, -0.5666636681988733,
      0.7400959270677521, -0.7792995069631385, -0.0006755018361661591,
      -0.34589370129774144, 0.8113299994939638, 0.22116593288627007,
      0.7860411694646503, -0.9939612223896321, -0.48256286384257896,
      0.8211056402919539, -0.5777879681781637, -0.5840189660220259,
      -0.8984656186848472, -0.4792486472063069, 0.7895716831859332,
      0.10964325978346867, 0.20981715783672827, -0.6851412685400149,
      -0.12656787284223903, 0.6537290999424838, -0.3140340040695371,
      -0.5360696921032169, -0.05824468643941083, -0.5576361460039112,
      -0.559497005807001, 0.43743532058179957, 0.2515967336205751,
      -0.2377632946254371, -0.3261307255394952, 0.7434022212054274,
      -0.21093513406680664, -0.3383953733974914, -0.30670680750821955,
      0.2964483889541363, 0.8536572605773238, -0.39343308928992693,
      -0.965275849598143, 0.04965133921709519, -0.6050070071203422,
      0.39105892820126886, 0.1348316834899368, -0.9985155728767281,
      -0.26613788621774503, -0.15061135459292174, 0.4306010066430055,
      0.540149955569698, 0.6775857550286064, -0.9918598955765865,
      -0.731599817128521, 0.7007269811625974, -0.05821764152035991,
      -0.03320339833377162, -0.35388533631229446, -0.028875509969038315,
      -0.7674312114434794, 0.14453433736787114, 0.38327985843304857,
      0.9394006390980358, 0.9262048599660213, 0.3163980606918084,
      -0.7840172598693029, 0.1921897337419476, 0.4295702481198167,
      0.6033961506092123, -0.7285293699258548, 0.5982430307806932,
      0.07845434932839757, 0.366017666400845, 0.9306957494758108,
      0.9202155286368581, 0.7606150840411217, 0.08439102617222449,
      -0.1029495957618689, -0.1969269226948125, 0.5099258025752631,
      0.33150674205042874, -0.42259904484813715, -0.6126568745146108,
      0.028892036348056038, 0.4463269813264992, 0.89917797739274,
      0.4877104650516242, -0.009843301230453516, 0.12157519103347703,
      -0.5335271856468493, -0.020587256732703008, 0.18124051564798238,
      -0.9145589168173149, 0.25411396972721345, 0.9191742835632808,
      -0.9780131951517497, -0.4492612620484979, -0.36715767748606787,
      -0.5697347815857281, -0.2607325979535191, -0.7072967767971026,
      0.6205744042303305, 0.5153487137838595, -0.6425196795248098,
      -0.594260245706526, 0.22343433156444625, -0.5513537916292246,
      -0.38737298956176813, 0.6643313486684712, 0.20944309390695626,
      -0.3463628027329446, 0.6168634961956707, 0.003407267100222988,
      0.04610509749964509, 0.9840743471841722, -0.8239842815402976,
      -0.4533890052456431, -0.33759569402371703, 0.36102050453724566,
      0.012708301991790627, 0.32887328188038234, 0.5653128362204112,
      0.9048594400189951, -0.5609374011494723, -0.3938080012210632,
      0.1450989015507389, 0.06434329526797145, -0.6180195414551939,
      0.30311134278913165, -0.4379384947495035, -0.3813348579646987,
      -0.5764145264628988, -0.5203682739055306, 0.8041028805902859,
      0.782168924423627, -0.7664327331903729, 0.1263032932818282,
      -0.967356101539798, 0.1905877705521002, -0.4285850921411991,
      -0.9294217002682688, -0.5410727313040558, -0.2918879007123927,
      -0.14576481534848362, 0.7675807082157533, 0.6776994109718073,
      -0.1173488460321459, -0.3235216282085833, 0.28351414403828246,
      0.3755677368536272, -0.055028337357877266, 0.2492156839012778,
      -0.8121404656224609, 0.866434433536063, 0.9735081293293382,
      0.2790264354974088, -0.2999069628412947, -0.6125977526039894,
      -0.944991723632636, 0.21460787755758792, -0.44889310470850097,
      -0.9383221025652846, 0.6561552459147828, 0.7821531742960244,
      0.5705814351446383, -0.5363960058816555, 0.4526155699881027,
      -0.8952392192417902, 0.6802531216137742, 0.7024762663662445,
      0.08255803995943012, -0.8207172699861744, -0.5702341390965433,
      0.7200906256760051, -0.07850560652675842, -0.26657510900662595,
      -0.950941757921945, 0.4361941632316717, 0.6393149795765911,
      0.6380624097512744, -0.6069228181975213, -0.43398221250604285,
      -0.7970007920202571, -0.9166318521483294, 0.9179737333326736,
      0.2037397373923695, -0.5498439464334375, 0.2289140809145609,
      -0.7432731352181525, -0.5994006257099804, 0.12958348081342042,
      0.2194877264868702, 0.5858232438999176, 0.9099392021185784,
      0.40533293541123294, 0.9292461140166046, -0.530779010502695,
      -0.6150326768689487, -0.40441459281340775, 0.4870983987484059,
      0.021824002227155415, 0.4104687851878732, -0.4505218415714203,
      0.5585835479455779, 0.4942684755027118, 0.6547123603167426,
      0.7902702183274681, -0.9934589357716934, -0.6257524992438439,
      0.47370972072376505, -0.6540232309583267, 0.161684278719465,
      0.7808977021442955, 0.7105406948417463, 0.03028696300643441,
      0.5458613902316602, 0.7548245551317359, -0.031163847764697383,
      0.06558706329683872, 0.08467805263800354, -0.004700781928856479,
      -0.04598532646898201, -0.3629509611564301, -0.9307346015327744,
      -0.4808969244815211, 0.3993523062147908, -0.23544464941172594,
      -0.6172550001768626, 0.5973154579615887, -0.35479839322002515,
      -0.11400581939533305, -0.5083677498026682, -0.11925143075509492,
      0.029342604396460192, -0.9345827147960857, 0.1497173539514387,
      0.285776197802905, -0.7693490588853265, -0.8856244760602325,
      0.17282379160038808, -0.9372950636526522, 0.12343527547393762,
      0.7059033788437499, 0.578596502167462, 0.8290812916062067,
      0.4828089753740663, 0.5270608855841221, -0.2035045369639863,
      0.37814452395267617, -0.5064420898267037, -0.6338110849431322,
      0.5975460685432927, -0.7230499369896379, 0.4015661146605827,
      -0.07694914359554428, 0.15301807861569294, 0.6261714003869647,
      0.8556646539007096, -0.7242181013106421, 0.26334224594729694,
      -0.7646099060334204, 0.8526156718969067, -0.9707126759600477,
      0.9615504942241291, 0.7221250259501253, -0.07429057442501685,
      -0.4774065232224918, -0.2925399708623764, 0.27422445588897437,
      0.5925875178593452, 0.7876881473453401, 0.04140726689316754,
      0.7324179970957778, 0.9954020153762024, 0.5008954729848458,
      -0.8470220147834575, -0.8849447097605907, -0.8910603366117114,
      -0.6641263573312073, -0.9323832544762691, 0.1783742202047205,
      -0.44869045085810066, 0.5382073117877262, 0.7304030350030097,
      -0.6192159269570792, -0.14268147900027373, 0.7409447467307015,
      -0.48010088325988853, -0.35496501736808383, -0.521247106272281,
      0.7498559208332729, -0.13465963630174427, 0.4979791776483875,
      0.7516825658166786, -0.15009827607966209, 0.9420071732502113,
      0.5935800966108236, -0.3289338587320416, -0.4359565170678259,
      -0.8703420038245682, 0.6579510091019212, -0.5537123701631317,
      0.7265003191634789, 0.4188040052291906, 0.8846673000165794,
      -0.03712672032694542, -0.7137647432947598, -0.08780928387317477,
      -0.022765832517116724, 0.24549784392305884, 0.45666702841883255,
      0.6008903774837067, -0.550630257373534, 0.3828869503304513,
      -0.03158665872545052, 0.42938410863617005, -0.8809986689814169,
      0.5915273302019766, 0.578838361992084, -0.28319731878408083,
      0.897566649322223, -0.4445152448277412, 0.15378359550274068,
      -0.43600210871842915, -0.04671320169615134, -0.8382908939142455,
      -0.83284271152319, 0.8152887612119954, -0.9798008021208551,
      0.4786758253684833, -0.7870894329966456, 0.06410650740667423,
      0.7610233892828036, -0.7841996077804825, -0.8620255185552614,
      0.9692191986583758, -0.841361528348683, 0.9401252419608865,
      0.7440464972927643, -0.5675234643800326, 0.31087620526228754,
      -0.870158791486491, -0.6553612693344775, -0.8245250778624587,
      0.39358986172674193, 0.42011167278808514, -0.413268971500254,
      -0.30239661821055774, -0.8969256585675849, 0.00528999124035856,
      -0.10505342570467491, 0.4865482565056105, -0.8581040213923847,
      -0.9231155759421719, -0.7840068336978017, 0.32142895025911855,
      -0.09831911146782213, 0.6568844452065976, 0.09073905357047751,
      -0.39554451141339797, 0.4899011780177882, 0.7558767974085634,
      -0.07462116328142798, -0.9660314145326643, 0.9949535256650885,
      0.22417411925004105, -0.35946841343004543, -0.2086225375280537,
      -0.10453122280327465, 0.20374454348764726, -0.7181137086650948,
      -0.5640088228455427, -0.22714127486927493, 0.9734346063129942,
      0.08915330946056477, -0.9889119950983303, 0.019500978747427844,
      -0.6354790500025724, -0.30990863916254696, -0.6587127770071479,
      0.3416671382733947, 0.04700995056508539, -0.8980059319223841,
      -0.3050225190853495, 0.20387287427562573, -0.8005087716554606,
      -0.23208477920289106, 0.9743107626779377, 0.7685352532505396,
      -0.9508321055826836, -0.6570833176929605, -0.8354734847064123,
      0.05600491322520895, -0.299948152678267, 0.43795714410569886,
      0.5453133921585458, 0.9198454697595828, -0.9882595073976685,
      0.3579660299452576, 0.032687224906744916, 0.410766509758659,
      0.26841892572500425, 0.05476488339969077, 0.4274949020516723,
      -0.4710370432013624, 0.7229211717130539, 0.2998037872679249,
      -0.9612685459349337, -0.9489813706121515, -0.6258546881686184,
      -0.17251032538838507, -0.5793920868362488, -0.23827713938464923,
      -0.4904618063628945, -0.7525846370701803, -0.7840713810278208,
      0.1852375452767463, 0.5043926952417777, -0.25389026782613655,
      0.9463129995272341, -0.08257750812475617, -0.21151854783825996,
      0.030066388061918747, -0.40253575584205104, 0.2791262679767983,
      -0.9118881481532877, -0.5261717845154941, 0.8217155624178449,
      -0.2814389332698477, 0.8884773882375518, -0.5148511935499065,
      -0.9133980826396457, 0.9984452228583462, 0.549379395825357,
      0.2929891609807411, -0.614816588701697, 0.23007322265169527,
      -0.17632108431776317, -0.8034384425634142, 0.05783604749628912,
      -0.8008571796161417, 0.8274716063767897, 0.5235329154686204,
      -0.6867437335261601, -0.6974912158801989, 0.8371615163352861,
      0.5357899749802, -0.24299804926805768, -0.050682814839560386,
      0.21844184638624897, 0.7795722500874493, -0.9500733629133173,
      -0.4822324142560408, 0.40855024795277917, 0.5235083597336243,
      -0.3592207084430994
    ],
    [
      0.1240353650515198, -0.12556804661253773, 0.18979965920942732,
      0.18660411263737053, -0.8712360562542476, 0.8719595447398643,
      -0.09385048215423497, -0.48797896698939747, 0.19768778534715414,
      0.27123486478939673, 0.0686015367899282, -0.6769926518594711,
      0.8463900813711009, -0.8428988893672695, -0.3151825220374427,
      0.1363942201952364, 0.4782832822721339, -0.5874652634343902,
      0.3039617977262652, 0.4308209763863302, -0.1458953650495669,
      -0.6470196327702458, 0.8366460012409567, 0.4910124473985804,
      -0.10309907140701391, 0.9859230985385463, 0.2867534535873264,
      -0.5469793346916618, 0.16566563442762794, -0.37070656170218674,
      -0.9560325740858868, 0.2876903880358701, 0.8873430051883746,
      0.7590426694918149, 0.3298909017100704, 0.03313703758024822,
      0.7847170331134001, -0.25443476518989305, -0.702813479040326,
      0.40073628182273646, -0.16662883766258796, -0.8427129259757309,
      0.49438446928204804, 0.903150641345337, -0.5891569924600111,
      -0.5028693744191881, 0.4411134005098907, 0.9526506645185244,
      -0.2016040908933241, -0.3280399350800729, 0.2863973571063094,
      -0.2370005668929469, -0.9330094330285443, 0.19568608721186465,
      -0.5787292379413338, -0.4595923630539147, -0.8612889340099605,
      0.15628379669366943, -0.4867504197674175, -0.4642106134855357,
      -0.8930027404985279, -0.018111895274845136, 0.4630941854339876,
      0.2324369802670967, -0.19792032402065907, 0.20018561862157114,
      -0.6605856825891685, 0.8438323428150731, 0.2398701550234268,
      0.8048402273110802, 0.7402998576400277, -0.5701596599456784,
      0.9569604580574036, 0.8229396680212195, -0.5757863173236681,
      0.5796165663422763, -0.30470045980588445, 0.43371871606772094,
      0.854838134781553, 0.1869966508852854, -0.6422371051166023,
      0.39953542596427694, -0.037915731034301015, 0.1711443345339414,
      0.6069848867928789, -0.7970954760629301, -0.6481115880753938,
      0.31246198997792085, -0.6429196230568723, -0.11020398542088561,
      0.6110445432368814, 0.540129299220268, -0.8485629330750961,
      -0.2399862492131244, -0.3178491243346273, -0.42772615016737703,
      -0.7019276095386453, -0.7270454637786705, 0.49375456188971567,
      0.7907696896756393, 0.4387232979518312, -0.8315974990182866,
      -0.25528718255812954, 0.33513829132931194, -0.7269611737942019,
      0.26170019191340854, -0.6135702850467988, -0.6851432991513451,
      -0.9548365799843066, 0.24036614904828335, 0.9715136060020795,
      0.043987966373763676, 0.6418227365826472, -0.8295080044013061,
      -0.7900662746581935, -0.9398183741369244, -0.18801773105192998,
      -0.6968066035033993, -0.10300965240198678, -0.5628789924808157,
      0.5146571442143566, -0.2023819535534157, -0.7177296841066894,
      0.7631498906701273, -0.11371548008836196, 0.2371397153690431,
      -0.8092854104379632, 0.1295490475845149, 0.7451512232439974,
      0.5378597695560159, -0.8261990421211367, 0.9929047058699885,
      -0.35071236435323394, -0.7822216228373078, -0.7724575196778747,
      0.4274429534208046, 0.3943767789052415, -0.3080951307316635,
      0.37099439426102343, -0.4295724044228768, -0.4801333798460865,
      0.3648139585093966, -0.09411510843808868, 0.4747718288674041,
      -0.7343840759183484, 0.7232733384538368, -0.31608994781833344,
      -0.5823736801579686, -0.9390131484806039, 0.9396178228774015,
      -0.9578659581608617, 0.9482748548059159, 0.6587489026866757,
      -0.12956613083033464, 0.3686955161782275, 0.8239934827577851,
      -0.40096711097869164, -0.5714374603159684, 0.14399335542244973,
      -0.5071133117752464, 0.4464094828402163, -0.6087120285924179,
      -0.9441910869693149, 0.6435510883420239, -0.15176922649733404,
      -0.0010340799801689116, 0.6577608059061326, 0.6296383100278322,
      -0.3008894046286681, -0.9631091232182074, 0.5818737966414234,
      -0.6459839608796383, 0.34198100578501434, -0.339220566666802,
      -0.9886400716854742, 0.313048122398091, -0.47667910568382466,
      0.5641711082841856, -0.3399012398850876, 0.3251257444104798,
      -0.5504015046766071, -0.3481381504035941, -0.15045356167863977,
      -0.11553041731680613, -0.6469423317055862, -0.6103624274502386,
      -0.8620867605479696, -0.4421230786826671, 0.06763741225532405,
      0.8396563871990419, -0.6201481043271073, 0.31603227889337315,
      -0.6294737556573287, 0.9469623404256557, -0.961581033938586,
      0.4858613646799208, 0.5981303363424861, 0.5926381884076539,
      0.47498958892696574, -0.32788059010684556, 0.9331245699018278,
      -0.8926649868741716, 0.11496459364870626, -0.2531688543298336,
      -0.6042654779448062, 0.4956292680570482, 0.9958778495747573,
      0.9193493627434188, 0.3425277778957194, 0.8220140256930835,
      0.7015749469179342, -0.8536290803216913, 0.9153404816496602,
      0.050332160566811, 0.8494376241098682, -0.7608455528107032,
      -0.9000804434305789, 0.08170642716832832, 0.8051837400396868,
      0.5891548749505402, 0.4681402664472878, 0.037236918002205854,
      0.3458231868420443, 0.044766349009278894, 0.8837816351110215,
      0.9131366016980209, 0.12383020869949313, -0.9103673843158719,
      0.5186649027869117, -0.46216951515342286, -0.6635492614998455,
      0.49007673700387544, -0.1256816440585462, -0.46890483548495254,
      0.13312953440324815, -0.569400334799798, -0.9644251739577365,
      -0.965483374910844, 0.9367725765863026, -0.6607108480000963,
      0.33707319910403966, 0.7202754881922417, 0.1964511705509464,
      0.2635857804334023, 0.8359381739009537, -0.5413807779222295,
      0.9999692871155585, 0.8068576176211817, 0.01339735934356101,
      -0.5340992535255316, 0.3728993140933401, 0.3332007515694042,
      -0.6630773113676773, -0.25904706183858206, -0.1931714837489671,
      -0.048914849595920185, -0.7237536577747541, 0.7362460541490692,
      -0.949049715052031, -0.5162840137971059, 0.15407196510686294,
      -0.5404740380938802, -0.30912949049077376, -0.6256784672505789,
      -0.1719939424817123, -0.625374218542655, 0.8649939677838274,
      0.5943179254877435, 0.2330569620184706, -0.27786158243015224,
      -0.8796153526513395, -0.07336660697162811, -0.39266104595169304,
      0.16714255349627605, 0.6713643197092178, 0.22426482685563842,
      -0.1807489082896523, 0.7470307759622798, -0.793676453485761,
      -0.24219807513238267, 0.7860364001663025, -0.02111673989848084,
      0.8242460343188447, -0.885394190991939, 0.27502376222416247,
      0.9682591766727731, 0.626204379817116, 0.11231509378147742,
      0.8855141840159604, 0.8190771564237962, 0.564338640961767,
      -0.9226908301391377, -0.7346673308077123, -0.9141297015049785,
      -0.5752930367907791, -0.34171213871796713, 0.49034043854502274,
      0.5794141596850899, 0.15551421703501145, -0.11214586309226471,
      -0.5093169542521268, -0.6576553837137085, 0.2866076693781645,
      0.7920783554324218, 0.876756833825937, -0.635689917970022,
      -0.38039479978235935, -0.738083541012128, -0.0812916501262042,
      0.29337500182423426, 0.5574994304088228, 0.4721269297878785,
      0.7476464849910287, -0.07736180185217734, -0.611165143146073,
      0.29624077884092825, -0.9597436030991573, -0.29997063303393023,
      0.27282857738358324, -0.5551264849222535, 0.7833806947989252,
      -0.8485753398376179, 0.27056845046792954, 0.8611668050105088,
      -0.07731932913506423, -0.8741727990726558, -0.5217293843499133,
      -0.2811216254167186, 0.24525403822018355, -0.221671431556675,
      -0.4944890174635117, 0.9630896675599283, -0.44413566884482325,
      -0.8078888310435968, -0.49852582858160144, 0.39234230911550405,
      -0.44003255139452824, 0.9164288051859781, -0.7520695502280508,
      -0.9978001315838876, -0.952344870261566, 0.535656871979445,
      0.3422754791325824, -0.9474364724970883, 0.6402317253178218,
      0.27309500215721005, -0.1302337382680392, 0.3223956570887312,
      0.5537905701866892, 0.8082560382973472, 0.005202920394802746,
      0.28656214796024093, 0.8071491153271979, -0.286701894642591,
      -0.009186563259104386, -0.09491340231645351, -0.7215258640423214,
      -0.12868231536565533, 0.21736475074751382, 0.4384735341093524,
      0.34885014539196213, -0.14806187739036147, 0.26837143669695074,
      -0.33574018410717343, -0.6499479156283887, -0.11761259173055594,
      0.06343050686246032, -0.6692047540730601, 0.08127883838476802,
      0.3741388468324631, -0.13498227741950775, 0.47702872411185737,
      -0.4659296051408619, -0.5215323526163491, 0.3742732615576996,
      0.6643827630776671, -0.335171416418373, -0.5530253116546118,
      0.5728603950561602, 0.6502120824273514, 0.9715771434929046,
      -0.7589065565454636, -0.5587525712535446, -0.5588056753624544,
      0.2976432155612154, 0.233400266115106, -0.6105379963961064,
      -0.7004037998828174, 0.2659491799217282, -0.16878606545376407,
      0.4393414112986771, 0.05823787038887307, -0.7438847725261732,
      0.9727812662913484, -0.8208711644341946, 0.6156373365262247,
      -0.5787203481428929, 0.9414601359783323, 0.4053372131303612,
      0.3440043697324122, -0.9363224284721419, 0.06916884794224609,
      -0.9181586405990285, -0.41493993229142445, 0.557125218056993,
      0.21050216943382782, 0.2525997142487899, -0.37507713832760814,
      0.8158283306008918, 0.04180458447765023, -0.35867565951016145,
      -0.45476303759993675, 0.830125806493887, -0.8326178240557125,
      -0.7062347282510664, 0.6887602590706674, 0.07044278524484149,
      0.6974231083006344, 0.25185369000962554, -0.47941393046050873,
      0.1762920506839709, -0.5667684345738824, 0.6484368919453685,
      0.3781951273671704, 0.3855526035720307, 0.3350152185330004,
      -0.9037868753922971, -0.43597532948172146, 0.18644066502805057,
      -0.17603499572037506, -0.5564926206779996, -0.04371782035681271,
      0.9730049950626651, 0.9555250374942061, 0.3777837069901251,
      0.28786466904070673, 0.7724409013638533, 0.7356871591662784,
      -0.5776696102862715, 0.3192628035103229, 0.4303846748294049,
      -0.4103073285068364, 0.23611793139102266, 0.6833214780397001,
      -0.7838207903335084, 0.3443215794906398, 0.6695085484947088,
      0.9524260762042882, -0.07341482702395918, 0.8101744618953033,
      0.7719181663410732, -0.6342317651269442, -0.5138836035980416,
      -0.3639132366399269, 0.7727583774678486, -0.967262573823731,
      0.8734202469542685, -0.14859759153401786, -0.9094320455295768,
      -0.00039980502447756194, -0.5295314114874885, 0.163493118393502,
      0.9561103160540627, 0.1958186548296168, 0.8007038878713764,
      0.639795227474937, -0.8341290628199842, 0.8359194231471627,
      0.5845392244754586, 0.526875946081387, 0.10566723732336314,
      0.12059849649733767, -0.7736661154129951, -0.9501250777784187,
      0.7469360278968766, -0.16539652349477718, -0.49758935998591314,
      -0.21735994637428346, 0.5253410109916752, 0.21392446425444067,
      -0.18566556238670495, 0.6893465922950095, 0.08338528375532572,
      0.9980377379662011, 0.2448227203187554, -0.9866735028428466,
      0.06430985671599787, -0.7620147243363657, 0.1089961787178888,
      -0.5976437032005077, 0.1641874718178551, 0.9642103593182125,
      0.16345738853570513, 0.806027778121599, -0.46137327774247705,
      -0.11595563316087798, -0.6339297043064813, -0.9835387785844767,
      -0.11411562781455142, -0.9358893676719431, -0.7856065313047207,
      -0.3636342862678381, -0.4257852998756091, -0.615063867247347,
      -0.3435566013353921, 0.8840826939937978, -0.7925775650536107,
      0.6348465037576423, -0.3481246002531022, 0.899854526957578,
      -0.8146897033779132, 0.12929879511283326, 0.48552738121329053,
      -0.5506517328552358, 0.6703842453956925, -0.5643451553445482,
      -0.6531954273494662, 0.013977433022102304, 0.9670501559960334,
      -0.9804595778614624, -0.6048436650452316, 0.2863847210407795,
      0.8266052007175437, 0.33172342840311675, 0.21578332050267246,
      0.35346284213843493, 0.39050830096213884, -0.8866584130897146,
      0.8483110255655815, -0.93899943879611, -0.029047825301093066,
      0.02157091467274741, 0.5333059381586875, 0.019622746867177465,
      -0.9438638073080168, 0.733282171604364, -0.01973875654917112,
      0.2671349072631086, -0.9155111707782253, 0.7346352254141832,
      0.37615046369992644, -0.16206311674422036, -0.5810260933187026,
      -0.09268947433331265, -0.4194276222761282, -0.3941334597770161,
      0.728142226984271, 0.8143743206889238, 0.8662171027917833,
      0.11722386801709206, -0.9080921615147783, -0.6988917269903983,
      -0.30545271403412055, 0.16040275515284952, 0.4855967632268201,
      -0.8462531035258363, 0.6041158147493002, -0.7153682759346789,
      0.827052832471276, 0.05961115106449455, 0.0680420163849682,
      -0.5726012646854244, 0.7655607163801794, -0.2189162478825577,
      0.17562605858897307, -0.16795620415194046, 0.5991776439301342,
      -0.32718397659770115, 0.4555809805141351, -0.7781541494927029,
      -0.9983585718998436, 0.17631805944667978, 0.0436740100377766,
      0.8554589734164808, 0.9878601046319591, -0.14597094211322936,
      -0.9723043669344236, -0.9669340291400821, -0.46404546204510844,
      -0.572730192851632, 0.36276837836304, 0.7326794314132541,
      -0.0856878695218648, 0.6503120623434318, -0.09187392701130026,
      0.472445036726, 0.9974201246495786, 0.20499845774293446,
      -0.8445557444802057, 0.7463529913830071, -0.4243429845568971,
      -0.7052772756490278, -0.3396045634809739, 0.45096964438482745,
      0.1430569881970265, 0.35341346896299397, -0.4846469177714625,
      -0.11440953839063583, -0.7880987714029595, 0.277690360147941,
      -0.8060091433576009, 0.6466637641218491, 0.5360744135073601,
      -0.3974229437489587, -0.3071608980476448, -0.5125059672502124,
      0.0401298738217597, -0.6575254047542503, 0.5864888186571782,
      -0.4499483940443989, 0.9703751665620328, 0.48014236163096324,
      -0.27594444348522496, 0.08895454809760528, 0.6773433699140292,
      0.20266765740509385, 0.2271322778569762, 0.6897926001427912,
      -0.6460763438780033, -0.9666721958122082, -0.21423833295362504,
      -0.0732598097215611, 0.06448783939982539, 0.1935747620636703,
      0.0249802057684394, 0.8344733576724908, -0.2708019719398127,
      -0.1700604281014666, -0.35474147835738723, -0.9111678116518176,
      -0.24711865783580977, -0.6256937338848587, -0.2808873469587776,
      0.8543962526537774, -0.6907740619359597, 0.5992605746600281,
      -0.6333408897662731, -0.4278691603036302, -0.14373539918191813,
      0.47144594134357787, -0.6247441021543994, 0.5525272452226333,
      -0.4109876772056569, 0.03442908237636155, -0.9290447774346084,
      0.548685620794255, -0.6959593503090473, -0.406418640939358,
      0.16560124618595617, 0.38242159619149474, 0.3057998445773773,
      0.4953450343464181, 0.572081284113636, -0.35514851954656557,
      0.00045707425027874393, 0.37781700756982906, 0.3964318064278691,
      0.13738812829216895, -0.14622728676538044, -0.055093642152133526,
      0.4050156235947795, 0.6818619038753262, -0.551991613783092,
      -0.6673131542844142, 0.6136645947178092, -0.6178696556593817,
      0.8509638482108675, 0.6375842221094339, 0.47139799702162133,
      0.4757637541606021, -0.208038235155668, 0.031917420853930345,
      -0.12604151797333563, -0.007864813123014791, 0.4083010306373458,
      -0.6116430805679318, 0.11011911549838294, -0.3103459105658737,
      -0.8500733921015438, -0.9246427390491267, -0.736570064743856,
      -0.09034434291674698, 0.8975094921996662, 0.09360433878269081,
      0.4045497875880586, -0.4879714309016481, 0.6449230022799393,
      -0.06109096560767835, -0.9114063661922729, 0.3353352188909269,
      0.7995045854957046, -0.4352126075510325, 0.022460263933506752,
      0.9347403619357415, -0.7003170669547671, -0.20895058966966573,
      -0.2071153760188329, 0.0004862548804869249, -0.2936277993984979,
      -0.9691408038240055, -0.43105934440077753, 0.16861340283150605,
      -0.30889403336794796, 0.4720862969334503, -0.013423494544836156,
      0.7028182865253809, -0.3086450102134308, -0.7153578643746319,
      -0.7786609229892969, -0.646071414032495, 0.6295041754304074,
      -0.37607057205408534, -0.5994280166532593, 0.6526505193438812,
      -0.9236235832459059, -0.2165153641038442, -0.11672756401574302,
      0.611006941134637, -0.8101304401950329, 0.4533074912516937,
      0.8236478074878169, 0.05159111874696132, -0.43595024219671563,
      -0.5877995543019479, -0.8216322863998315, 0.6996586281757664,
      -0.2326007658814735, 0.5856369596520143, 0.22810964844716608,
      -0.25422953749569865, -0.29008660409530096, -0.7883929919956381,
      0.1100394277542085, 0.40831855057227884, -0.6404709626690854,
      -0.02280189905157881, -0.25514339257460383, -0.45594110351504247,
      0.7794217999938309, -0.6942545163716547, 0.5426609530812319,
      0.9707308095815979, 0.8945018754242118, -0.02354682724563295,
      -0.6100319033380783, -0.39227533259018665, 0.2263123698809113,
      -0.24945624062240634, 0.5461068684261181, -0.8879216502545755,
      0.5232157793601702, -0.9605088739835326, -0.8544969955364108,
      0.2193402159118829, -0.7630051217524998, 0.7355249788502314,
      0.16834171673757536, -0.6631237559797523, -0.6795376319558386,
      -0.3415621906838986, -0.6608797701367508, -0.3842358123561955,
      0.005927538015836564, -0.5024373665105291, 0.6713057557321531,
      0.6696110366933157, 0.3327979247609374, 0.583297421710284,
      -0.322243591635222, -0.5769058754218555, 0.7033147168160254,
      0.9426655960595514, 0.008002910447877376, -0.6226639059467369,
      -0.46168685920712615, 0.39472097733938494, -0.44051964396135057,
      -0.6082537702750703, 0.9404486546739736, 0.3453176975857737,
      0.682494285545812, -0.17710922450023636, 0.5608271302442742,
      0.6626235193611669
    ],
    [
      -0.36986130131985506, 0.5537074232965273, 0.5497420580731167,
      -0.9100923435761352, 0.9573030987208453, -0.4650638797820412,
      -0.017750558173589948, 0.520634408482378, 0.9690354495231941,
      0.8043553459883364, 0.3256131888555709, 0.32590291550020245,
      0.9066629298871671, -0.9138571408248537, 0.9085540876285849,
      -0.5542293132665654, 0.1572814820289281, 0.416623615184871,
      -0.5405935982711849, -0.7489503177490264, 0.7725920603114655,
      0.3028057553023191, 0.1442904084620502, -0.1741353598782549,
      0.25509103706045755, 0.7557843119678149, 0.7443682247396439,
      -0.2544640595175398, 0.18554117491791278, -0.775204222576249,
      0.7300577965034813, -0.3631199447491613, 0.446660330386941,
      -0.3397281801631169, -0.35052734747843806, -0.6197876417684589,
      -0.7741266494759298, 0.7120401779232188, -0.8938920997539794,
      -0.11082013754596565, -0.4894103434656558, 0.6368467519625458,
      -0.7796515106052628, -0.17952164569087925, -0.0025124451036511175,
      0.7733452211403171, 0.22962069530759388, -0.6613794967448334,
      -0.4054371442112674, 0.36073324318065847, -0.9939930709568965,
      -0.014072700538707572, 0.15370057276690607, 0.8696794536061612,
      -0.3130411700561839, -0.13431743677529528, -0.19982066815757404,
      0.2630039835673874, -0.7708907475851623, 0.20327786261695469,
      0.13722111915655466, -0.5001322734793252, 0.041259567415027565,
      0.2700891719951164, 0.6636793493774498, 0.8562561534083653,
      0.8099543738870505, 0.26063911189616773, 0.026592677078187243,
      0.18199746817249052, -0.05714263346698045, 0.37675914155964385,
      0.5358355157079315, -0.19181011257352232, 0.9187217564194081,
      -0.8739653799720095, 0.6035733604544067, -0.2441559453761406,
      0.7053488415770506, 0.5663777464394033, -0.1019951395934715,
      -0.6584697801377453, -0.3099653710753034, 0.9184278309530751,
      -0.9580143312792511, -0.4472299310670942, 0.12670393629045762,
      -0.38716731171063223, -0.05054553620972646, -0.5341138724878718,
      -0.6225453741285683, 0.6998240522865253, 0.09416494314188162,
      0.10710021124058056, 0.4175004258587891, 0.2960251841065209,
      0.5484203907187122, -0.2807025315441196, -0.67782647616733,
      0.8533534035945918, -0.4134288885872275, 0.20893937029440668,
      0.9575295850899259, 0.48459359832412074, 0.7926916199565537,
      -0.6522423103934107, -0.2892941059046099, -0.5594486462905981,
      0.8216453899514407, 0.7691798687311211, -0.5229894609020316,
      -0.9850089861374158, 0.7957526182976964, 0.868229307830866,
      -0.33059850396267043, -0.724535321995496, -0.2950715601046361,
      0.10447787135055586, 0.7597806957948348, -0.8202313230234601,
      0.9873650149796682, -0.943940655969219, -0.9266142992645636,
      -0.09133852084318184, 0.7485136118657869, -0.2498813164275786,
      -0.9805913588823456, 0.771059871455674, -0.845072996696306,
      -0.9360029759417383, 0.11409797286397039, -0.850269416806178,
      0.1229889561028723, -0.14773417868490668, -0.5355096218516562,
      -0.019566734213679826, 0.3733193667228982, 0.6512026804732463,
      -0.6041094528090243, 0.18829047115105757, 0.9844594790774539,
      -0.7571965520646757, 0.08250914104135632, 0.9831551092349016,
      0.4994670829950678, -0.4462523415291675, 0.6340830700005902,
      0.7488997653824625, -0.8297264322397706, -0.4254316057944627,
      -0.13381118828108107, 0.4389499719096066, -0.8373749832379143,
      0.2930131046969793, -0.6141685245560771, -0.08724334816033297,
      0.2394370688785683, -0.7500841714877069, -0.127464310296586,
      0.7128566907953386, -0.2423434663382218, 0.05631214095549053,
      0.7355664315715327, 0.4850942855902569, -0.06459543896202113,
      -0.9557660110082411, -0.870134261853615, 0.7046944638910069,
      -0.1744590671472186, -0.2840337974607672, 0.4257200997761079,
      -0.891009598816995, -0.2575929420637699, 0.7892875000366364,
      -0.8598657437256523, -0.9944882501282901, 0.7748826336444603,
      -0.6447648980197553, 0.6009256865228214, -0.9256656392798965,
      0.6810126474734552, 0.5080762204031353, -0.10424580746686818,
      0.9977145903611078, -0.8524721562881461, -0.2783711691988855,
      0.6485284843901149, 0.03790856481228122, 0.9788970151735112,
      0.3617581947196995, -0.35718774676960674, 0.8607890775004363,
      0.22361305445881507, 0.757200854229271, -0.34760184589923115,
      0.07234793357506897, 0.1150155854257342, -0.5303294100874689,
      0.7790239612283063, 0.4332812809026607, 0.7846662259438424,
      0.023177580840206602, 0.4612364448310311, -0.8570952008445745,
      -0.7144998183632891, 0.42499506534601217, -0.23035813827779883,
      0.6833763156215658, 0.5146089681859642, 0.48886338640768434,
      0.9224523393184416, 0.8629209166026248, 0.9676470493324922,
      0.21646536710164055, -0.7840250769664832, -0.10175467756289436,
      0.12160704172956693, -0.15011797693313733, -0.023881763535451128,
      -0.8937394343069496, 0.6208328587228036, 0.9632762015180907,
      -0.34874358083621537, 0.9721484971231011, -0.2463322139393207,
      -0.23601532181415275, -0.19710459609873388, -0.8814110680156273,
      0.885388516577096, 0.2390402265633167, -0.3999323518818807,
      0.8109622500858196, 0.5165234591103918, -0.1278425953855029,
      0.5422552608338593, 0.4951935016163307, -0.7273954516910042,
      0.8969725214756825, -0.7162056076613559, 0.2683950558059478,
      -0.34194265077842134, 0.9419934641579171, -0.1880455508133254,
      0.6236861503334619, -0.9673782176458552, 0.8128030634890457,
      -0.018894775124180363, -0.019212268209054528, -0.7859837752974554,
      0.4690739762890974, 0.8682952600443135, -0.5664886493915979,
      -0.20020872538266588, -0.8451916547995535, 0.5798620578993372,
      0.08417924044680936, 0.7337874444859653, 0.8045081364140478,
      0.2947458314466589, -0.654477015624749, -0.1441128514204184,
      0.5909882877678676, -0.9390116614301758, 0.6127808112798103,
      -0.43976484417997996, -0.7730372950062079, 0.6464780643844175,
      -0.44057404234643016, 0.27902345971891274, 0.05182537674425447,
      0.22231834510517157, 0.4900738340090198, -0.02359357643348714,
      0.5039548899572819, -0.14457707011986454, -0.034177342081834095,
      0.02032508353437823, 0.49734169856868515, 0.8330781083230465,
      0.9445363710840802, 0.7185167760928617, -0.2963312928948838,
      0.6553750802217895, 0.3599806203313962, -0.7659834921179969,
      -0.010429667956531219, 0.005958530693350728, -0.21023473563226291,
      -0.1696354005356242, 0.6025080105777092, -0.00767067789481235,
      0.9015479697842981, 0.1280050538606332, 0.1989347882957433,
      -0.4207038253564708, -0.6016922279558368, 0.10976313689509398,
      0.5173357714060178, -0.4849514832257693, 0.054456238799489576,
      0.2108703534208729, -0.6649376834721328, -0.036675025414336204,
      0.5941862143919541, -0.6996640888431203, 0.6351515583587348,
      0.5347567082476203, -0.8638625104696915, 0.682029249447778,
      -0.9808102209757887, 0.1721318393845701, 0.0847835826239014,
      -0.6392285348862492, -0.3321042195521531, -0.9433683190152244,
      0.7888972076782936, 0.2468589510399779, 0.7126094403991381,
      0.7714585420357958, 0.5445871318114119, -0.8448953136674588,
      -0.20686180524862507, 0.9091304559321602, 0.8010238328582253,
      -0.6738757533897686, 0.6891350960811611, -0.12042653456498931,
      0.10637835156312514, -0.39553864268759, -0.14719851508638726,
      0.24414008789448438, -0.3549762661306164, 0.10766440667902755,
      0.8123672536315811, -0.899880790221387, 0.7805850587367504,
      -0.7996318427636231, -0.052812930711072514, -0.0759386803281279,
      0.7040185531642624, -0.31454801941313226, -0.30921081659418537,
      -0.5972976122397449, 0.9080819188246361, 0.4667924605618956,
      -0.43944548790849725, -0.02750861642747182, -0.2208284512121228,
      0.3218995844561494, -0.6601715367833174, 0.47389942304113175,
      -0.09402492257701045, 0.9572313333361593, 0.4684660905278015,
      0.40817283588372444, 0.7799031549162918, 0.05128570039392377,
      0.701923307598797, 0.6777631133182687, -0.13273015608554228,
      0.19356134628653487, -0.4366741777654366, -0.9450738803928842,
      -0.19153162054458006, -0.6470877404199307, -0.16230341658820668,
      0.23849054479578724, -0.3061936670505885, -0.21263919884891935,
      -0.0955514025980766, 0.6073972831509242, 0.5839778080275964,
      0.07145227319284597, -0.9077872556260824, -0.9722899185554472,
      -0.6022681643616217, 0.8044561963636507, -0.5065381720446536,
      -0.17122895664604743, 0.43787072337326416, 0.2520614735364499,
      -0.702817143618812, 0.07851959417609544, 0.29606319394873015,
      0.05584637150023042, 0.286540871885578, 0.5709314147131916,
      -0.30872220754502644, -0.40127757396415653, 0.37967196502803624,
      0.18607411898392545, 0.8468501075907331, 0.2527737281563569,
      0.9105629256883301, -0.8038832416723376, 0.009452682580586735,
      -0.771796817795185, 0.020021943899904304, -0.29354386983051084,
      0.5957131578945214, -0.6921416062000407, 0.5489991133885685,
      -0.6930814325638996, 0.10604272467843856, 0.8240039978535179,
      0.36316985877902397, -0.04744571548598131, -0.17937332521539062,
      0.9144108052583793, 0.6761608818091545, -0.5278370083219874,
      0.25522978071440505, 0.6242378532324473, 0.4240240687868786,
      -0.6071583517697907, -0.3932071238308379, -0.8314379654455282,
      -0.18790811319696665, -0.101690768634775, -0.7278866247580349,
      -0.7818555126311697, 0.7875861804612874, -0.38616974493848666,
      -0.8159118315160669, -0.7357193298446361, -0.45869148984544594,
      0.2675375404249358, 0.8463471039516848, 0.09244460402509125,
      0.5003315578607781, -0.08948534789488782, -0.37536144679645256,
      0.6815580457608621, -0.5396898959492766, 0.026946886110443824,
      0.6343251249355131, -0.7331844713616253, -0.44844419736348806,
      0.3409809610859944, 0.06568012137859869, -0.42483629814682544,
      -0.31305871335252045, -0.6183843178023305, 0.5478202413494788,
      -0.1995938860709514, -0.5854199924582222, -0.5982803404007564,
      0.7410947910076886, 0.18209898003555347, 0.6182287993762916,
      -0.9298998559088809, 0.5740265982558745, 0.8583150323160291,
      0.5975143694076333, 0.7375447747829265, -0.8785371505052075,
      -0.46197042874140815, 0.6977514197276595, 0.04022886670911063,
      0.7895185289928071, -0.41969176155016585, 0.7876976240455917,
      0.15211564108946307, 0.509204319235784, 0.4995186157941278,
