{
  "hiddenLayer1Weights": [
    [
      -0.09817654928982611, 0.36579150046329456, 0.9897966711340067,
      0.17245334986799676, -0.30336470759277967, -0.7801213682497554,
      0.864801328390258, -0.6977103164967935, 0.34215459580989016,
      0.9780355545620849, 0.08155628717112284, -0.23685405502753643,
      0.9068434534626184, 0.3466747346180128, -0.36342953777176046,
      -0.3661928959041387, -0.4642931774370429, -0.6428238823813586,
      -0.5805827709455849, 0.5775694418307951, -0.6933439122430696,
      0.8637845518433562, 0.6520018825698246, 0.9785878068321585,
      0.3588427341020628, 0.6320396664463028, -0.7302862707951188,
      -0.5911176742904583, -0.3499788587202368, 0.26475448024187864,
      -0.17197785231011498, -0.026522468290441026, 0.5884003324570313,
      -0.7555251936393814, 0.8272646050678047, 0.6389227280214702,
      -0.16395727995915355, 0.9716561497923109, -0.03619386627547705,
      0.9093125941248581, 0.35188082065560655, -0.9587618446336919,
      -0.5361956180404097, -0.23472037917949073, 0.14871520700551244,
      -0.5816858341327138, -0.11103610015000287, -0.025405592294640567,
      0.43139093579435484, -0.8844352315540309, -0.3176682156773176,
      0.21256107339799302, -0.2637606688116505, 0.6831329040892351,
      0.9177106583747361, 0.11476652018550793, -0.6098641658576733,
      0.9862855089653366, 0.441004387698984, 0.8657886168157942,
      0.13175053008997883, 0.5256764267341012, -0.027520850364605387,
      -0.29567482594434, 0.3260068176090192, -0.9627361639483172,
      0.5870271682378334, -0.30615506399332215, 0.5030716243516427,
      -0.939440340344265, -0.6987481404366132, -0.4026178296477876,
      -0.01339076022332586, 0.37980759389624463, -0.10749846984383193,
      -0.08118612390847568, -0.12601294324848267, 0.7968959773638384,
      -0.1326880689222465, 0.6699670225116572, -0.17792801187687957,
      0.48113918437405045, -0.38763174898439123, 0.7821190579995649,
      0.0008540548361435363, 0.5710436525414622, -0.5953680325516291,
      0.3223429505013997, 0.030267262219965563, 0.7497062584554621,
      0.4677264466582782, 0.7315091430575564, 0.6316978248329526,
      0.6390158801302328, 0.2332853347050916, -0.8335551383453308,
      -0.6766162794420367, -0.06061476087990947, -0.30223893370769295,
      0.8126823393689002, 0.009842440569989286, 0.7086810357332931,
      -0.7793795393884544, -0.378591648297832, 0.5855928894728972,
      -0.4711468752364407, -0.3587115152614371, -0.4781955895642178,
      -0.062153718592274476, 0.9740445077632742, -0.09245087155081233,
      0.5489431161128757, 0.570272559852079, -0.8217329751495415,
      -0.31171285527533366, 0.8838984369469527, -0.5293158096995403,
      -0.481798515389531, -0.9002171878869669, 0.7997321270394746,
      -0.28472502428340896, -0.06063728972035776, 0.14419929848427104,
      -0.10247931567723123, -0.008084626506172032, 0.06668413116126803,
      0.7099435745080234, -0.7708200672510541, 0.15214784604117204,
      -0.07737344791544087, 0.01171645905803187, 0.9298131469519308,
      0.3080515424588044, -0.31790184309301583, -0.8390949026499417,
      -0.9590136344436839, 0.6663026259590779, -0.5333829114238307,
      0.03010378513675871, -0.9301725173711977, -0.19046189197661167,
      0.7898546554757786, -0.7529791322553403, -0.48357541056665676,
      -0.28728842107241004, 0.6545223695265805, -0.02204919810003192,
      -0.36329197922195666, -0.5613131332641785, -0.4197175175658119,
      0.8050240477729229, 0.9352208031075868, 0.5778295633210502,
      -0.5473503994746509, 0.6866255178069589, 0.4406843990840885,
      -0.24140261246590367, -0.8071847540571815, -0.3805443728415816,
      0.7439042412300281, -0.0900228283990896, -0.2279203445006468,
      -0.4339732240396805, -0.6859548067926879, 0.33701891767277914,
      0.8269852202326273, -0.19443579959144186, -0.7825454277196005,
      -0.7774051719281125, -0.27550879579094767, 0.997844635947835,
      -0.7325619447573297, 0.4220500993829486, 0.6862090266483474,
      -0.684383085266346, -0.24450168103878456, 0.8561486352861403,
      -0.0019307258678336048, -0.40689090477721157, -0.4727994284437398,
      0.16316309240645266, -0.8825950989312683, -0.7864180796770701,
      -0.7968656883386345, -0.4760815479342684, -0.3929123685423388,
      0.6047086155663006, 0.41158943296132966, 0.2570793267155489,
      -0.7192680317456888, -0.14483095845725513, -0.07649607148623883,
      -0.9216504389597895, -0.898928455933409, -0.8229470101610303,
      -0.14014876979555213, -0.5573627352192148, -0.611276768707143,
      0.31950774933053605, 0.07051636291335317, -0.29945863012003926,
      0.6533424882697227, 0.6584297104737611, -0.9090490226968004,
      -0.8717327569310558, 0.027242087482155064, 0.562137205982959,
      0.30122348854968317, 0.3394081090078829, -0.3677114573617044,
      -0.3510273317275274, -0.36216322857946714, 0.24800768219434843,
      0.9655659697522316, 0.49933644734640525, -0.9966577849689138,
      0.5281819068947584, 0.30918726734628077, -0.28023309245548367,
      -0.5076466158818254, -0.0004598825875867796, 0.2945968855673313,
      -0.8855488701826841, 0.08098963024724037, -0.4791994632019194,
      -0.5354709741604573, 0.12912175930630587, -0.6069823263803351,
      0.8456896086816963, -0.6425178165645877, -0.17784079093478278,
      0.1450223535550701, -0.6906752919490673, 0.9344008589316117,
      0.8021755727253521, 0.5941309605102836, -0.7678427183180525,
      -0.31404625767729044, -0.8131250463716109, 0.08707756829849966,
      0.8000005433895523, 0.027096493362053664, -0.9823159209235359,
      -0.03268528460406417, 0.7646476256642649, 0.9066356253020036,
      -0.2521399758599947, 0.15578775878313333, 0.40815769924617573,
      -0.8375212671150911, 0.43817117149306517, -0.7810917637666899,
      0.5979112168746714, -0.4465518981651413, -0.7869025309565263,
      0.6994293966251601, -0.28820992281444413, -0.5732053363584959,
      -0.21356414903490828, 0.9767040452436708, -0.005060219237998265,
      -0.407558491876185, 0.1827992535358658, -0.17646438828848332,
      0.8833594462993397, -0.6298218452365902, 0.862042471908639,
      -0.2641707369136759, 0.18256310294482914, 0.7814779705022614,
      -0.3450517351297471, -0.5253969324487437, 0.05851624169669689,
      -0.43684602916052206, -0.9943798037117229, -0.21978874929268288,
      -0.2136373447632649, 0.7284550315398275, -0.7101784679069785,
      0.3418856448416845, -0.15179112340986345, 0.027023855731675095,
      0.40693673113639983, 0.3899720968093541, -0.3552250047363579,
      0.28521830582438, -0.9496698524281881, -0.946001615280617,
      0.4146181843622334, -0.92996770604136, 0.9069104883278452,
      -0.5938456513692048, 0.9200196733370172, 0.2851985420526275,
      -0.9259378088440742, -0.8344388671286826, 0.5267336062671908,
      0.5024030414199383, -0.3932074769041001, -0.8128908629636076,
      0.9037033710226554, 0.5763276048049328, 0.3406924176461694,
      0.05686423657504758, 0.5493006506728966, 0.21441789947134415,
      0.06380029497002848, -0.4612836021253597, 0.3882192349392355,
      -0.9176743032426611, 0.07970075406571153, 0.9778183676076124,
      -0.7984694402493924, 0.01349339387051307, 0.38114551522008844,
      0.2037746118370385, 0.9989733295602701, -0.4450204048673303,
      -0.7153368920835042, 0.617074889691986, 0.24019940322289202,
      0.4527752319518026, 0.8484885206599602, -0.7855290639120311,
      0.44927532822902627, -0.34633065634561877, 0.4908202485892561,
      -0.9529831600500809, 0.365368625220714, 0.3566918423476255,
      0.34367195569579545, 0.764148689438934, -0.5742744241837379,
      -0.2878957869547212, -0.4791197330193171, 0.061419396044878116,
      0.5325827611211191, 0.5140432140149462, 0.9801461627463395,
      0.24173847053341735, 0.34858913636169264, 0.08552449253952954,
      0.8216695331521233, 0.4020926511510168, -0.5603295843011158,
      0.5684343017161728, -0.914314752027483, 0.9701386076346532,
      -0.6578672257555613, 0.2103627445603795, 0.04698782334801832,
      0.17606462017237856, -0.2360988992242885, 0.9142146131864064,
      0.07682707634484842, -0.7344044771209215, 0.826831402256063,
      0.4295212019369061, 0.061679326733218964, -0.08442538587400739,
      -0.4016214029278844, 0.28373017717783044, 0.042725903675330024,
      0.802769370291498, -0.3151020518721048, -0.6707955344732222,
      -0.9303990701393521, -0.19428365871740727, 0.7910875180221599,
      0.8440743520952236, -0.8045799580450899, 0.7758567540662726,
      0.6345503734930737, 0.1976999446982024, -0.06344741621396999,
      -0.44294913682174997, 0.5621635833281928, 0.2605378943281744,
      0.22587537231810195, 0.8773097526119047, -0.6420997963966997,
      0.6964309258648291, -0.3596855056288817, 0.9777275230412359,
      0.9619192783518606, 0.2683589808864011, -0.9537057014334547,
      0.3828177663565526, 0.07008367411638527, 0.5476567744087424,
      0.6018403804924013, -0.7326283071534041, 0.03186331236895601,
      -0.9440022399372632, -0.29817274685843076, -0.2194702056299338,
      -0.7140373898166823, -0.7722577207441468, -0.30251422432799924,
      0.14718266456972584, -0.5601961725813087, 0.9423893263956367,
      -0.46572506005685455, 0.595563040086279, 0.2343683444486806,
      -0.3401539272695402, -0.525479088335898, 0.9364251187807424,
      0.8651097173362965, -0.7186948681230731, -0.012996743504600783,
      0.16689391345147042, -0.7963097234308991, -0.8907488559272445,
      0.3296310285519213, 0.15872745551982081, -0.5728001512540559,
      0.1759887230357351, 0.8679257176729722, 0.833567756390396,
      -0.6136555179479157, -0.6281631101380571, -0.6920136869595903,
      0.13080968734759102, 0.9892841069477085, 0.7211705914884012,
      -0.42433943296551924, -0.8689707469686092, -0.3336872941463378,
      0.6894840279603183, 0.0618836981128581, -0.576344630154551,
      -0.04030590222644026, 0.47710894233328505, 0.7729187357827803,
      -0.528087523207764, -0.25399315174614756, 0.515610369756176,
      -0.2860627715684996, 0.9441445788987908, -0.5352283485480656,
      0.49568903151800914, -0.8168119010591575, -0.431165485818211,
      0.5215786970151735, 0.34474972465252307, -0.7516731161929502,
      0.6259931063150019, -0.5822499570318271, -0.48026981525395884,
      -0.3944584778654412, -0.537126254073609, 0.5828949773036554,
      -0.9876394418888585, 0.399076335240379, -0.8341461050039927,
      -0.912317114797589, -0.6829277960700968, -0.2723900093164948,
      -0.3270539906056613, 0.9800918013312803, -0.7863279133691301,
      0.38182838909252137, 0.7349396847005036, 0.8252755472779838,
      0.473585973662197, 0.6217350016013312, -0.2046286847690948,
      0.05663208420566601, 0.6389670849052789, 0.597995425098393,
      0.4304448760610535, -0.41128463970028584, -0.20731148756214868,
      -0.10014310757374467, -0.7985195968566838, -0.4702269647561721,
      -0.6845404036382416, -0.9229983366516641, 0.36910141866766644,
      0.3209202438238008, 0.5600966826182474, 0.8792540115883831,
      -0.8091034448405416, -0.5034795185432768, 0.49219360284984104,
      0.5728533955945405, 0.24888823324311327, 0.448603138222722,
      0.44994416754190425, 0.8365781120116278, 0.10622665203033188,
      0.12492153927983685, 0.2980109790823944, -0.7624275165707362,
      0.08177904992088791, -0.6683397903801827, -0.4510119201112439,
      -0.04670856315475813, -0.02018350254014445, 0.44595688439873227,
      0.17464383146360207, -0.134174524235521, 0.7852905057879731,
      -0.45039229462068153, 0.295927292890366, 0.8883960415259686,
      0.501718420936883, 0.7838222587994368, 0.6626348353352598,
      -0.18957463724151236, -0.024220988579238156, -0.9208067591808455,
      -0.4387178489278174, -0.9628388199689297, -0.5795224990736187,
      -0.6754965553016805, -0.6826858028992069, -0.27272048963672013,
      0.1831950870998149, 0.07972556382274698, 0.6553957002563826,
      0.7447885335619273, -0.17540516961369423, 0.11970883006751976,
      -0.5295997011392579, 0.004250574797369122, -0.3164072225228769,
      -0.41258773508696756, 0.3616146315136137, 0.09501109394500551,
      -0.5556418648898989, 0.4796919912887261, -0.23899986880850577,
      -0.010075656015850143, 0.3645495636888554, -0.6455645586754035,
      0.7683721498393887, 0.04873211050508619, -0.40962739291819483,
      0.4669459968901446, -0.7744810762523655, -0.6759754285417383,
      0.705615505539523, 0.9816010133849242, -0.7459406783397351,
      -0.758087214233242, 0.9925784482590414, 0.13157807400347288,
      -0.31107229743161113, 0.3233471825744818, 0.13088354612788855,
      -0.5822114824777755, -0.12478760840727965, -0.7113915965389621,
      -0.28646086190381936, 0.11146162625026035, 0.08113345452832599,
      0.8420982211213, -0.5585912827684862, 0.6518602373309186,
      0.8956058261228361, -0.9065432156006255, 0.9095997933506341,
      0.08633529077211666, 0.4715260893354536, 0.167833717701678,
      -0.03132860096188761, -0.38081726265986093, -0.7642473778061576,
      -0.7090231288936013, 0.8955077617883469, -0.21702964268681146,
      0.5845111277545953, 0.08656648359406649, -0.8481179897603317,
      0.023011949104318585, -0.4501460462968794, 0.6869344892858322,
      -0.5496707780664742, 0.210714448890438, 0.4348232941293886,
      -0.303829084802421, 0.7132642771762772, 0.4776936168393586,
      -0.5033778306376786, -0.0854854660763289, 0.16601988661423217,
      -0.41134317676359444, -0.5658312053001264, -0.4701742538212761,
      -0.694997471488318, -0.28308528745798256, -0.47607010616930534,
      -0.7542703080402982, 0.33383940800242806, 0.6234697047718476,
      -0.7545465285736075, -0.022316294249165036, -0.5064198101093473,
      0.742258218158665, 0.557766474126423, -0.5596713719640833,
      0.5415940828784174, 0.5712683685757285, 0.27806846783686456,
      -0.8782178413881843, 0.4016449743957886, -0.6716943765272627,
      -0.8576518191665241, 0.766584122680535, 0.5221570012560179,
      -0.3916756090879212, 0.5439961651953484, -0.08148074342731038,
      0.7136269616161672, -0.47644664553187077, 0.46791032305866676,
      0.08791672033500397, 0.5751147207116265, 0.830724396308328,
      0.8561007514247603, 0.8279447390070342, 0.9286937589706619,
      -0.3117756180480016, -0.7906435243614078, 0.05822653105262532,
      -0.062282586730023404, -0.8381574342353391, 0.23632262885703348,
      0.6902337845577042, 0.4214322451411423, -0.5720361811714407,
      -0.7534721822284784, 0.5474166714997031, 0.19162136418490539,
      0.05716725604676043, 0.225110891297589, -0.5494448820430611,
      0.41653324679284953, 0.7475481244678761, 0.10231105207810165,
      0.9397434396615449, 0.8349494035888041, -0.051085848477416373,
      0.47691087297687984, 0.23370155094338196, 0.4359852291410329,
      -0.7788412064208958, -0.765476773011899, 0.2408241299905156,
      -0.9339448133115549, 0.8247650854409798, 0.36533100824004405,
      -0.2806796773788873, 0.5928378637909137, -0.22665692395821146,
      -0.48409082452461627, -0.20743125162202825, -0.7088654020613068,
      0.3165507099678462, 0.8861404626298945, -0.7029403448701843,
      0.8703618571287248, 0.028727124224027456, -0.723588630891467,
      -0.17501287783176256, -0.5763689309753692, 0.5427931797265657,
      -0.5689588147812428, 0.6991215154223167, 0.1467834679394886,
      0.996808219825883, -0.4985696846259011, -0.2548959544857152,
      0.2530531278654746, 0.42629487222873186, -0.5205657075464543,
      0.0063700779509079375, -0.9987335822969521, 0.46210771414864915,
      0.027763896166089985, 0.843879897786818, -0.8622726219155248,
      -0.8985960619757183, -0.4931875788426363, 0.1420950573737354,
      -0.567461991965962, 0.009411368844588708, 0.6436487175898882,
      -0.8781496614116744, -0.5344593763096945, -0.6211178261393764,
      0.9069168567521011, -0.8379662476107748, 0.23466980329801768,
      -0.18126371272885144, 0.8222699458917542, -0.03996563383277962,
      -0.20974112439862003, -0.29420774656231563, -0.24705305782534825,
      0.9490684897645094, -0.18953919536257846, 0.45050708869587064,
      0.17990739399952105, -0.09915366965296313, -0.18857967519865193,
      -0.7574121843812525, 0.4186653618505556, 0.5764831037437568,
      0.13392804327421848, 0.1268283807057009, 0.6772777658713562,
      -0.0880615243781171, 0.8669222118203419, -0.7392690823661985,
      0.6766743894760907, 0.2811616251693212, 0.195787411590286,
      0.665225729188335, -0.413803093945885, 0.13083912298868627,
      0.3644517558345939, 0.2135020841855435, -0.5472512133350538,
      -0.04923275571022545, -0.688783787580642, 0.07322784440833496,
      -0.40555813665347173, 0.2276843417695944, 0.4773849064111326,
      0.04484072841101838, 0.0029429726122112143, 0.5673651222689586,
      0.08520931200114212, -0.6606599305811214, -0.8681085841713387,
      0.9060706574989279, -0.34122116185105034, 0.8541806442566959,
      -0.9910398198887806, 0.5445986183087759, -0.12996037695160068,
      -0.06518271821414867, 0.005415581414520698, 0.6844246690239313,
      0.7362536276629577, 0.11385787204319398, 0.009986357677828739,
      -0.2515322416144876, -0.11018069141199716, -0.10637298571927145,
      -0.10590757246846971, -0.4704014623052504, -0.31925859432186066,
      0.034643784646803955, -0.04675086467697698, -0.43164450784200614,
      0.7961256125587233, -0.6590765649612913, 0.32944569404641655,
      -0.9482444458716071, 0.28675413877001477, 0.9410181886947919,
      -0.9953950975837209, -0.5310929372173243, 0.9148957222080707,
      -0.16403847022352513, 0.9933562747598161, -0.8492065598984935,
      -0.8205509236317048, -0.3966130534578456, -0.4493667802565162,
      0.20154418288746312, 0.2600384941307836, 0.29093923952906,
      0.9220273368462157, 0.42647502355635947, 0.9904102667629386,
      0.6535941622992931, 0.3653870855057133, 0.3238532134337646,
      -0.7374345900799275
    ],
    [
      0.6579843432088399, 0.00758706532197051, -0.7665459428619599,
      0.13654257020691185, -0.9354444697056876, 0.13136793106070277,
      -0.43616394631506505, -0.40498505083651626, -0.5449001209271831,
      0.5527192809040433, 0.6519644703252401, -0.40792980974610327,
      -0.7066753532835177, -0.793470989749494, 0.2335728723611954,
      0.04284477508028717, 0.5683970007792216, -0.09608763639137141,
      -0.8386524470223389, -0.5385107137034302, 0.18777530615647242,
      0.9164801447931383, -0.5005325501241491, 0.7698872463460447,
      0.6928975636459205, 0.682243806690773, 0.9033389056694703,
      0.8132223606985742, -0.11501969868474315, 0.46900609633501755,
      -0.9138339103357169, -0.6036986059434173, 0.6784441316636038,
      -0.7418501922866292, 0.6700406392331493, 0.6495252027351599,
      -0.8223724212848054, -0.19908007689881124, -0.33278032636998267,
      -0.2324074938528855, 0.7604858488214004, 0.008077146598405971,
      0.3389887318371363, -0.5711159440145552, 0.17488528405643589,
      -0.5580123438691449, -0.08394959970294913, -0.220238642660886,
      0.5711879050632485, -0.5215375216348304, 0.7645504679471378,
      0.8540478215566929, -0.7559485252107825, 0.3574939665204764,
      0.84111031269483, 0.5840720056189652, -0.176347903884992,
      -0.7044719397227186, -0.29572294037157754, 0.5482789816747373,
      -0.4139438057011837, -0.8690641839670352, -0.9318224606276173,
      -0.3601438313552139, -0.02653905211368013, -0.5801644094693432,
      -0.6946841644103157, 0.003285306280596423, -0.047680409061373386,
      0.9431779395829132, 0.8233767526535014, 0.37430018020494726,
      -0.29100677715517564, 0.3606785191353685, -0.5490069861383904,
      0.14481568811443246, 0.9703269815091815, 0.481812673703649,
      -0.383012042006329, -0.22706280487686392, 0.34946215215981846,
      -0.21746166563061653, -0.8597858311696926, 0.5763787591068228,
      0.8591678643609346, 0.5283546220707218, 0.4692491463225337,
      -0.10116027599603683, 0.5137381692156664, -0.23144893295564462,
      0.907447658226868, 0.017567653468121947, -0.591181216483148,
      0.35896327681754236, 0.35899310217652847, 0.4971637126398183,
      -0.008226293480976477, 0.02393132658178221, -0.003792164492132155,
      -0.9712214477006262, -0.19072243968945424, 0.8781625222144509,
      0.16530037191504965, -0.31738848791855245, -0.844519419996105,
      -0.13719960042718382, -0.36126204176657284, -0.673787096095738,
      -0.006705039038870986, -0.24306626056913494, -0.9631509525350785,
      0.30033225020895227, -0.985476080907822, -0.3405802689322477,
      -0.8741850204290733, 0.1483091921782136, -0.31206658954377886,
      -0.08502823123004033, 0.033824363052943784, 0.03178154429955171,
      0.25382295271431543, -0.13351266596437306, -0.8558907835757847,
      0.5111755709700687, -0.4707633101990276, -0.8822589984544291,
      0.1901318626269095, 0.7540119809823955, -0.8757094226394888,
      0.673282676630631, 0.2787948794757642, 0.9929005006226173,
      0.8019179647008192, -0.29969376319132834, 0.9872706544997651,
      -0.13556437813985678, 0.07096841366011475, 0.5911674910302906,
      0.28647372693042117, -0.9310153947881057, -0.7099126490117533,
      -0.36909258625954333, 0.49589414391551534, 0.5588221924842398,
      -0.7161373229040295, -0.019740433738829388, 0.3558559311795033,
      0.40791616287416277, -0.5958447065153294, 0.9402509926281319,
      0.049751830983410184, -0.3586048669043991, 0.14078361378825077,
      0.7893357622255435, 0.5893029536954657, -0.07533255942274053,
      0.3460507555828003, 0.10846909130795401, -0.11018888624515677,
      -0.4112323007001426, -0.014588768972316313, 0.3899301333164016,
      -0.009507491250173583, -0.3111978554679413, 0.24197547892891214,
      0.7406504378828789, 0.6854332904650882, -0.4561115978876411,
      0.15310835999529626, 0.08104428308773493, -0.5650467440349569,
      0.8092850096504183, -0.9421196362714372, 0.6957324090891897,
      0.21892291528854946, 0.7665626174673874, 0.6949515570010165,
      0.8245293830553679, 0.5961761448466878, -0.3286775498103789,
      0.491870678347504, 0.8732245013738549, 0.6502898950596983,
      -0.20231786846469024, -0.17933634279651045, -0.951318255470134,
      -0.4304749594641568, 0.3144111399442253, -0.5695817844855866,
      -0.29432063784562335, -0.6834458655187619, 0.7519816333360332,
      0.9837306041106557, -0.7096564243402979, -0.8262138823122895,
      0.4938856476250275, -0.01901582945155411, 0.5694751835097791,
      0.3335280714278075, -0.6611227307367682, -0.49914961886398457,
      -0.3509039353297001, 0.8879785264399462, 0.9264050313829908,
      -0.47071879682232165, 0.3899738832914843, -0.7362156327944813,
      0.4537401592729946, -0.7435637162809989, 0.4578481021900136,
      0.7577460954989417, -0.9660619811650264, -0.7770800663380455,
      0.3225058779040104, -0.132012163444871, -0.9266736961462176,
      0.024759029342118932, 0.38476448828531495, 0.3613971735717545,
      -0.23020613383732602, 0.33133730910773007, 0.804422659882877,
      -0.47880672090012455, 0.16706971930392545, 0.977862159714304,
      -0.026175002631532607, -0.4232521575240016, 0.9275044834248343,
      -0.6921647563073825, 0.11314853992594331, -0.6878236393324326,
      0.274842987421287, 0.701517191775479, 0.4339012628750032,
      -0.5730222827760287, -0.2055628554754425, 0.5890201557850197,
      0.31642819040987513, -0.5012790298074443, 0.04239060192746802,
      -0.3257521395658425, 0.39889027195418736, -0.82243705915963,
      -0.21754485221901243, 0.6054415105690834, -0.623552417879675,
      0.6289518306201201, -0.5444977629103289, -0.7156520349329143,
      0.6875073371059659, -0.4764714842631945, -0.816531765764346,
      -0.6462694469438381, -0.0850455023981116, -0.5692106639106882,
      -0.9346887372480559, -0.9189304810992156, -0.35726396695350715,
      -0.9400173728027079, 0.7098692797171102, 0.1264346366445137,
      -0.9276689852632054, -0.3197277053322525, 0.4405653236511271,
      0.7311172959250545, -0.5242520933232155, -0.7716009651327966,
      -0.7488098125961127, -0.48640668704184264, -0.3645834468223903,
      0.7003540483311128, -0.32220056821094545, 0.9517959269693304,
      0.6177700460141597, 0.7993459260016045, 0.9583072251779519,
      -0.773798465681093, 0.33617670587509085, -0.20831803730668375,
      -0.7805881926040619, 0.368260106433397, -0.0615327850341294,
      0.7257430663807107, 0.1793642510299045, 0.3026473342226623,
      -0.5480120092873388, -0.6595998509221901, -0.26943652350896086,
      -0.09420084406109375, -0.08702722687125686, -0.188189177991803,
      0.5900456539373558, 0.37101769733322154, -0.8762070134857938,
      0.5599425798630233, -0.7119927586416028, -0.8508317615820538,
      0.006969384088260533, 0.7331999076217497, 0.6918774896275623,
      -0.752387260174896, 0.04293638677387612, -0.8566371122476983,
      0.6467917616723544, 0.11024088894723327, 0.5788386443023521,
      -0.32921384103500007, 0.21215630036226152, -0.06687480812479407,
      -0.2760072490312928, -0.11416808262021982, 0.0007814595618134135,
      -0.9713132504000077, 0.7372940461300153, 0.7178638037921643,
      0.24772181551104788, 0.42091749768250697, 0.9964348877510711,
      -0.5553723699336839, 0.03075153059550173, 0.7560287376544106,
      0.16505788829287082, -0.19462917470332775, -0.3744893948087973,
      -0.6017425004506696, 0.31329293078823106, -0.3125963684888782,
      -0.7658725063567977, 0.9710447101392701, 0.7596518998066739,
      -0.05983557819776131, 0.8522461545549409, -0.3072712887871045,
      0.14523986649262977, 0.4284805030492018, -0.8411614446830122,
      -0.26422334031263794, 0.9806477352859679, 0.07618312016801321,
      -0.951262844287188, 0.9460807953880934, -0.06992065146731807,
      -0.366197855016007, -0.25091946702208157, 0.2762726970152496,
      0.2802058154504632, 0.9863026130406984, -0.7010191719462076,
      -0.771670873030776, -0.7998168143553173, -0.592829182073388,
      -0.8886894846844391, -0.15655819901173285, 0.880530019754775,
      -0.5744691666065296, -0.41831265696183095, -0.43994158909231196,
      -0.020826473312618, -0.9993328499269651, -0.444499199879683,
      0.8362068347907265, 0.47378517753846294, -0.9687139208648414,
      -0.917155099802959, 0.2338098468862264, -0.9757500696686217,
      0.7215605403023906, 0.9173679744516279, 0.3028216189483399,
      0.2992051816878183, 0.5105463879556962, 0.39310642077435043,
      0.2742325813266877, 0.6717824383803905, 0.5379819145685762,
      -0.4945980742871412, -0.7606216419439304, -0.5954045226277707,
      0.44534148687259956, 0.5741661225591801, 0.48426194257180866,
      -0.5745281549464503, -0.5238283355906259, 0.022115595938084986,
      -0.38691283728117787, 0.027071788770572258, -0.7756698562587521,
      -0.7040677721357205, 0.8308469830624263, 0.8457510806397215,
      0.5991010169672002, -0.36668552272511423, 0.704516715904691,
      -0.10463786716507872, -0.2642598239679499, 0.09993925736255083,
      0.035077652528134884, 0.5702902677326458, 0.5900081461565536,
      0.4771963939379371, -0.8245832017652814, 0.11777261314162857,
      0.38227609687968256, -0.5671367565325931, -0.8261085583210863,
      -0.508717268908049, 0.5170483389483502, -0.8554444477911662,
      -0.00008423689273229229, -0.00684760288871189, -0.06289780972170478,
      0.9814398190455518, -0.18062737346801638, 0.9999314346474697,
      -0.5706079882405408, -0.2656105542135352, -0.5439922039789362,
      0.5699309526726628, -0.11414134147842114, -0.9524219636514895,
      -0.3078412563325572, 0.887106820021375, 0.3592913196518128,
      -0.7607170913214283, 0.13946846363187682, 0.7860108426777903,
      -0.8298646504959097, -0.5141859506634159, -0.2160340997463348,
      -0.47331426188787784, -0.5427727422613615, -0.04909086194213419,
      -0.80394432180031, -0.3340419349115975, 0.22751923019394438,
      0.9315078846212654, -0.594520962089657, 0.756948981662573,
      -0.4146121499048201, 0.5592700071582142, -0.43139939966037977,
      0.9401568090780472, 0.5428208018842038, 0.36737574838522136,
      0.6375505289996917, 0.517290529488581, -0.6120514552836815,
      -0.04551683953411745, -0.39444231426019627, -0.6744463164148033,
      -0.03828927950166783, -0.36079358739054257, -0.1170939544250591,
      0.23354404905060333, -0.022513015217886068, 0.4502583382161238,
      -0.9992669181511302, 0.4501230718157654, -0.2532880547742784,
      0.7091596692778044, 0.07848598002751128, 0.19003958312336078,
      0.6806852272433592, -0.560791381386061, -0.3185659123773581,
      -0.7025441442457265, -0.7783874445893897, 0.5891349177331411,
      -0.38204131259352003, -0.8066655129116818, 0.7740432514896254,
      0.5507252792108623, -0.46798792345689844, 0.832666733252172,
      0.5637632372276133, 0.348787201658189, -0.7196227838894744,
      -0.09162569510332075, -0.8036648495787495, 0.40244409339866216,
      0.17676001415583364, 0.260398511279909, 0.5359024884411276,
      0.9087160989736716, -0.5669119286765953, -0.11142022673726837,
      0.2858390531252133, 0.2381687865949762, 0.10784714590405153,
      -0.0046032845543941825, 0.18353352495876418, -0.23560487315658696,
      0.17280730671794675, 0.9256203190452377, -0.5723611499676,
      -0.023199858370194892, -0.14726627069947895, -0.07413870185392346,
      0.9957437262072162, 0.8767238797668213, -0.8088972352163277,
      0.8537724064896812, -0.6454642188056825, 0.011970104305349949,
      -0.5024813234059842, -0.16577057081001012, -0.484658460539634,
      -0.5351240478933881, 0.45278686612230556, -0.09494568251299551,
      -0.4524530058466434, -0.43327677504321205, 0.7772357295037491,
      -0.806417775161897, -0.6869373734474102, -0.8935553456731093,
      -0.8804220754979712, 0.3451203545456578, -0.08342722971924532,
      -0.8992464937192612, -0.3560394832373315, 0.9327897223910493,
      -0.9355440910124049, 0.9820933365879738, -0.9079191701162532,
      -0.9689409830399547, 0.09205377471742837, 0.190300241499485,
      0.4260222065068646, 0.9691032942778794, -0.1793172028830865,
      -0.4961486258770149, 0.3459142495009684, 0.276044919555233,
      0.08441341469579156, 0.4008094322300946, -0.7994031606412682,
      -0.5124529408960092, 0.7317700333675452, 0.8976259391358092,
      -0.7506331944437625, -0.109052509983258, -0.6794726206901882,
      0.8003458357272457, -0.4548457761364464, -0.932726462218441,
      0.7102185708486353, -0.34140431301536767, 0.49534301624062493,
      0.7652115922891589, 0.7865301912833109, -0.7819313716941028,
      -0.6991196034654004, -0.3298167207899798, -0.9408105715699233,
      0.8362054166645176, 0.5820844528299691, 0.6478841187370699,
      0.7126924426627022, 0.7472493261503397, 0.6219150286636879,
      0.49066867302950357, 0.7891346405621094, -0.8600210452909884,
      0.1370452394558157, 0.9341732188581009, -0.15310715651683893,
      -0.4856853837799995, 0.1431996225427392, -0.5051038443562712,
      -0.6336485111084875, -0.5839032782278899, -0.13797319872227165,
      0.8094503251211376, 0.8141873795465746, 0.5284170620451474,
      0.5453936889353126, 0.7286097660518314, 0.9682771894037763,
      0.6749639369907205, 0.3248268403342225, 0.42810578013743816,
      0.14716447660430276, 0.3460348921969354, -0.016947922034206808,
      0.9950890976507067, -0.42503123443975444, -0.9897607047738317,
      0.9516715267943416, 0.4154289492412442, -0.5899199317164041,
      0.5701554507681457, 0.25418385495954476, 0.6820444457655022,
      -0.9322191482312561, 0.5772090163141335, 0.2839365946879089,
      0.9563745482145296, -0.8526682137395434, 0.2743654955980257,
      -0.2533583805633399, -0.9828345787332626, -0.33760689812003086,
      -0.5917393241725755, 0.09657500388879114, 0.15706662464045573,
      -0.8059763903016304, 0.38129430637127726, -0.005894937417822099,
      -0.17790588104043836, 0.5282091699514853, 0.8311217434397378,
      0.49639811224012576, -0.11159964989571991, -0.43583666716578184,
      -0.9623016739977301, 0.7869202274456244, 0.40347059425445053,
      0.9121696090913227, -0.2766041495013618, -0.7648547382535167,
      -0.6840087371409882, 0.40950095840445755, 0.28656797922641175,
      -0.49384577711106514, 0.8254858461106314, 0.5898948636671011,
      0.395725623293798, -0.16191695409001072, -0.0835164369261081,
      -0.8303511033369313, 0.18646358619439019, -0.615447354210978,
      -0.48984100700277766, 0.492999746868962, 0.4220495897597196,
      0.43035977895906985, -0.3930908918971765, -0.3578053335289728,
      0.3733770105409837, -0.9278097257328137, -0.9708617578224801,
      0.9990274807475719, 0.4957385688860283, -0.5054563285324045,
      -0.3855834467245254, -0.6442324254823402, 0.8620511418975187,
      -0.09850342504013465, 0.4514508591779345, -0.0008605222148898584,
      0.9379633051781342, -0.18370343785217358, 0.19742751979469464,
      -0.8377630952837092, 0.6168161066705351, 0.2390664263445914,
      0.8323032212308505, -0.8157035377573858, -0.7403564787075751,
      -0.5742316238339793, 0.5350818217045754, -0.08947193012026,
      0.7819801167573299, -0.38406804362124936, 0.8563047119897491,
      -0.9244538146064945, -0.2785909842667609, -0.9635931688078698,
      0.7340246485962698, -0.4032531778861981, 0.0006966753868886677,
      -0.9951146125510415, -0.5531228245026147, 0.72772977194637,
      -0.8303878441190395, 0.9171069245212506, -0.45856651141419746,
      0.26281096185950137, 0.9786536932608527, 0.0981611762832979,
      -0.42008728167773546, 0.3854068443160723, 0.10292302655397956,
      -0.6712689190960051, 0.0912359175946027, 0.22251349479939986,
      0.7705559632425434, 0.3655389612253894, 0.21627427475702454,
      -0.543620095538563, -0.6867650655474624, 0.37518659462752835,
      0.4679563380622396, 0.31133238619934644, 0.09396566472190715,
      0.3610516841591891, 0.9947354471170886, -0.8094023978332436,
      -0.9866643189363136, -0.1257757039570131, -0.3824815439565965,
      -0.7322437738419754, -0.6623398601394346, 0.7354318717225619,
      0.5754185288605225, 0.6321222255232279, -0.9444911197466674,
      -0.24190098887443234, -0.3195397397106472, 0.7337474636561545,
      0.10479045622831418, -0.6338828817299991, -0.09066037105994651,
      -0.5937665912550649, 0.8635603572013211, 0.23279911347486149,
      -0.06299757522739435, -0.21069751759832522, 0.6331471836986391,
      -0.4621329448795666, -0.10425164600907078, -0.6394049894558518,
      0.3317942535215699, -0.19341471476337668, -0.23406393891395139,
      0.3720077673567528, 0.3953644028403014, -0.16383756137679617,
      -0.0775943551666729, -0.6092257061287758, -0.75843206514367,
      -0.3228205495886356, -0.15461274566814298, 0.819239335384712,
      -0.12863566411424987, 0.6853163995991931, 0.7950437943911464,
      0.5594284440187058, 0.276857257968818, 0.09473393186399015,
      -0.3683446650022457, 0.2768169637601505, 0.21395693052228815,
      0.38487518700922996, 0.502299527092577, 0.08496641731783683,
      0.8284360474258401, 0.7568110229513532, 0.9323532558128549,
      0.6346921387227344, -0.5041854147710971, 0.5442940252836443,
      -0.3167151276074631, 0.5312503193227665, 0.5514939631209681,
      -0.6336409631639537, -0.6496832923554439, 0.7601234647165569,
      -0.7991564682095165, 0.6700013105160321, 0.3664627993694185,
      -0.15376231867635637, 0.5996508733113854, -0.5913721128694736,
      -0.29161986510382265, -0.946435831272995, 0.40746400534741367,
      -0.454392441392518, 0.8252258527237597, -0.903094381034768,
      -0.06467972463533034, -0.3928224533730149, 0.5828983640061796,
      -0.0555803777773205, -0.5057557697949715, -0.6591538377064712,
      0.11872973648585416, 0.8663004137958561, 0.7915273946730745,
      -0.2059527802576806, 0.8716963374769962, -0.5620260962781138,
      -0.30279599257606016
    ],
    [
      0.8764816681023406, 0.7145379655734185, -0.7033977371667919,
      -0.9636323506524, 0.13127152772062978, -0.5165558666521148,
      0.6842986296239864, 0.7839105260836261, -0.5572955502042714,
      0.5214724822520544, -0.9328937656118095, 0.8713581912515522,
      -0.7358668383051912, -0.4469033400089306, 0.5787560167386276,
      -0.4841547470131853, 0.36010173523411826, 0.656024277123088,
      -0.5117379989818227, -0.09021887746338564, -0.9929506081018613,
      -0.22903797940097448, 0.7231811870337732, -0.8942266221039703,
      -0.22292883467272961, -0.5229450874649082, 0.8404742981791395,
      0.2844413397122354, 0.08523172613336971, 0.4795288032670606,
      -0.8509013311836919, -0.5379529992912144, 0.2584917690902935,
      0.12472355814995995, 0.2851485112882317, 0.8353526009216017,
      0.81337682023864, 0.26057091696584367, -0.747919700098147,
      0.2612860504881853, -0.5106192235189249, 0.6293345236756842,
      0.21364270658108575, 0.6774059807783672, -0.6767667786260199,
      0.06495629970792827, 0.5923069518728186, 0.19850679757747214,
      0.41294977663980337, 0.16750662845129183, -0.8539475918711026,
      0.7850326036375774, 0.0424185876314751, -0.10436294628734322,
      -0.0490692719407928, 0.9130756852811333, -0.6778574843337832,
      -0.28645836683646664, -0.6615738037540977, 0.7338580320790542,
      0.8375015534028409, 0.010540894717271154, 0.790859832722949,
      -0.6498576917700958, 0.772070448120802, -0.4537819513048347,
      -0.5157779205914612, 0.24269316252380557, -0.43471338349100863,
      0.2673851153307574, -0.22942339558779867, 0.9939385053109762,
      0.38121394563111366, -0.38354372875318266, 0.3933676001405182,
      0.33172758555028636, -0.8176634167573402, 0.4501488252968522,
      -0.8820784969105078, -0.5085021178845879, -0.7558648150347698,
      -0.7605099087187193, -0.5052377592798996, 0.3858658229869407,
      0.6583710559264779, -0.1009282858959879, 0.5852330752893797,
      -0.8755746576304473, -0.06605727732385969, 0.7779623530304471,
      0.7626496455700438, 0.11974920085489726, -0.94350423481219,
      -0.6848429141104373, 0.4200455198598987, 0.8432418019366774,
      -0.37075275148917575, -0.2449049177377174, 0.6417560298316389,
      -0.022689864403708793, 0.6856247121456129, 0.7795654023736152,
      0.664797515674985, -0.33789363276757767, 0.3015542395838726,
      0.5094087599519215, 0.20861649245069014, 0.29911613260261305,
      0.22323957124031413, -0.07499496942546946, -0.28806598313758736,
      -0.44432749375699254, -0.2946788610166613, 0.8940050443979874,
      -0.28956557551690887, 0.5928309889312211, 0.43785528188729117,
      0.6886102369103084, 0.043514704091974554, 0.5261689712503617,
      -0.8384663291312364, -0.6629796057542934, 0.16504255931925726,
      0.052465491651815466, 0.34897273707621945, -0.16206663719866787,
      -0.4215496649246826, -0.5859014798954689, 0.48712319258523307,
      -0.2895687057605367, 0.3595307568904924, -0.4866882065608422,
      -0.2807651276280394, -0.9628576995063023, -0.6684337977854709,
      0.852010193977236, -0.6348469464451343, -0.832134046769196,
      -0.8298499155550338, 0.29916230490620244, 0.461121805521016,
      0.7049695918704848, -0.6021780187088615, -0.7265279778841767,
      0.9797141370862628, -0.8020711474102771, -0.8038518455216819,
      -0.6731569379512052, -0.18947593174460442, -0.5884734440824229,
      -0.9620632307757626, 0.9673602093447462, 0.877570643428649,
      0.22273006198576217, -0.8258363058680582, -0.9285782539062422,
      -0.42937032282934373, 0.47874450442535466, -0.9646692417706118,
      0.32966329524420024, 0.24531467396550122, -0.9159766441688286,
      0.7972258214578347, 0.9572127073178707, -0.7314483534377589,
      -0.21350652310625717, -0.1281287284312187, -0.3189491367738517,
      -0.9159590728083806, 0.23453468448274828, 0.16689562946154446,
      0.5061244476283888, 0.53909768218529, 0.7275092237052805,
      0.5235175742880229, -0.6553051005925661, -0.20621406051632718,
      0.3658559092447202, 0.5281505666955475, -0.4572906119515907,
      0.9072683926676426, -0.3183112385774236, -0.41671874208109694,
      -0.3746198882395735, -0.9296812828225689, -0.5295638095297344,
      -0.3124832089819929, -0.6015350006378997, 0.815636518784586,
      0.3634372855424428, -0.7257691864141624, 0.23318339909134167,
      0.7800129326865752, 0.24043390228036365, -0.6261154834257434,
      0.5420974385881583, -0.17821681170511106, -0.49862076668745203,
      -0.6838605390718406, -0.5658451618796043, -0.34851830031061803,
      -0.33344454911957433, 0.5502004030805159, -0.009638803104599525,
      -0.6677282879266331, 0.7725259574428622, 0.6823826127145547,
      -0.10457723666563101, 0.12055687109881452, 0.539838367062834,
      0.7905682765648185, 0.16295569106137586, -0.253097967766156,
      -0.23648198416288135, 0.9660100392307176, 0.8889242222823444,
      0.5683061506723535, 0.7202486743008487, 0.30713765683721794,
      -0.30038639630357356, 0.1234751800759386, 0.5525181451611374,
      -0.10882586668878647, -0.22832588252103836, -0.3183329234556713,
      0.3906658436244337, 0.7821028245163566, 0.8469523735780178,
      -0.4230591639273493, -0.6998008453615197, 0.020817977491809803,
      -0.24006372176880486, 0.6997397490735833, -0.2534466019284536,
      0.32024721697784697, -0.05583868952477511, -0.7712929720229509,
      -0.21614241433686798, 0.3165611788503022, -0.6953573430127991,
      -0.05964518510756056, 0.7935818985250194, -0.15677095376577688,
      0.8427206032391927, 0.12707211119071538, 0.24164078147275037,
      0.00589240940782787, -0.6870958300926087, -0.3643016875032443,
      0.9388223900199382, -0.9442346856562955, 0.929027566577528,
      0.04568921408073079, 0.27133174383747694, -0.5899872602002896,
      -0.6021598240564909, -0.4619459488536868, -0.3807508410493954,
      -0.8192217082296187, 0.2338134698130423, -0.270144261748849,
      -0.5763244715165059, 0.7787667596694936, 0.4417131963354395,
      -0.18741149907003685, 0.7747033123231759, -0.5922160753048784,
      0.4767414127656804, -0.3709044813225453, -0.6754201017018286,
      0.6122867384208894, 0.9362280517911628, -0.2840367833358437,
      -0.12585144900840417, -0.837454527096622, -0.9363356949314623,
      0.9478986018689155, -0.20772443329163792, -0.6721153950578933,
      -0.8491214813018826, -0.3799272869602479, -0.30714773690041497,
      -0.651733104700249, 0.7369341053145209, 0.16250309911002203,
      0.653594874980282, -0.7118498352133327, 0.8358855524159363,
      0.5947135550722953, -0.5795664822454447, -0.2831631581706988,
      0.1171762653906736, 0.20280535220448748, -0.9473807646787855,
      -0.03663923961510118, -0.9927045133793237, -0.6145948665630323,
      -0.6749307884593274, 0.8167862745588814, 0.4728454328796885,
      0.09538408392064213, 0.3650821727083273, 0.42725409962751515,
      0.7095016863740926, 0.7383145567785303, 0.6476161095377408,
      0.4833592639577611, -0.3985790873383448, -0.9023385069823413,
      0.5350955762163001, -0.22059448506564783, -0.7223702629980755,
      -0.45632123400826474, 0.8132614027958169, 0.23154191689098313,
      0.09882258727822713, -0.12046041938506935, -0.6952097758700617,
      0.04156323035668752, 0.04066733215011187, 0.3508881745383494,
      -0.9639350946503735, 0.6686440686547392, 0.6203451439976981,
      -0.7031256565289832, 0.6964817529029599, 0.8309333534191752,
      0.06794851625737008, -0.21004580710896903, -0.6145460931828377,
      0.425625534908169, 0.6359318106337555, 0.31196469156778495,
      -0.962816370381594, 0.02562621275118726, -0.2422838439478805,
      0.6658981354238467, 0.7789011806731287, -0.3855398966349344,
      -0.5716575125476888, -0.8177272238471125, -0.48335232990652477,
      -0.729956038391459, -0.28331345780640005, -0.3348056859921904,
      -0.9361395773379475, 0.22875708370073244, -0.11279490134312464,
      0.8432116575065183, 0.9432891335902132, -0.8778793542214576,
      0.3339856545076967, 0.6165077442657663, 0.15853930370452218,
      0.11635514001740432, 0.8942515634458501, 0.4656686252322615,
      0.5912865421367073, -0.8006252258150477, -0.8149655409905665,
      0.992644534580331, 0.5980441907197229, 0.07866089937978638,
      0.5475131278288261, 0.7507523709133337, -0.6894831641571759,
      0.6543348025552214, 0.8696756616110415, -0.08670943187421232,
      -0.866358389450931, 0.5932409000342336, -0.332813844483836,
      0.8095010454599088, 0.13051107740896706, 0.663729343432383,
      -0.8423563685062776, 0.17668159890080126, -0.47778087816378534,
      -0.4328809708144643, 0.07935702838248249, -0.3816434018329695,
      0.9610329252221126, -0.6389852519476098, 0.6715826995227565,
      0.4475112581118079, 0.47903652669366625, 0.312328014418231,
      0.0023395073655003706, -0.6657950752928974, 0.34209585306977,
      -0.29171112584477044, 0.9337132041234084, 0.620333763121633,
      0.08260600498118587, 0.42548393040372323, -0.09833900672250806,
      -0.564619792024899, 0.40836308951189393, -0.7520261739757799,
      0.5481053421413544, 0.7215240055784458, -0.6377655973809384,
      -0.4087131678519982, 0.6085416451914032, 0.8645854973038904,
      0.8429932078913613, -0.09472025308887755, -0.35069232144529483,
      -0.40524258011410863, 0.04225769111232491, -0.45935808450274696,
      -0.9242315796078984, 0.15397784039912832, 0.031869439478401596,
      0.44168083291588056, -0.953421062401028, -0.7028947070057638,
      -0.16926169335921637, -0.6395911253496376, 0.36104033352946097,
      -0.9068773873286755, 0.5884140567380447, 0.38180337882967663,
      -0.19614216925711636, 0.49814663266103354, -0.16198141650316433,
      0.8036873809474732, -0.9949728127104591, 0.3107879774036739,
      0.9293461605843536, 0.28576468455482607, -0.5371378871203873,
      -0.5520900124913957, 0.13107837985855753, 0.20847086910101886,
      -0.213863746466465, -0.045441981282313915, 0.23411476935734088,
      0.2548299499603002, -0.9522616309499004, 0.6311465411389081,
      -0.5306308467370391, -0.18665349038596002, 0.941435259356433,
      -0.5751543874127747, -0.44109927730533416, -0.5507180016377027,
      -0.5792469272160177, -0.7612254444647704, -0.8962747696282727,
      0.3484527462165512, 0.7634831074584474, 0.6529659318895882,
      -0.6071307655506559, -0.656877090954676, -0.9243237822767099,
      -0.36160648991698796, -0.334905373657012, -0.4426347578389862,
      0.4035469608535456, 0.15230260002885165, 0.8319541911064663,
      0.379626461844885, 0.20303935100669213, 0.7760083174744219,
      -0.5418981909382699, -0.5390553744819311, 0.5646540614751818,
      0.4128933619918951, 0.265790908227995, 0.11603441091897437,
      0.6999721427269088, 0.11817833072116413, 0.8388158659459228,
      0.24733876794515508, -0.9135073424383768, -0.4640830008925585,
      0.554162153407384, -0.05665612706399825, -0.3476452996776511,
      0.3469951064335852, -0.12303976397897154, 0.9031680074440671,
      -0.1510157739358542, -0.8774939620687814, -0.7716654555410187,
      -0.9882788480452591, -0.23931038576011376, -0.1289055204310232,
      0.9178786237145626, -0.30252414594128885, -0.033399142782658764,
      0.795129723125438, 0.10380555988585627, 0.8901525973342213,
      0.7827562322213488, 0.6817120933101726, -0.3473297646499991,
      0.8203917572182022, -0.8941529476867056, 0.11937175298631253,
      0.40982680650817205, 0.9155122769197215, 0.5059210076890448,
      -0.8766285831543974, 0.33145198728658753, -0.518394805480832,
      0.6967502375170871, 0.835636152407286, 0.7322285011197853,
      -0.579115388390643, -0.47563036207846654, 0.6334802283267522,
      0.8563407655736031, -0.46916568327632735, 0.11979249234709322,
      0.7116458636607614, 0.17464226679632544, 0.0979198829922816,
      0.2305821248508586, 0.9581007767995966, -0.2535991140953371,
      0.8091443206476985, -0.7575631969942047, 0.34421809444409,
      -0.2610478572792152, -0.7712490708895254, 0.043811505929431505,
      -0.928893668786611, 0.6412876533156338, 0.31350480316616514,
      -0.5813452455800254, -0.7620519364579983, 0.49118270467592495,
      -0.720237132725468, -0.8092001625474037, 0.6249506365169308,
      0.2073364975810179, 0.39575240748047413, -0.09015861494217159,
      -0.4215913891511449, -0.8684677643069731, 0.014109100277801101,
      -0.3988795597921784, -0.11038112492986629, -0.16735811240751897,
      -0.22919405076113497, 0.30069152848156167, -0.704666404890927,
      0.9033459276575635, -0.1286581215467586, 0.41955164969624237,
      -0.0750985924652059, 0.0006657277891188862, 0.08959853370274429,
      -0.05676020321619957, -0.7591893848967541, -0.4018988209997709,
      -0.7191912069180502, -0.03659484890537845, 0.5717891618300204,
      0.8386999007575855, -0.06299654625291584, 0.20152259384506,
      -0.3803792880679451, -0.7947280884146792, -0.13005322746309167,
      0.3040332384062885, 0.10813862495703086, -0.4619723708458383,
      -0.24044974875142255, 0.9953305372038246, 0.3521450043675367,
      0.4035889821718541, -0.2046009344468569, 0.14929372582643285,
      0.9640929826589564, 0.5166758693274538, 0.8734261603439171,
      0.23369209471109276, 0.9601198516356662, -0.7193612410651262,
      0.8911900921817342, -0.21221835428486546, -0.5058995094353937,
      -0.5350698526806212, 0.7329146502756378, 0.41933639719472326,
      -0.05026005028837055, 0.3208282936148561, -0.6780633985011173,
      0.5497158230010606, 0.6302452681255559, 0.7433204146359764,
      -0.5053395769793885, -0.34987957471726894, 0.7147452152380294,
      0.6517837896463257, -0.22832598272610216, 0.15148809811306174,
      0.10107242808693107, 0.5120801609295835, -0.07268184811122058,
      0.27705504401584413, -0.22463805323167252, -0.14286191947999605,
      -0.33085409255304166, -0.8804726085051926, 0.5431315877404321,
      0.15880400572040587, -0.6709088126321308, -0.6382678598111733,
      -0.8028390133476111, -0.8507556576086457, 0.2042600065609328,
      -0.7797845405911947, 0.981205101639147, -0.5526490575480452,
      0.857683220012766, -0.34252130926161906, -0.22798136324470875,
      0.7941553177050826, -0.6695884044827554, 0.5698089664944495,
      0.015953630848698275, 0.1952874233040265, 0.11616076917469886,
      -0.9837901404158691, -0.7834507008271276, -0.137273915311948,
      -0.46408124150577645, 0.9976389010244913, -0.49541068474216043,
      -0.36758376672656823, -0.6591429153764001, -0.02818536086707013,
      0.7787064802026422, 0.016236809884624392, 0.4297997567162781,
      -0.653633570989669, -0.508000696370666, -0.1876186231948398,
      0.09109850477023818, -0.41876205224448837, -0.8582165651804172,
      -0.19114178438231466, -0.508253265765525, -0.4412853429276087,
      0.19985005343522388, 0.2574771632287729, 0.3627594924158548,
      0.530233574352041, -0.9793657222025374, 0.06820971682437582,
      -0.4971948170402394, 0.8111587010375163, -0.9440706664208074,
      -0.09746966931993128, 0.3364729580902912, 0.7803183155720395,
      0.29353402311361254, 0.4924528538083348, -0.09701528301511653,
      -0.3801654541915349, -0.5613157703576568, -0.6839760849136383,
      0.7953922651753298, -0.05914861912005387, 0.006002215109567111,
      -0.21522125894759236, -0.31157261444198214, -0.6849226763237044,
      -0.21555805690702456, -0.3384165551510754, -0.8518490472894213,
      -0.6363085724113438, -0.6269101912817732, -0.49331062884023646,
      0.739012406722741, 0.5873404344363329, 0.6138336315347965,
      -0.7820145801194687, -0.9301951251841767, -0.4596785696889092,
      -0.9880351309614714, -0.8147310436776429, 0.1693295273668145,
      0.8237682389264811, 0.76464715321482, 0.14810147355525327,
      0.07059692790199223, -0.057964709204528564, -0.4269633956538632,
      -0.013459608383700417, -0.5229596997959844, 0.1253804743939,
      0.5561538731691051, 0.9332629742911194, -0.5619728487636793,
      -0.27766881597446824, -0.6917523713181373, 0.8686913439907329,
      0.5168762304112366, 0.4876729431134752, 0.16131327383037197,
      0.17567389897008612, -0.1677106839419027, 0.0035778251523934657,
      -0.04541240555840442, 0.013701315599435215, 0.21156916113916324,
      0.2655658080849155, 0.11895864253406074, -0.3226193260034953,
      0.7014620306710992, -0.05719114112309054, 0.6561468714816332,
      -0.4303615356590269, -0.021559739337171813, 0.8679678093681855,
      -0.5332144111307855, -0.3310743558940641, -0.736761495874791,
      -0.9335111410615373, 0.9836079672302462, -0.19614897342209803,
      -0.07030798866567833, -0.3951992126580044, -0.9087388051981673,
      0.3782536896717419, -0.1375284589529726, 0.2444506299422904,
      0.23035965517663115, 0.956313126131854, -0.6318291945351571,
      -0.8196960069614323, 0.4127179250932529, -0.2546574672671378,
      0.5429993106150608, 0.42801765742261555, 0.23091839139957404,
      -0.7509197698446655, 0.12435294457069679, 0.017670171598587636,
      -0.7490260175322225, 0.8724494706287338, -0.14915236518046449,
      0.6273980914053645, 0.1694472218738925, -0.540595889837209,
      -0.6476224638488461, -0.2121359230376787, -0.44683288126536524,
      0.12504498855555113, 0.31612837195951826, 0.021701271356888707,
      0.9030370350496533, 0.21900389841820145, 0.5417217414722417,
      0.8898021362050379, -0.16050949713694473, -0.3258893966252412,
      0.32244171618717843, -0.2583356780155506, 0.7277605929854185,
      0.45573502183968184, -0.4658867985157551, 0.798496507330257,
      -0.6220255922168243, -0.320098518091112, -0.6714958423611521,
      0.5085696541486642, 0.1389671516280182, -0.5670572745298013,
      0.4923022032038391, -0.8046842651339183, 0.17026286179552752,
      0.27542166369115284, 0.7957026542413663, -0.7688159094550113,
      -0.7665367371645435, -0.6478204304536477, 0.10402887840948827,
      0.9309867242633847
    ],
    [
      -0.7751888272000245, -0.12147459795234816, -0.697100093179825,
      -0.9977513933575275, -0.7100195851425402, 0.9551851442817236,
      0.2117362658312718, -0.17418574455283453, 0.19611773984978242,
      -0.6664474363222581, 0.9368594328439057, -0.5336430306374442,
      0.6341889179017719, -0.6194703931331103, 0.4428118106091854,
      -0.7027991581059259, 0.25809546212180967, 0.5784961690421557,
      -0.8644837193505528, -0.7340292992319175, 0.1268118949685384,
      0.7832830757353566, 0.8820825857762724, 0.6628748778733251,
      0.9076580555381639, -0.4539453042008197, 0.21980766757698333,
      -0.24958998543040245, -0.7949249985963873, -0.7783113957157552,
      -0.09063543172074473, 0.1533245999829056, 0.3368871927714321,
      0.8722486115110355, 0.5764526254055267, 0.3429588205577354,
      -0.6432303641715631, -0.011120326004240955, -0.3401184013998364,
      0.4132672827745356, -0.6914129779423939, -0.9267765034269893,
      0.11937514078131395, 0.12515022429720712, -0.89736698346552,
      -0.4717929673061132, 0.17965336912896213, 0.04691656249494569,
      0.6367809190332534, 0.7630817202729037, -0.37506210820245345,
      -0.4654076302083827, 0.6346733222473979, 0.655054634938586,
      -0.5343393744009286, 0.9878237454228009, -0.3759709503081652,
      -0.1766770249675984, 0.4334079194648104, 0.19690162612529916,
      -0.9779505314094061, -0.5073514832993111, -0.9933483032347179,
      0.6715638433934008, -0.1400333091180177, 0.5826645954010083,
      -0.9291895203364118, -0.2555933922548199, -0.3248698709561588,
      0.6744312936856716, -0.6441791824085956, 0.682334464561952,
      0.9488108192451015, -0.07139197646515427, -0.10107255285299033,
      0.7793392893428925, -0.47070793487748475, 0.10270528249233868,
      -0.9662724036755179, 0.5091965872316546, 0.008587099113378738,
      0.7060932424411224, -0.18661017399734758, -0.90220648146241,
      0.27298993468936095, 0.30278993463684767, 0.870400886378071,
      0.370780921413866, -0.5328635016050387, -0.4235117757178726,
      -0.05791806188289739, -0.43496573617659484, 0.8785011178972448,
      -0.9908128445499051, -0.13535794620342223, 0.2525069264940787,
      -0.5122757101656523, -0.9470103746588117, 0.987555450577148,
      -0.5178330493228693, 0.30548915711448155, -0.20852088938949365,
      0.9578888945145598, 0.8003231227759025, -0.01633229757052801,
      -0.3382952668075849, 0.3962995073654101, -0.07296119571386406,
      0.5138549859062498, -0.8736675611988876, 0.14468294699772155,
      -0.3714027825233317, 0.9032164080340146, -0.28200245643435595,
      0.7259293688143105, 0.12379599440044897, 0.17446607854439522,
      0.980636570635748, 0.6003948813597737, 0.42905843976667857,
      0.259734596169789, 0.03642882731265251, -0.6758487104286761,
      -0.8742197176407185, -0.670282584322508, -0.006893093510331294,
      -0.873748476605575, -0.4388057804821446, 0.2421705210706282,
      0.7630639602657396, 0.09067796616022283, -0.8608847893994733,
      -0.874183764393349, -0.2348939476258951, 0.3093812078503304,
      -0.3406671117324245, 0.0624514706536492, -0.6398756527213174,
      0.6271375358364124, -0.2782727160976135, 0.9893592470491699,
      -0.9941559708751737, 0.6715913227923092, 0.2557376529644473,
      -0.6573575047108378, 0.46890081134117567, 0.4694645812574705,
      0.1188362977904438, 0.7485337079798331, -0.8744856706724984,
      0.7230749310218494, 0.43286764245272247, -0.5896612709611349,
      -0.2171268688084571, 0.6480168125228003, 0.32288458903729556,
      -0.9373175020892841, 0.3048918306278732, -0.06865862737619555,
      -0.008644418018450395, 0.48344056699683957, 0.7445154453524427,
      0.2912218048435551, -0.422610472955697, 0.2910552712860013,
      -0.46199496790532857, -0.8813302678283215, -0.06929582655452293,
      -0.05066847654848505, -0.3097252035803195, -0.30609882526711907,
      -0.7582606985434355, 0.5157963076096452, -0.8870127624723119,
      0.44226371211605153, 0.24236587615368776, -0.6070475374959945,
      -0.804736206571111, 0.6181497328714416, -0.40694436800293454,
      0.28510263611958697, -0.10406789441706188, 0.7315626250944276,
      -0.705122103271044, 0.5995700849584495, 0.9979956361862587,
      0.7419524024906838, 0.07887856231070867, 0.6287001414236757,
      0.2379767336811769, -0.21051832008149152, 0.5002415734204253,
      -0.9144340306744456, -0.9385667320699471, 0.9597601815756565,
      -0.5280414210383628, -0.25500378578678307, -0.46732970410241936,
      0.7261764477074073, 0.5066934451707987, 0.03654327292111015,
      -0.26312372632691483, 0.702462914482203, -0.33283023269117296,
      -0.486447858435747, -0.1462942421205371, 0.08678475756454773,
      0.8551502331687661, -0.3237193044695337, 0.9509313448560306,
      0.7764800305436501, -0.970980620545423, 0.3757296360663869,
      0.21321729656456823, -0.054094476340994735, -0.23521458754170865,
      0.2863485182753993, -0.03240090739098589, 0.47512421354590195,
      -0.3441995186887934, 0.8871238517337234, 0.2598156959209925,
      0.339294429523612, 0.776621082113921, 0.8662869100515893,
      0.8928077219086332, 0.5991642028843596, 0.27156582121222295,
      0.13868784876627327, 0.4809445278283486, -0.0009960349985891348,
      0.7862275009527018, -0.10246708093358281, -0.8001392932346261,
      0.8411647089385275, -0.20464477693880578, 0.4577444092806702,
      -0.2192247541044634, -0.9459777180547917, 0.9851883901313765,
      0.10770141074954331, 0.01062797248584868, 0.9547130974293414,
      0.5317465658015545, 0.18756500459294, 0.916955390292078,
      0.9602304917790665, 0.8700082012599686, 0.6711351278479971,
      -0.19364872802831368, 0.10402208520651168, 0.7111204130472926,
      0.5425607144422333, -0.655886126228379, -0.07805141854872799,
      0.9026672034640493, -0.7599748119770364, 0.9977863007397452,
      0.20977174848643676, -0.7485367606805826, -0.7712388860585371,
      -0.2611416839461116, -0.4449648812236764, 0.7457506125110966,
      -0.5137341858276621, -0.23522221978974178, 0.3446020966004588,
      0.37873708971080733, 0.14946259488360303, 0.19034879936468618,
      0.9505140658829143, -0.7837349229028714, 0.8985110496465456,
      0.5216793936806563, -0.13181200726518982, -0.0484445503300881,
      -0.5147122955468979, -0.9918300445609054, -0.4586118512289996,
      0.5535484576723388, -0.41819100647103946, -0.25790814834724873,
      0.6782853029087317, -0.4439552286533286, 0.5075853625556066,
      -0.5775752796081477, -0.29396470197508684, 0.6796528647672271,
      -0.7924479039471723, 0.8216915477627555, -0.45486981563391415,
      0.05022219803542871, 0.010514560110412408, 0.8770639816885719,
      0.42762774941937653, 0.7407316194704663, -0.09093448874505583,
      0.02270368525807953, 0.553615853565808, -0.3607892785999498,
      -0.2043244961325823, 0.4332901271957157, 0.054193098334866185,
      0.6084032025901069, -0.7618002095747118, 0.615316656766149,
      -0.004506424229992589, -0.9997962250779042, 0.8245154832384092,
      -0.006741621835436806, 0.1935000554020876, 0.4479328083767249,
      0.3023346729013281, 0.8841287929538693, 0.5729335833313782,
      -0.880675979683069, 0.4839256963560481, 0.16410330656179362,
      -0.9560823017414362, 0.5986295603284315, 0.3978975973399006,
      -0.15679190529164888, -0.6157388908926071, 0.8468837054962814,
      -0.32211934444243884, -0.6545227555520787, -0.5126587705549674,
      -0.03688516363407768, 0.41044448472975414, -0.11743575406735118,
      0.7031612680293406, 0.5570660659406146, -0.96804497264446,
      -0.5484421303620097, -0.8862525938715287, 0.09037273826352932,
      -0.41780123485595677, 0.5430097682055712, -0.7360080044668429,
      0.8188972590540895, -0.9464538546703749, 0.8302891294502577,
      0.49926431801533866, 0.8752071016057967, 0.5294903629960177,
      0.7843663316693061, -0.7627856191345024, -0.15327606503669378,
      -0.4929749492059412, -0.5059056098355765, 0.578897407050118,
      0.410592855569226, 0.6101433490915142, 0.8567134358439672,
      0.6632695117440086, 0.043285784095888236, 0.737687005664371,
      0.12428422649921389, 0.4128472556914402, -0.5116882271186705,
      0.020103701199942314, -0.24271086138734388, -0.38935120745066154,
      -0.6095368571195414, -0.44045824529847355, 0.6310273768616543,
      -0.6809163693783113, 0.02582609221284926, 0.8484450047852037,
      -0.6537463036161006, -0.4850853670976196, -0.10547134301510486,
      0.39757263796087594, -0.4224761636562806, 0.10733758536897264,
      0.8606570162630991, 0.4216816038193496, 0.8710035576316004,
      -0.1777216906015462, -0.743300759325745, -0.3253705205805515,
      0.8268837028542619, -0.673500397912167, 0.36721812105882323,
      0.5683151022147133, 0.8278800382114282, 0.2544528263117072,
      -0.37509512286182867, 0.3198490809797381, 0.846387158476023,
      -0.6731130057525241, -0.12102992365746834, 0.5230351944028966,
      -0.8565553127083083, -0.8026152160701416, -0.40344470062547355,
      -0.6904472238118533, -0.5389978133365059, -0.436398427258998,
      0.5503789683168474, -0.17519425301649294, -0.06872923173089518,
      -0.7196761991310114, -0.6169432645167814, -0.5771479264015582,
      0.30349055113311385, -0.3197727725741286, 0.9722612031987143,
      -0.21438865370831905, -0.4185469573689282, 0.08395377207870158,
      0.15028556057626474, -0.6561052300721233, -0.5585802721612039,
      -0.8980526686342345, 0.05292098530814249, 0.9818364292371551,
      -0.8910573808420152, -0.1884311216563077, -0.30435533532547243,
      0.12023656212990774, 0.9915941138967561, 0.415465776468924,
      -0.40450667592653966, 0.3093739436488878, 0.9089396297673522,
      -0.3549623477119419, -0.7125076036740512, -0.8981760783763262,
      0.22583072369179247, -0.48913602483251983, 0.19355041282626306,
      0.5734434283924084, -0.20424122690886115, -0.31189418893160514,
      0.0532428576553059, 0.48282680200047556, 0.5396125298574064,
      -0.12335085038842752, 0.1622102576333635, 0.2066708789244407,
      -0.08289111048845843, -0.16292130556052253, -0.5717241386045293,
      0.48912427149267623, -0.1748698038583094, -0.2639647636667841,
      0.6665000644443184, -0.5889700056091538, -0.07042894588401172,
      -0.6744603106784601, 0.15064067777521117, 0.553557750048169,
      0.42500302563937487, 0.9973031423109591, 0.03705759113551599,
      0.8814917912728819, 0.8799713894556125, 0.03389037039907894,
      -0.7930625839773526, -0.7470887317712749, 0.34243406538538457,
      -0.3480520611891791, 0.046455023190534295, 0.6289344667408718,
      0.8767286044496294, -0.008385331990624412, -0.25793366118934147,
      0.26607716281426974, -0.2746528087499529, -0.15279565504280734,
      0.4015921389740691, 0.6608622181270727, 0.533589038753854,
      -0.3483027781426311, -0.37535075021605824, 0.6171633772370737,
      -0.10332680884364365, 0.6214486245986084, -0.5702668332499101,
      0.33955105020429377, -0.407810963939482, 0.3953324129124933,
      -0.2640362611167184, -0.7552116029146378, -0.2932018981326485,
      -0.7243172168788647, 0.7514425750076632, -0.02354794777478686,
      0.6213236631188379, -0.6432226609274294, 0.1612652452069825,
      0.4045374493909062, 0.05430665757788411, 0.1359974484516986,
      -0.5704152272976213, 0.658099520632137, -0.19285189587058982,
      0.188941042183985, 0.7852175496442007, 0.8757697462142042,
      -0.5534486344998726, -0.5330133559475287, -0.2461773431135157,
      0.4030637519201603, 0.5908467995846389, 0.31815166823168406,
      0.5148567287216883, 0.028361777769726704, -0.5045958783637245,
      0.2172961599144263, 0.9019204003681178, -0.7944306256747438,
      0.418697443520335, -0.6524034703847326, 0.585944968194239,
      -0.41960247121390015, -0.7675403090717561, 0.7587866099367315,
      -0.11825810744535525, 0.18842292750728395, 0.8961105592948324,
      0.2247228533323753, -0.04591820721141593, 0.25302106770095945,
      0.8433838351985772, 0.5731951024233424, 0.3436065999018334,
      0.06572743940778336, -0.07660462392128276, 0.2038641909615473,
      -0.6106093246559885, 0.27741075335442433, 0.559596380179471,
      0.44179078627444035, -0.08963273869234856, 0.48132907001907643,
      0.6277120348618208, 0.8727883123333271, 0.5377187684523652,
      0.6898472189515781, -0.3944193561447551, 0.6875046024185729,
      0.2801709681494149, -0.37394972518510805, -0.2593544300623516,
      0.8745798776988019, -0.9650970201158584, -0.0229388265082342,
      0.1572165316627432, -0.1962221712538894, -0.4689703723228611,
      0.8588363611661043, -0.11277249499695374, -0.7797330615029376,
      0.37612721093239276, 0.6666785415753282, -0.2846736321272698,
      -0.9275616336398262, 0.7389930601821537, 0.6616606743914102,
      0.4740337641386718, 0.8452311793110177, -0.3445744482105786,
      -0.7108109939724763, 0.289849001889364, -0.6546595877380539,
      -0.7355311727460334, -0.8307642710587579, 0.20319835696824384,
      -0.6128337996595139, -0.18101912425199762, 0.6568998222340285,
      0.5456856424873169, 0.31442921790383993, 0.1730666121040465,
      0.20024386767802405, -0.42262952925424013, 0.08359583742999988,
      -0.6460638212969854, 0.4824702984161413, -0.06680562347559826,
      0.0028188926490337884, 0.8826685024742584, -0.33361121460955134,
      -0.5165532600705416, -0.1163863896222912, 0.7858063359117038,
      0.4458823619567589, -0.797867949729246, 0.7784150274767425,
      -0.16903386998080583, -0.4517133016543622, -0.10070429898135647,
      -0.6146421391706594, -0.9109298501500596, -0.3764351700477362,
      -0.792954833981518, 0.45856355119967596, -0.9707916643855006,
      -0.42215539424159987, 0.30825732391909755, -0.13896191054575535,
      -0.5586545604859978, -0.24500341068801923, -0.556913047641427,
      -0.47111818599338173, 0.5261606502915877, 0.30224350678678436,
      -0.4488181737405674, 0.5162706693793422, -0.9091223336520873,
      0.7034235184451862, 0.3253098652185309, 0.3447923357892728,
      0.8591346521642782, 0.27868959536865345, -0.989315436184405,
      -0.11978487451882103, -0.5028106436688908, -0.12419456329634526,
      -0.8404456713837538, -0.6612548090849883, -0.07962744404134758,
      0.8624164321854866, 0.3401427717360046, 0.015934891883721214,
      -0.7735151746363247, -0.5012207914809914, 0.13575379764000406,
      -0.500364883556323, -0.5799020274354207, 0.5687724975732991,
      0.13478766035602296, 0.6398826915926841, 0.09234065885135889,
      -0.6621531387472523, 0.3682065157280059, 0.49254899758828197,
      -0.9410476464492423, 0.5826531518983553, -0.018157079165560752,
      0.7541495186697582, -0.8358360452916367, -0.8340602212362751,
      -0.279132518467315, 0.3750150142903994, -0.6358264062134147,
      0.7760554531442918, -0.492963659409686, -0.8700841189634434,
      0.2536249013552907, -0.21090439908358283, 0.3395496439258663,
      -0.48441134436186717, -0.8341646197261325, 0.03221119521927118,
      -0.9323661723720882, -0.34008601977599096, 0.1327123159305752,
      -0.5190353457987027, -0.08368209735918164, -0.5271281112257378,
      -0.337470027606805, -0.14313959525510844, -0.5799496056116524,
      -0.00024386535548082122, -0.4587557171637502, -0.7117647841968573,
      -0.500239999631841, -0.6121670801938803, -0.5613703220382771,
      0.2843081186500691, 0.004963186467151104, 0.8659958337610574,
      0.4082328921453935, 0.22739428981513443, 0.48116507083428806,
      -0.7993485395438324, 0.00563624920597805, -0.980177019142479,
      0.6388729400638447, -0.18074661905763723, 0.1290791422294868,
      -0.0803924669264946, -0.841173662440267, -0.4086522661941623,
      -0.9190730250016235, -0.7577747414633693, -0.6884548191653601,
      -0.9203419212002082, 0.8949236565905396, -0.4275890123304742,
      0.4399271044232642, 0.027233707221386627, 0.024282626954120534,
      0.3002649899890568, 0.30316150535250097, -0.6557139934030487,
      -0.8480409144565466, -0.49291169686082803, 0.4864623377777346,
      0.7054603443278902, -0.6324962871056359, -0.028079620441483044,
      0.8742656079501971, 0.290707400729445, 0.6736411125601109,
      -0.27081079934551555, 0.19639899050552678, 0.8376541578242356,
      -0.7869719477625439, 0.756661907445797, 0.35402472950999675,
      -0.3385197882247679, 0.9387731569078204, 0.5984276236114643,
      -0.17837849482748336, 0.834031179032424, 0.46391659280453146,
      -0.47055251183559577, -0.9433100496431899, -0.4188561300698419,
      -0.4649898918855615, -0.17723431504510012, -0.8095011214863033,
      0.45616550307658565, -0.32554460658421336, -0.443799813253305,
      0.44306413254263477, -0.9872128980760513, 0.4491610530933787,
      -0.6092830795159521, -0.4421992785233724, -0.42957562543392225,
      -0.11799967428379121, -0.4593278199229962, -0.3552617064304089,
      -0.21149457676888384, -0.2653857689120427, -0.984027571157311,
      0.3344101819726757, 0.9482403561458659, -0.707957395397723,
      -0.7669330221429527, -0.5020935469656362, 0.5822889589695333,
      0.7989926519441228, 0.31116212447947644, 0.9813536964850678,
      0.4603273576539477, -0.6039582586321934, -0.45475583002660525,
      0.5957254723014338, 0.5130735115602154, -0.4695214498410434,
      -0.6167848824709901, 0.4117884099206752, 0.9678734525634649,
      -0.7988568927063926, 0.5093798967405578, -0.4818187701749017,
      0.7595075092661441, 0.058513436558402354, -0.3521580205757022,
      -0.6825745131930461, 0.96836292906104, 0.8763795229584894,
      0.20041646293747828, -0.5543958390928605, -0.08458594464661306,
      -0.4325351672912201, 0.6333110151997894, -0.6273174974825464,
      -0.8097748989332825, -0.6067759937415453, 0.6684410567506403,
      0.7031627277432948, 0.7724430387067351, -0.1025945451095911,
      0.7872718468001625, -0.33945590016260807, -0.3253591302086738,
      -0.29858962160589186
    ],
    [
      -0.22412680990728395, 0.0808733426904169, -0.481075842422098,
      -0.2505975739546402, 0.8135208986970675, 0.9318233137337244,
      -0.09672679288285879, -0.5954354488528786, -0.1378681230825154,
      0.14886565377211225, -0.9591901372862321, 0.42746499227407053,
      0.8985911016761299, 0.15564580854773924, 0.9361909844303726,
      -0.7663129625709884, -0.34809166816692017, -0.3427994004166677,
      -0.999735348486142, 0.10195227815491847, -0.2995024130876702,
      0.8665025777182529, 0.8824802112837742, -0.09971179335762681,
      -0.3223092952124489, 0.7921311267661242, -0.13702658034281612,
      0.5582028146675553, 0.8948958772725621, 0.005239893985780952,
      0.6786996470758826, -0.2958845977398541, -0.7837973615857541,
      0.06911177312014694, 0.5048089808915037, 0.19393606539214403,
      0.872857980395827, -0.4805879098456507, 0.017117068132928015,
      0.4809685925610663, -0.4799164559717095, -0.9746131931975639,
      -0.5868622164258963, 0.6746580316877155, 0.9308421813153189,
      -0.9171614238129675, -0.0904964117025644, 0.7082537751151876,
      -0.6597329328684225, 0.19057164458010378, 0.11134749433225632,
      0.576284617097345, 0.019156401920664035, 0.09956736029829827,
      0.26236240504738495, 0.75419278222759, 0.5835229267130071,
      0.8470968663031635, -0.8370182048463497, -0.7370818023699144,
      0.9842667063046937, 0.452222441996994, -0.35680768798151075,
      0.29857904976938254, -0.6720467294029517, 0.7053559931230442,
      0.4434340702766657, -0.18417977271171537, -0.47478781306947004,
      -0.49079169846933235, -0.17037525013895705, 0.14713113921511756,
      0.6523418832643078, 0.31212756628943383, -0.18167993780400904,
      -0.21419485300303487, 0.0009590501017338049, 0.5951686283956472,
      -0.13881322551456599, 0.8093205145656204, 0.6845611019069877,
      -0.4495517104026461, -0.8700495946364457, 0.8797487377180713,
      0.0489653111349444, 0.07177186006468883, -0.7838184640259196,
      -0.604579776432959, 0.2605258304903786, -0.7587777253725321,
      0.4579622793477802, 0.166585252780882, -0.15678995462643108,
      -0.5907538431976289, 0.44823405782504855, 0.5092044585046045,
      -0.606765201171132, -0.7412360139158509, 0.7288877498597373,
      0.4880428930457956, -0.3139001830488901, 0.021772246237403703,
      -0.18715173279469743, -0.7118704783383794, 0.0016791344283859644,
      -0.7217272452242689, -0.27468609857100024, -0.9599205307602903,
      -0.9537424183302039, -0.5325238154152268, 0.45672953528817306,
      0.6449027836068115, -0.4639265123840386, -0.7783688210911217,
      0.17691130786733833, -0.592790187437108, -0.23389583760004218,
      -0.2777967356313984, 0.4642061042454726, 0.10009966398616266,
      0.29392494460724095, 0.6331999229873948, 0.6729592407949938,
      0.42905347213690614, 0.8745011232355386, -0.4621255119650276,
      0.8629952122000777, 0.08923009202413246, 0.5047279919407281,
      0.8276653264717448, -0.5741162002912854, -0.019033757141852625,
      0.8246800029743562, 0.4256301246499339, 0.6464716319885011,
      -0.03895112892841457, 0.9384017750923483, -0.3050623275999471,
      -0.5216380079924039, 0.4931323182228171, 0.39495591881009506,
      -0.9271080449411895, 0.3676517203785985, 0.7350107359787872,
      -0.30923744156754385, -0.26337365040771177, 0.4620560976019532,
      -0.6471820396683974, 0.18649006059842854, 0.8518348559718216,
      -0.8919288003690005, 0.34724385727768503, -0.9816857241113754,
      0.7881878118837782, 0.5540211501686505, -0.7039601728981792,
      0.0001758067345889458, 0.7177344544308379, 0.8984920166935622,
      0.494925401664017, 0.1936719013116006, 0.8899368853123342,
      0.1057035668229016, 0.4875478167415954, 0.16473451905168934,
      0.5762371744049881, -0.624476569918698, -0.887694128136217,
      -0.841639002595509, -0.5037448055795313, -0.5771074016768725,
      0.34247198928656397, -0.21791029542313334, 0.1830705037687319,
      -0.26471241059778805, 0.1777366098951343, 0.65120556534074,
      -0.6244849064009288, -0.06708083661305375, -0.9657623142966134,
      -0.530790732215924, 0.5146839558724396, -0.4031070009490523,
      0.8521390860749776, -0.5943969314739093, 0.22479349583702035,
      -0.7246669418434659, 0.5005744694884777, -0.8218264673965101,
      0.38104400607276556, -0.7960141337679056, 0.03964261690791915,
      0.4331468059012509, -0.3138633059032738, -0.9752092626361204,
      -0.3163495031223751, -0.12248536478807948, -0.7670900280487589,
      -0.012161713163282961, 0.018638344350823566, -0.7190542520048604,
      -0.4112715918468921, -0.9184488329446352, 0.8186916502962278,
      0.1613167432253717, -0.5642141591122365, -0.36160756382986214,
      -0.04283449337040146, -0.6124577274009595, 0.4640672062239788,
      0.4604013413858592, -0.3417858278526218, -0.4818180380478223,
      -0.8061163287977573, 0.5961631748863447, -0.6835155523264023,
      0.28219038324911905, 0.24379374427637712, 0.14379064115138718,
      0.7511207884805078, -0.6772619829998643, -0.19008310255235683,
      -0.23734469760269628, -0.8127455545978233, -0.16912171598495096,
      0.6199983832845204, -0.6590224368143405, 0.8603465658619611,
      0.8667712614726457, 0.6858164883647024, 0.5919661400807668,
      0.8351669226974474, -0.01613870561393904, -0.21679188004794758,
      0.7922162979679173, 0.47085076327460884, -0.48554894982173336,
      -0.12946401262670282, -0.09731379407777885, 0.5610527649627706,
      -0.3740875979198557, 0.6029866588199755, 0.7280772328472738,
      0.31461375239546596, 0.9893430581653382, 0.21436734273357683,
      -0.029858803380016674, 0.5899045885179284, -0.29184390880652256,
      -0.34733873355784084, 0.8283273905111783, 0.6129821464225005,
      -0.1096345581754643, -0.09176473715299904, 0.4223269705862349,
      0.6573682040144577, 0.5658116000722471, 0.6951957466191239,
      0.7959597012473796, 0.8649575297344878, 0.7387079799994245,
      -0.4210370833735224, 0.5675052070974931, 0.4801562426544783,
      -0.6857089121648028, -0.22741556943510233, -0.8297063418915429,
      -0.1188230441095075, -0.9462064766384954, -0.007593146351271951,
      0.8019646697339198, 0.7028039100869314, 0.17560521621489666,
      0.7758623778357134, -0.3876883431028255, -0.22494010804007036,
      -0.07176104605039901, -0.7889034609520729, 0.8566035036370643,
      0.4788246861799461, 0.15032834170714127, 0.6149806685295656,
      -0.649724616321147, -0.6309972281106937, 0.017096402002145794,
      -0.49493457592731893, 0.6092238569931623, 0.8238914945831022,
      -0.21794742291939206, -0.8679238282763344, 0.0521056524841601,
      0.6697984374732946, -0.9410866903099242, 0.3619579043198624,
      0.41638090888396073, 0.9660494036246323, -0.7637592993506237,
      -0.9557965097969201, -0.1310073242694294, -0.4557261027161683,
      -0.02529017038345316, -0.6769273130198532, 0.0983986491383173,
      0.9466262729019932, 0.5461580011611393, -0.200127278797805,
      0.9332698183117234, -0.016221064159602783, -0.09137034525096732,
      0.040863168056772814, -0.7921030708426193, 0.2033166937812192,
      -0.24324896905678717, 0.2909530102294866, 0.6074335650801812,
      0.3045088779454299, -0.34661144707822755, 0.4961927634262473,
      0.6860416493773678, -0.985943457462239, -0.2082686712633608,
      -0.9943482376363142, 0.9381426852032231, -0.7429044616701428,
      -0.01954826199443449, -0.7001675404927874, -0.6627880481884341,
      -0.45706241557550475, -0.49275560795494666, -0.6828145561373407,
      0.4988667589423641, 0.9794095550835871, 0.07866019810261893,
      -0.6301857604597325, 0.2208095127888039, 0.8782611521889394,
      -0.44098993051667135, 0.27181269710810474, 0.3819087349309931,
      -0.17235219865339557, -0.8933666155626927, 0.030573107067862093,
      0.8435040467604673, -0.41720601680965164, -0.3646793512254791,
      -0.7996571041365668, -0.7693525949033644, -0.06213105081007697,
      0.9942323218965572, 0.9238823513099232, -0.5585159794416223,
      0.9156449399341624, -0.027715755848482182, 0.540398907307849,
      -0.5798991801074682, -0.8771221643979459, 0.5129876098004353,
      -0.18425711386313326, 0.043311160322390574, -0.9349091297848413,
      0.2597747264656949, -0.13194184933498265, -0.7756298008443245,
      -0.02606748132794401, -0.4408309091702183, 0.7495858415840084,
      -0.2715073177832319, 0.38926749221933665, -0.9029918010126261,
      0.44313884247775714, -0.8660901431515704, 0.7575090615333848,
      -0.9122080850311112, -0.0794247108285373, 0.17235586876024112,
      -0.6769888899190635, -0.30706312516912027, -0.6893395575105776,
      0.6595837279332599, 0.7789166123746756, -0.6526071767659323,
      -0.4888645274029262, -0.38674637359298547, -0.2689232057889459,
      0.9359309325054963, 0.2910706092673161, -0.5257452891926104,
      -0.4549205636693521, -0.08857034347306847, 0.48680032709651844,
      0.38282429790258243, -0.956268538866845, 0.01652007412330292,
      -0.9056981694011976, -0.8473218404471474, 0.5972528047065033,
      0.8955319350082935, -0.1053201441289362, -0.9881850465628221,
      0.9740559008573229, 0.22593650386978137, 0.8588920959400177,
      0.06544350970617918, -0.9823068605486358, -0.002419958286711932,
      -0.011710402137172338, 0.17615237062586075, -0.051748378739544076,
      -0.18937956524870092, -0.8732197148765497, -0.9220670480219719,
      0.4304608542978676, 0.2177086223286535, -0.8087791905370918,
      0.24685242421608367, -0.574925734160745, -0.19943670971943295,
      -0.46463320721976586, -0.31479633851659816, -0.6758489065690694,
      0.2233268938609596, -0.05279092785237127, -0.48653229691669475,
      -0.3380259459485395, 0.7168771761951773, -0.19544174381478152,
      -0.34427739787663736, -0.8031880444457786, -0.060336065852076626,
      0.19738268126160685, 0.7781386399847348, 0.8465770692756611,
      -0.8150856267386821, -0.6128652594262372, 0.7497017325979027,
      -0.09477910618567886, -0.6094144304857143, 0.6812581020190605,
      0.0027073385027667207, 0.028976877097787845, -0.8258735931996939,
      0.5516036333537762, 0.022536354318225982, 0.7371436600881389,
      0.8050827343981344, 0.10251443487288325, 0.6567811351362747,
      -0.37258051964018524, 0.07475070008524831, -0.8831149261370759,
      -0.02147245951583443, 0.9880522618121037, 0.5475590873328393,
      -0.391436944208444, -0.6291237729180246, 0.7010518863157182,
      0.1389735704773276, -0.07900065408247992, 0.5410487963082597,
      -0.2808182419534333, 0.06815673593568805, 0.8859212750787404,
      0.824555054626154, -0.6193456274063545, -0.00498708483535415,
      0.3057555936066638, 0.6807644510310604, 0.3855842960597111,
      0.9939195152889471, 0.47981165631884926, -0.07494301700052519,
      -0.6295457143228611, -0.8039237855904608, 0.318193821965981,
      0.22331790366438176, 0.4399529811899794, 0.6776952617635019,
      -0.4396147343055943, -0.06846096532216128, 0.8452863364520975,
      -0.20457530126884382, 0.9080303887321337, 0.8647512191466431,
      0.5738405771332231, -0.06275694053252101, 0.32847311027297277,
      0.8435028102665596, -0.09504718877063745, 0.3585546517562421,
      -0.06768115479567305, 0.6831872591352006, -0.651470768526047,
      0.7782016028152836, -0.5610790334815268, 0.5043590322462737,
      0.7891872205225852, 0.5297765492192243, -0.9291159661041637,
      -0.9245780077980403, 0.7698850354581772, -0.10410270700121993,
      0.19909549631453993, -0.13375436774225768, 0.7579097958282386,
      0.48495344998310275, 0.8668958413458445, 0.6977323383758622,
      -0.18255391800194154, 0.4737784986274298, 0.6576595307871931,
      0.7593640179550998, 0.5968348919192339, 0.8793174539618511,
      0.8596489759305745, -0.3750988678318814, 0.8801236910059722,
      -0.6682239573679749, 0.7021849185151852, 0.42461306397786336,
      0.037532548847148295, -0.46984161317131434, 0.07733328544250906,
      0.9101653683250848, 0.7123939155490735, 0.5549537918099503,
      -0.529635399507598, 0.11210023369268507, -0.30321528449075563,
      0.6453201826107113, 0.8602245801101409, -0.016442953233760438,
      -0.5551617936622368, 0.6278237302681542, -0.9020715019271703,
      0.09810479018301743, 0.8348847430737805, 0.5446397400437508,
      -0.552549103110263, 0.8725943744702991, -0.22831256296941937,
      -0.5690363101962732, 0.4646513299919266, 0.9763578033650373,
      -0.317100509151361, 0.74833737718967, 0.5041533188508569,
      0.05312075610428968, 0.7637344966883561, 0.35726208491661726,
      -0.24592490774602194, 0.8195565099307345, 0.5883904129244484,
      0.772890032593816, -0.32242381664157316, 0.3535728688198878,
      -0.8042991431722606, 0.9086666703304234, 0.8528184894634001,
      0.566271738256598, 0.6153571415585604, -0.3080600815049248,
      -0.6712325250255282, -0.6749924764824269, -0.32944480483972916,
      -0.9554003533254609, 0.11227223113916995, 0.04887391409412345,
      -0.4624761819614056, -0.8127489485936725, 0.4436540416929442,
      -0.5953427283460409, -0.1193187276657488, -0.8491148202376197,
      -0.9070295318512018, 0.3715938843313218, -0.8823445630512059,
      -0.8779104654104168, -0.4105507437611906, -0.4545190324942614,
      -0.5452215181743219, 0.1634990973754249, -0.2678566096103756,
      0.233045418336987, -0.7170875330169713, 0.027148062930307137,
      -0.6216443561632863, -0.2669477623399388, -0.9520060013826579,
      -0.7770277788132138, -0.39403525810215534, -0.5702187064121,
      0.819018500183887, -0.326139560347952, -0.20783427735513493,
      -0.2806536115560343, -0.3454994161708518, 0.7919368544064316,
      -0.4943280311962952, 0.9994018916468179, 0.7703970352076288,
      -0.2931706243786607, 0.42837335001081955, 0.19811307449026572,
      -0.9639379577036316, -0.9257074405748051, -0.5619754297114867,
      -0.7141427797988107, 0.7055458489652082, -0.869546906631582,
      0.040204122520459684, 0.49298099666177064, 0.473875886384163,
      0.22700276849939716, -0.31095326542293567, 0.20785841313676157,
      0.6579940529225476, -0.12666198478993795, -0.9552992002274872,
      -0.6360389544598699, -0.012465397561374658, -0.3110537446391062,
      0.529744362015979, -0.3613424800640881, 0.6965134845458731,
      0.3331401666975924, 0.7122806689556911, 0.7996498568190984,
      -0.4740937965468106, 0.8731616239878379, -0.8510661725769726,
      0.3021617778531889, -0.3499529598862958, -0.7251015094001896,
      -0.20485637536287582, -0.6280497522506008, -0.101716704079029,
      -0.5490499987555673, -0.6473986149052302, -0.03495086812471593,
      -0.5161212875567638, 0.2600196389337457, -0.9357430971004419,
      0.6367584401190722, -0.1846380961161671, -0.4394192713160039,
      -0.6181943125419385, 0.4150952717753533, -0.9125810723704086,
      -0.15937427661043246, 0.7474262109119181, 0.9375446552407194,
      -0.7916881469892241, -0.4893947504917415, 0.6770578747220637,
      0.3493419245537819, 0.021127455557145236, -0.33224499646314154,
      -0.7153401489944846, 0.543062855098142, -0.41390546139889617,
      -0.5144162917206923, -0.3354251084881681, -0.8612302588724057,
      -0.5169426267709958, -0.3134321011947785, 0.16573214438959294,
      -0.37119231869511715, -0.7376075043721126, -0.7897781329142681,
      0.7483169778365011, -0.48690855079330664, -0.08092905976650133,
      -0.5513779992304699, -0.6538676316618908, 0.6893364909274999,
      -0.2910524170854951, -0.7702842653745186, 0.6960920381832336,
      -0.8285735085957007, -0.8009884752624821, -0.38431066062698305,
      0.17155665369647544, -0.3276909466760909, -0.305943344555768,
      -0.9264807629444456, 0.9827992138006141, -0.9731981830734808,
      -0.5982408991011359, -0.8418216367799376, 0.69006442933442,
      -0.9355681498269033, 0.6359391222261799, -0.19308215560067188,
      0.5145515128530262, 0.33926726688709063, 0.19197391172705203,
      -0.5212502342467329, -0.27838802939867113, -0.46045896030424815,
      0.9753348580766326, 0.4270570422012452, 0.7644194771067072,
      0.08935734257678174, -0.7861586939856768, 0.8446615439761977,
      0.7952528634829727, 0.7701194093252623, 0.8548488413878359,
      0.34253302601045066, -0.1300611105626257, -0.3399952491986884,
      0.5696649437740442, 0.17988015300876237, 0.925462880729035,
      -0.07318756746013966, 0.11060167754534778, -0.6418602863631979,
      0.6588953655783691, -0.14953146375250137, -0.16845516582960984,
      -0.5657977599190129, -0.05298229602269888, -0.24981017538062789,
      -0.10630692976206646, -0.5838906400543364, 0.9465004783172115,
      0.1668458816081615, 0.10157844563005458, 0.9185931513194507,
      0.05867719565309759, -0.5816387463340291, -0.7191725801818429,
      -0.6508368898082479, -0.6236540680425477, 0.18698681466905986,
      -0.24733238706518357, -0.441724374142066, 0.8351785668848057,
      0.8691754963501883, -0.3319980351695717, 0.017235808964516153,
      0.005655369768270191, 0.2889289022060515, 0.5737294975448632,
      0.2305326313591185, 0.4878141680873642, 0.354894055634261,
      -0.9457995687349516, 0.1703508480694964, 0.5542703473914976,
      -0.3486399646946059, 0.6466777989828199, 0.6615293819529149,
      0.9616811251724875, -0.6763219769527962, 0.537454387861358,
      -0.6327696418008024, 0.48313959512542093, 0.14553237004435582,
      -0.13259261805646805, -0.0070956920354592334, -0.540127475930209,
      -0.8303477014508318, 0.829098646957402, 0.17704973463381268,
      -0.47755235581335365, 0.22864563129462656, -0.332579960152656,
      0.359933369182015, -0.7780430291809846, 0.8663183120970706,
      -0.06469833362966737, 0.2795520374652858, -0.11137589276157023,
      0.47052346011433244, 0.10859304702339001, 0.5971832253712166,
      -0.4666063731419636, 0.45047454686987853, 0.7763839052637782,
      0.668140306414331, -0.616498939738102, 0.7909309879697632,
      0.9425945696900793
    ],
    [
      0.8283395689095876, -0.8278548674092461, 0.7527511383724153,
      0.16245779637367086, 0.1124525023247056, 0.16207779763964458,
      0.21353113796363665, -0.30394093045294746, 0.7443132670933128,
      0.9793685628335349, 0.13274853200591386, 0.543175377071381,
      -0.7019361375205855, -0.45569237503651827, 0.49042102442410496,
      -0.8076248430224857, 0.4039101804761098, 0.9433484855803007,
      0.5862525701760175, 0.29214229324505503, 0.19028066676973543,
      -0.9676205580074959, -0.8873022626405529, -0.43348735310935727,
      -0.271734926993461, -0.15527475469831797, -0.7929699017265635,
      0.9797891481194156, 0.9934051262165546, 0.09424461272432616,
      -0.7619790013393088, 0.16279364255537088, 0.09692550337558226,
      0.9215631310786652, -0.9773117345956761, -0.9441175607865766,
      -0.717121092641837, -0.5419487713835158, -0.8661978098519234,
      0.4570149350852373, 0.517425635263129, 0.2919997844308617,
      -0.04465386543681671, -0.4360443139187975, -0.3649760753066156,
      0.5434851320137986, 0.8360582588762191, -0.3908010987463095,
      -0.7709453076977133, -0.6509781334232074, 0.9747335437900366,
      0.9306729205729347, 0.19641126948544096, -0.9372638705981373,
      -0.11222031665524357, 0.5140110779843594, 0.1566582065021147,
      -0.3850788814455117, -0.7424078041205071, -0.013002142220119861,
      0.02746721837708499, -0.35204346558847943, 0.7842522161890617,
      -0.9156914387400374, -0.559725084391546, -0.7069875979176783,
      0.0850020863393337, 0.6660155005506336, 0.4951855845164026,
      0.7767514076017665, 0.44266435937511694, 0.42067692998260187,
      -0.003693711975012448, 0.6541815045132782, 0.10991695725298767,
      -0.6904524618782313, -0.6808415638916832, 0.2246273937853327,
      -0.5051358832958059, 0.06025889900734738, 0.1937136949669207,
      -0.009793905766609434, 0.6810687047900466, -0.3336460619718533,
      -0.8108380787875329, 0.044774004048603544, 0.33234911321582894,
      0.9598488415832929, -0.1644114901919007, -0.3591187576496635,
      -0.6600136575570201, -0.5215586976213746, -0.45354143968351446,
      0.11444520057497254, 0.24619491849188657, -0.9347395659458506,
      -0.9652253206220349, 0.3785931434129064, -0.30250312643676613,
      0.02791128552330191, -0.1341040842206218, 0.9471357059555481,
      -0.9772878689458988, -0.8916058633034964, 0.2400983735439648,
      -0.20851303062442117, 0.22975621242997413, -0.9224944246958424,
      -0.553381519706531, -0.43374622545388597, 0.8008846266404848,
      0.38113573025195, 0.5637139338288581, 0.2135119717103371,
      0.6174296405674462, -0.10365983200291407, 0.0075817678754188655,
      0.9567284660492295, 0.35596509940698295, -0.3557915635644746,
      -0.8510923563363861, -0.8273321768362827, -0.43888944129538077,
      -0.944842734589451, -0.45884227231152463, -0.31955645482532136,
      -0.40854564876415145, 0.26915496482851076, -0.065241666157132,
      -0.7658131642520356, 0.9887045815779438, 0.5490308154362458,
      0.9236211319887482, 0.9068478983103367, -0.6052913212354079,
      0.6383161760258602, -0.8804845991626533, 0.13108356133727828,
      0.8787466138076705, -0.7443618178170279, -0.12252792662392498,
      -0.4781758616343903, -0.1873714079918538, 0.31893098551419863,
      0.3948193661621682, 0.2676533983092435, 0.960162619294636,
      -0.30018567925701545, 0.7766323686737304, 0.3602051929351249,
      0.8569461412400226, -0.9043266032077484, 0.8849039234176987,
      -0.8498606846689558, 0.6910732332841674, 0.76686886829865,
      0.9785770840236796, 0.4900554733500977, 0.8372007988560353,
      0.895704425133284, -0.8515827549260999, 0.03262934503581105,
      -0.8207694290789425, -0.48591689479864897, 0.1825138930027017,
      -0.9688029685647042, 0.517769656045215, -0.5961291920014555,
      -0.5506086866896545, 0.9670557845377132, 0.9479342057323534,
      0.1477455054000778, 0.8083604693123005, 0.2264060763843232,
      0.7506505507914212, 0.98728049051905, 0.6170402429765289,
      -0.12934224312980724, -0.31472540810555794, -0.7663638245960089,
      0.3079545323123698, 0.7713631020764677, -0.2997386190508635,
      -0.4054966056469458, 0.5996706126918334, 0.8050764574084153,
      0.7190413398461897, 0.44603884413262396, 0.28392356754170267,
      -0.0020939381966686987, 0.9524162132450287, 0.9342559443551499,
      0.30196897020358815, 0.751079724228708, 0.186435656013471,
      -0.8935691170563032, 0.5188537465113647, 0.4143272591700433,
      0.030422438422564646, 0.8454098355512936, 0.325014775883119,
      -0.655374190126536, 0.20237925311615834, -0.013898182878881116,
      -0.036768529024394425, 0.8015722966896388, 0.2585967153253863,
      -0.4938371113620357, -0.2122772885335067, 0.44956579579829503,
      0.4558831220684918, -0.3105982877916844, 0.04389128832001976,
      0.18344743070770297, 0.4507190392621161, 0.6472878419457606,
      0.2961494461759271, -0.40883487779823247, -0.6953518905294338,
      0.05322669029531246, -0.025328907254308586, 0.36396511319688063,
      -0.10212740234610873, 0.029004901462335475, 0.5475032844696712,
      -0.5945762486436643, -0.521727136539825, 0.2546266748521937,
      -0.53600105010424, 0.2554092959136307, 0.29296904647114985,
      0.06408585329597294, 0.33248365599571006, -0.5949191885137388,
      0.5945223172252714, 0.8390686704300867, 0.8929729063062362,
      0.5712315591095565, -0.7724299072727399, -0.38669190299852474,
      -0.3160141003922323, -0.3815851351381654, -0.8575961490909076,
      0.879544658145166, 0.8351540642634658, -0.03817477688556137,
      0.21449328452419714, -0.6790569336252004, -0.004896688042220987,
      -0.8419112540167122, -0.6028315185482698, -0.5565345006425071,
      0.32706633562467546, 0.034362097720189944, 0.7409102799666476,
      0.6909598137815127, -0.98376941242666, 0.9061758905862747,
      -0.2895587282198484, -0.6045268517458644, 0.05062721487649258,
      -0.35555961113480183, -0.5371270336000884, -0.43719121694350394,
      0.05157398215928266, 0.043723891530111025, 0.5096871277643706,
      0.4380595653479493, -0.5122546486037964, -0.9626492236436768,
      0.012732203150131571, 0.7470014942632632, -0.08697601139515543,
      -0.33740901987828487, -0.33219302686988295, -0.06025350653758954,
      -0.4728287623388461, -0.7885987458396944, 0.8695072449964667,
      0.5258379495276606, -0.46236386072996716, -0.15129782702597527,
      0.7791978826856321, 0.2726545762001771, 0.7414828834091685,
      -0.707327282548194, 0.32650192298764447, -0.03230048028749577,
      0.15339070717670955, 0.5155659108485384, 0.07211634088680041,
      -0.6479968076623748, -0.9602394987454352, -0.6925668574357986,
      -0.862085294065678, -0.5274753472571794, 0.16914003387125653,
      0.6984089470677657, -0.254404764925825, -0.8854991116771664,
      -0.18388218270056278, -0.9219573892914243, -0.035354827579590964,
      0.8631443055329631, -0.7398119845392332, 0.7057617413214761,
      -0.5673895364014365, 0.1387592524226231, -0.3587014781829527,
      -0.6399526765938619, -0.32069917493395783, -0.4333524253360177,
      -0.3827530579100977, 0.7790648678728309, -0.8205047303328787,
      0.34423288079595205, -0.1063328305405804, 0.6345834874886416,
      -0.44404652301253345, -0.16507864296165753, -0.9213873967814181,
      -0.08871863367073818, -0.4240636312631061, 0.6322254966373038,
      -0.22875810049011358, 0.6833058345438277, -0.6333728775957064,
      0.14674649697499698, -0.03110676991544903, 0.5431840822979903,
      -0.8702298019791721, -0.4744964629913877, 0.9818867877534507,
      -0.31904198809850604, -0.15196686420002958, 0.9845480375235822,
      -0.6134332083647931, 0.5335853204098755, 0.35289462666104443,
      0.7492369921016477, -0.49942297965923066, 0.807048671620664,
      0.8257447024148745, -0.056489834344890966, -0.4923057988829749,
      -0.2623998165895851, 0.5732266528457841, -0.21698428405484327,
      -0.45349266325861226, -0.8084804478219398, 0.5041607897446188,
      0.6153309557436062, -0.7920298382314548, 0.43319115339288183,
      0.4570765713474443, -0.3174440016217299, -0.032708028284825996,
      0.17641084836737786, 0.1753064349345288, -0.7593683915553426,
      -0.9925080460659572, 0.7100769922680246, -0.3470009476744922,
      -0.7481368395529362, -0.567495281851321, 0.6676985640895605,
      -0.08804259583119745, 0.8152149408871132, -0.6110719306639947,
      0.4903518806618261, 0.9459069875029216, 0.11496514957862436,
      -0.028769720385148023, -0.980315222975761, -0.6174384819906891,
      0.5100898623651298, 0.09546386964588871, 0.054488610053938125,
      0.4672719697074297, 0.41194094116712154, 0.19489517019154023,
      -0.9200579761974774, 0.7231038345752636, -0.1748581536395939,
      0.5996125878912935, -0.7703912926457637, -0.5701370475358574,
      -0.8525363872525142, -0.8270308489213511, 0.32426134986842436,
      -0.43108464084492715, -0.24821150171292983, 0.5471160252904688,
      -0.680579052423512, -0.2047475472225151, 0.37039706320890176,
      -0.3942323856378973, -0.4123912660058555, 0.029207830325022055,
      -0.20463331297967535, 0.667137670415074, 0.9998951697148151,
      0.808231307122214, 0.32078163468344334, 0.3637072750955519,
      0.809815853989257, 0.28798697700079057, -0.042498534561616896,
      0.46353397241481265, -0.7227723871831455, 0.23208857105233127,
      -0.2538018512638973, 0.2442606365873483, 0.6833636981630642,
      -0.11854571764429833, 0.019027745136040775, -0.4045487059803432,
      0.9375169783337238, -0.21127013791393434, -0.0837261884092233,
      -0.46879283872846056, -0.7987525021142634, -0.04407402835557228,
      -0.12700628102263334, -0.23257792752925832, -0.3328987724118435,
      -0.021325280786677503, 0.23268001334061594, 0.2512286311446288,
      0.900370790504676, -0.5980164107058896, 0.37855158769314645,
      -0.16108470743244085, 0.1994549184971337, -0.9848415971832463,
      -0.6959403170179468, -0.2846933635123339, -0.06339692089060822,
      -0.9457237323544154, 0.1307453826753009, 0.10439732211822594,
      0.6776418195672518, 0.4719178448720478, 0.6555668648309507,
      -0.6704665966089784, 0.5524316424919591, 0.49494822673367134,
      0.2545072673817641, 0.13843788061646123, 0.29005469758520785,
      -0.14901987420980056, 0.0239430171081656, 0.763652099541444,
      0.8608669160133924, 0.9048333134202977, -0.1030517973184013,
      -0.6606050334533666, 0.2879502749050378, 0.18175008232753065,
      0.9681233842400969, 0.8438998467035899, -0.5348715368645429,
      -0.8832502723800939, -0.43396842754984766, 0.9923989116389493,
      0.11602216369963214, 0.18541762828235164, 0.7649600436276791,
